<?xml version="1.0"?>
<opencv_storage>
<opencv_ml_svm>
  <format>3</format>
  <svmType>EPS_SVR</svmType>
  <kernel>
    <type>RBF</type>
    <gamma>1.</gamma></kernel>
  <C>100.</C>
  <p>1.0000000000000001e-01</p>
  <term_criteria><epsilon>1.0000000000000001e-05</epsilon>
    <iterations>3000</iterations></term_criteria>
  <var_count>765</var_count>
  <sv_total>55</sv_total>
  <support_vectors>
    <_>
      5.12188315e-01 6.35445833e-01 -4.56304699e-02 5.10327160e-01
      5.77695370e-01 -5.16474284e-02 3.43335688e-01 4.18577343e-01
      2.55382322e-02 5.05326629e-01 3.67385805e-01 -5.61838560e-02
      5.04629672e-01 3.35895330e-01 -6.52629733e-02 5.12607992e-01
      6.46852851e-01 -4.12904359e-02 5.12856781e-01 6.53659582e-01
      -3.28079872e-02 5.12798131e-01 6.54678166e-01 -2.20547952e-02
      5.13197541e-01 6.60669208e-01 -2.10243091e-02 5.13581574e-01
      6.69595242e-01 -2.40006074e-02 5.13786972e-01 6.81138158e-01
      -2.76592672e-02 5.14105082e-01 6.94010973e-01 -2.32774653e-02
      5.14205098e-01 7.15718687e-01 1.90204754e-03 3.85654509e-01
      4.42876995e-01 6.15483709e-03 3.63986313e-01 4.41036403e-01
      1.20006278e-02 3.35508883e-01 4.28229660e-01 3.01969647e-02
      3.42449605e-01 3.96892548e-01 7.27625377e-03 3.16853762e-01
      4.42965388e-01 4.38354351e-02 3.35840285e-01 4.12766784e-01
      3.24847959e-02 2.90622711e-01 4.27971870e-01 6.53299093e-02
      3.95569324e-01 5.36260247e-01 -6.82386011e-03 4.83474255e-01
      6.31686509e-01 -4.34075482e-02 4.86952245e-01 6.52848184e-01
      -2.95631029e-02 4.54084694e-01 6.36657596e-01 -2.86846459e-02
      4.33460712e-01 6.43482208e-01 -9.66138206e-03 4.65025365e-01
      6.52830780e-01 -1.98094249e-02 4.46646988e-01 6.52772665e-01
      -2.72743031e-03 4.06142950e-01 6.76241279e-01 3.09829898e-02
      3.03617299e-01 3.74415904e-01 1.02827325e-02 4.40606833e-01
      4.76221889e-01 -1.62417255e-02 4.38860059e-01 5.35073459e-01
      -4.99448627e-02 3.24822009e-01 5.34809530e-01 2.24509872e-02
      4.59641933e-01 3.64948064e-01 -4.99114171e-02 3.87342572e-01
      6.53505147e-01 3.37218568e-02 4.09473062e-01 6.51615322e-01
      3.22658308e-02 4.18780625e-01 6.51048839e-01 2.61152014e-02
      4.39917147e-01 5.57116389e-01 -4.16138470e-02 2.88745999e-01
      3.62843692e-01 2.90377624e-02 2.71809101e-01 3.45239520e-01
      7.31789619e-02 4.84896779e-01 6.44982934e-01 -3.89272012e-02
      4.60489690e-01 6.46987557e-01 -2.50289291e-02 4.40421820e-01
      6.48644507e-01 -7.99726695e-03 4.14139748e-01 6.51387155e-01
      2.88618766e-02 4.25723851e-01 6.57724142e-01 1.46674290e-02
      4.21392143e-01 6.50566816e-01 2.51126476e-02 4.50278640e-01
      6.50473893e-01 8.99346545e-04 4.69169378e-01 6.52139425e-01
      -1.03924368e-02 4.89657760e-01 6.53812826e-01 -1.95421167e-02
      4.83171701e-01 7.16632128e-01 3.02672014e-03 4.85095441e-01
      6.92914248e-01 -2.17973031e-02 4.85880911e-01 6.79149866e-01
      -2.58444846e-02 4.87069786e-01 6.67762697e-01 -2.15045772e-02
      4.88613904e-01 6.60065532e-01 -1.81680769e-02 4.47124362e-01
      6.56079710e-01 2.60111690e-03 4.44148183e-01 6.58676386e-01
      -1.02774240e-03 4.40094233e-01 6.64761961e-01 -3.69163044e-03
      4.36570644e-01 6.72570646e-01 1.64623931e-03 4.15290117e-01
      6.17749333e-01 -4.79634479e-03 4.34928238e-01 6.54366612e-01
      1.62934996e-02 4.30570245e-01 6.55129135e-01 1.39562860e-02
      4.83578920e-01 5.77840805e-01 -4.57647294e-02 4.48183477e-01
      5.70258081e-01 -2.25251280e-02 4.16328847e-01 4.90600914e-01
      -6.76228851e-03 3.78348231e-01 5.06912708e-01 1.11852959e-03
      4.35145676e-01 5.44860899e-01 -3.53653021e-02 4.26565170e-01
      6.92499518e-01 2.04268321e-02 4.51046586e-01 3.33341479e-01
      -6.34578019e-02 3.45740139e-01 4.36720520e-01 2.17497833e-02
      2.92562604e-01 4.59887028e-01 5.87024949e-02 3.15781593e-01
      4.02119905e-01 2.82254331e-02 4.56504405e-01 4.60228562e-01
      -2.64971498e-02 2.69266456e-01 4.75675017e-01 8.64238143e-02
      3.08405459e-01 4.76510465e-01 3.97295617e-02 3.38201463e-01
      4.85125840e-01 1.95436366e-02 3.81816745e-01 4.81184900e-01
      8.76629725e-03 4.14480388e-01 4.71008241e-01 2.89086625e-03
      4.38825071e-01 4.58988309e-01 -4.78044618e-03 2.73632824e-01
      5.25260985e-01 8.57762396e-02 2.95697331e-01 3.98950279e-01
      3.84628288e-02 4.43963349e-01 4.98806536e-01 -2.35754307e-02
      4.32935834e-01 5.45299530e-01 -1.09947547e-02 3.29009831e-01
      4.15850550e-01 3.73714902e-02 3.32463324e-01 7.02266514e-01
      1.17585927e-01 2.59719670e-01 3.83139580e-01 1.16079628e-01
      4.23545897e-01 5.16568303e-01 -1.30680166e-02 2.71062702e-01
      4.31831419e-01 8.90767127e-02 3.65340233e-01 4.26784366e-01
      1.26640014e-02 4.20750558e-01 6.62109435e-01 1.93616413e-02
      2.79056430e-01 5.72441399e-01 9.91667956e-02 5.03087759e-01
      2.71856487e-01 -6.18881844e-02 2.78488636e-01 3.93220037e-01
      6.13945089e-02 3.48901331e-01 4.03349251e-01 1.34347305e-02
      3.52223694e-01 4.22648191e-01 1.96439885e-02 5.10909498e-01
      5.96308112e-01 -4.38842364e-02 4.37584996e-01 6.04667783e-01
      -1.95607804e-02 4.80646849e-01 5.98710418e-01 -4.21509482e-02
      4.72035825e-01 4.66242045e-01 -5.79801090e-02 4.66315567e-01
      6.58026934e-01 -8.97895545e-03 4.63215888e-01 6.63546264e-01
      -1.28656104e-02 4.60623264e-01 6.72504961e-01 -1.56780928e-02
      4.58578229e-01 6.84674561e-01 -1.12050772e-02 4.51807499e-01
      7.06597507e-01 8.94280151e-03 4.29542661e-01 6.51719451e-01
      1.26305670e-02 4.23399568e-01 6.50120437e-01 1.23951659e-02
      4.17316079e-01 6.47176743e-01 1.16106551e-02 3.96062553e-01
      6.34124041e-01 1.42584182e-02 3.08072925e-01 5.85582078e-01
      5.27398475e-02 4.34246838e-01 6.48892581e-01 1.48533136e-02
      3.08774412e-01 6.40092075e-01 9.47474688e-02 4.39565718e-01
      7.31754661e-01 2.31309310e-02 4.58007872e-01 5.03781676e-01
      -5.34694232e-02 5.14701366e-01 7.42895842e-01 4.31557186e-03
      4.75761294e-01 7.43622184e-01 8.95542093e-03 3.86830211e-01
      6.88213348e-01 4.49868031e-02 4.14191008e-01 5.65378308e-01
      -3.33243422e-03 4.11502302e-01 7.13575423e-01 3.57360654e-02
      3.58037829e-01 5.64657927e-01 5.43180853e-03 3.91411841e-01
      5.89488506e-01 4.26604226e-03 3.39156747e-01 6.02097273e-01
      2.87864655e-02 4.45182681e-01 5.16849995e-01 -3.53382304e-02
      3.69651794e-01 7.06861436e-01 6.82751238e-02 3.66660714e-01
      6.59534097e-01 4.38777767e-02 2.86741734e-01 6.11948192e-01
      1.12411186e-01 3.39254200e-01 6.64610684e-01 6.68905973e-02
      3.72000635e-01 6.19119048e-01 1.88164525e-02 4.58522737e-01
      4.82231617e-01 -3.94458398e-02 3.25954914e-01 3.86222154e-01
      5.96865639e-03 3.12263072e-01 4.21876103e-01 4.76944037e-02
      3.29701424e-01 4.53047365e-01 3.32594663e-02 3.52917314e-01
      4.59824562e-01 2.00508498e-02 3.83047760e-01 4.60102111e-01
      1.07071102e-02 4.12236154e-01 4.54532474e-01 6.31953776e-03
      4.54822302e-01 5.66921473e-01 -3.61311957e-02 3.41618896e-01
      4.08413857e-01 2.18655951e-02 3.30241919e-01 4.04295981e-01
      2.20606178e-02 6.68222606e-01 4.09567803e-01 3.19065303e-02
      6.27103031e-01 4.36340302e-01 1.10677406e-02 6.48470521e-01
      4.33554411e-01 1.75972916e-02 6.75706685e-01 4.18680251e-01
      3.69179994e-02 6.68128848e-01 3.87381822e-01 1.36026666e-02
      6.94040000e-01 4.32823896e-01 5.13782464e-02 6.75137281e-01
      4.03075814e-01 3.91663648e-02 7.18300760e-01 4.16282982e-01
      7.37886131e-02 6.21068299e-01 5.30311882e-01 -3.13041359e-03
      5.40229738e-01 6.29928350e-01 -4.24702689e-02 5.38279653e-01
      6.51402891e-01 -2.87900195e-02 5.69181025e-01 6.33216441e-01
      -2.67623067e-02 5.89662313e-01 6.38764381e-01 -6.94327056e-03
      5.59407234e-01 6.50173545e-01 -1.81422830e-02 5.77302456e-01
      6.48908854e-01 -4.03955579e-04 6.17386341e-01 6.69830680e-01
      3.46649922e-02 7.05300748e-01 3.62650573e-01 1.79975443e-02
      5.73931158e-01 4.72716361e-01 -1.36878025e-02 5.78040242e-01
      5.31455815e-01 -4.75582853e-02 6.89935386e-01 5.24836421e-01
      2.94458941e-02 5.50561070e-01 3.61748070e-01 -4.79776487e-02
      6.34534597e-01 6.46064520e-01 3.82776298e-02 6.13237619e-01
      6.45587802e-01 3.64228077e-02 6.03808939e-01 6.45566583e-01
      2.94403136e-02 5.77730298e-01 5.53760350e-01 -3.94682027e-02
      7.18912482e-01 3.50668579e-01 3.74041386e-02 7.33298719e-01
      3.33588660e-01 8.25441480e-02 5.39871335e-01 6.43486917e-01
      -3.79569307e-02 5.63668191e-01 6.43963933e-01 -2.34269574e-02
      5.83388031e-01 6.44466102e-01 -5.52628003e-03 6.08480096e-01
      6.45685315e-01 3.25305201e-02 5.97861886e-01 6.52390480e-01
      1.78353116e-02 6.01063907e-01 6.45311356e-01 2.85746679e-02
      5.73317707e-01 6.46924078e-01 3.13616358e-03 5.55358708e-01
      6.49663925e-01 -8.87795724e-03 5.35472810e-01 6.52562261e-01
      -1.85958855e-02 5.44804215e-01 7.14707911e-01 3.89537960e-03
      5.42591751e-01 6.91078722e-01 -2.07952745e-02 5.41351795e-01
      6.77525580e-01 -2.47016065e-02 5.39577901e-01 6.66203022e-01
      -2.03736834e-02 5.37457883e-01 6.58679187e-01 -1.70491710e-02
      5.77157319e-01 6.52148962e-01 4.93447855e-03 5.80228209e-01
      6.54551804e-01 1.01333298e-03 5.84484696e-01 6.60224497e-01
      -1.27874129e-03 5.88258624e-01 6.67758882e-01 4.30147164e-03
      6.05767667e-01 6.12407625e-01 -1.64989382e-03 5.88507891e-01
      6.49720728e-01 1.93197839e-02 5.92961729e-01 6.50231361e-01
      1.68119743e-02 5.36571383e-01 5.76513708e-01 -4.51471731e-02
      5.70267260e-01 5.67399740e-01 -2.08410714e-02 5.98455608e-01
      4.85786289e-01 -3.22998501e-03 6.36713803e-01 5.00207841e-01
      6.15485758e-03 5.81861734e-01 5.41186512e-01 -3.30586582e-02
      5.98389030e-01 6.87027037e-01 2.33663805e-02 5.57921469e-01
      3.29805315e-01 -6.12743981e-02 6.66244030e-01 4.27963644e-01
      2.78352387e-02 7.17834592e-01 4.48496670e-01 6.71234280e-02
      6.94201887e-01 3.91371995e-01 3.55751514e-02 5.57957292e-01
      4.57480013e-01 -2.43742745e-02 7.39823222e-01 4.62917298e-01
      9.61428881e-02 7.03377366e-01 4.66042489e-01 4.74071614e-02
      6.75094843e-01 4.76213187e-01 2.59910077e-02 6.32256925e-01
      4.74543512e-01 1.36510208e-02 5.99461436e-01 4.66007233e-01
      6.65291399e-03 5.74862599e-01 4.55287308e-01 -2.20247544e-03
      7.37208545e-01 5.12306452e-01 9.54628736e-02 7.13122904e-01
      3.87296259e-01 4.65181656e-02 5.71684062e-01 4.95520920e-01
      -2.11303998e-02 5.83736479e-01 5.41397095e-01 -8.54721665e-03
      6.81674600e-01 4.05658782e-01 4.45779078e-02 6.85864449e-01
      6.90336704e-01 1.24449939e-01 7.45273829e-01 3.70836228e-01
      1.26196161e-01 5.92301369e-01 5.12146771e-01 -1.01907365e-02
      7.36593366e-01 4.19275939e-01 9.85831618e-02 6.47220314e-01
      4.19233501e-01 1.81783251e-02 6.02918565e-01 6.56610727e-01
      2.25216448e-02 7.33027458e-01 5.59181154e-01 1.08306333e-01
      7.28775382e-01 3.80959541e-01 7.02993274e-02 6.61802351e-01
      3.94121200e-01 1.92930810e-02 6.59977019e-01 4.14241672e-01
      2.57221498e-02 5.82853019e-01 6.00654721e-01 -1.72180869e-02
      5.40850282e-01 5.97135067e-01 -4.13191505e-02 5.43614268e-01
      4.64329541e-01 -5.66396341e-02 5.58949292e-01 6.55232787e-01
      -7.41795264e-03 5.62489212e-01 6.60495222e-01 -1.11794714e-02
      5.65290332e-01 6.69198036e-01 -1.37077048e-02 5.67963481e-01
      6.81043863e-01 -8.93409736e-03 5.74768126e-01 7.02678323e-01
      1.12298969e-02 5.93668997e-01 6.46996856e-01 1.55719556e-02
      5.99769056e-01 6.44950449e-01 1.54644772e-02 6.05508447e-01
      6.41589642e-01 1.51527263e-02 6.25403285e-01 6.27410233e-01
      1.83247067e-02 7.06755936e-01 5.74102879e-01 6.01736121e-02
      5.88532865e-01 6.44473851e-01 1.76176876e-02 7.07229555e-01
      6.27708197e-01 1.02401674e-01 5.87075174e-01 7.26711333e-01
      2.57073194e-02 5.58578908e-01 5.01183689e-01 -5.18835597e-02
      5.53107679e-01 7.41136372e-01 1.00403130e-02 6.36049211e-01
      6.80363595e-01 4.93381061e-02 6.03493094e-01 5.60311019e-01
      -4.12035733e-04 6.13265216e-01 7.06911266e-01 3.91270556e-02
      6.58977091e-01 5.56481719e-01 1.02680884e-02 6.27639949e-01
      5.83115995e-01 8.04690644e-03 6.78402364e-01 5.92453659e-01
      3.45012210e-02 5.70954978e-01 5.13573050e-01 -3.32012475e-02
      6.52631581e-01 6.97343171e-01 7.32645541e-02 6.54437482e-01
      6.50606751e-01 4.89946418e-02 7.26612568e-01 5.98678887e-01
      1.20941296e-01 6.79735839e-01 6.53820395e-01 7.29693025e-02
      6.47714019e-01 6.11314297e-01 2.33152620e-02 5.57026625e-01
      4.79591072e-01 -3.75463292e-02 6.84121490e-01 3.75868529e-01
      1.28115155e-02 6.97861493e-01 4.11112398e-01 5.51551245e-02
      6.82155490e-01 4.43609118e-01 4.00364436e-02 6.59604609e-01
      4.51683432e-01 2.58998759e-02 6.29912019e-01 4.53568250e-01
      1.54170319e-02 6.00962877e-01 4.49199438e-01 1.01323873e-02
      5.63708842e-01 5.64415932e-01 -3.47040407e-02 6.69208229e-01
      3.98881465e-01 2.81251185e-02 6.80213571e-01 3.94098192e-01
      2.84991227e-02</_>
    <_>
      5.12638390e-01 6.28237128e-01 -5.10842763e-02 5.10644317e-01
      5.78087926e-01 -5.71755171e-02 3.56628269e-01 4.11110371e-01
      1.43864015e-02 5.05813539e-01 3.66133392e-01 -5.93439899e-02
      5.05078495e-01 3.35775286e-01 -6.77426606e-02 5.13119221e-01
      6.38787389e-01 -4.71508764e-02 5.13406217e-01 6.44704640e-01
      -3.93015780e-02 5.13514459e-01 6.45182371e-01 -2.92901434e-02
      5.14221430e-01 6.46985352e-01 -2.97266133e-02 5.14577806e-01
      6.54877186e-01 -3.27434652e-02 5.14913142e-01 6.65088892e-01
      -3.71966213e-02 5.15452325e-01 6.76870167e-01 -3.44458595e-02
      5.16078353e-01 7.00328827e-01 -1.31580979e-02 3.97830695e-01
      4.33365345e-01 -3.76075623e-03 3.77398670e-01 4.32628930e-01
      1.40536157e-03 3.49942148e-01 4.20759231e-01 1.83633119e-02
      3.54843765e-01 3.91806453e-01 -2.31468654e-03 3.33124131e-01
      4.36713815e-01 3.03497352e-02 3.48837286e-01 4.05820936e-01
      2.06815712e-02 3.08249146e-01 4.23250407e-01 4.98123839e-02
      4.04334456e-01 5.29238045e-01 -1.70601793e-02 4.85237330e-01
      6.24260604e-01 -4.95472811e-02 4.89258736e-01 6.43658280e-01
      -3.65689360e-02 4.57512438e-01 6.28176987e-01 -3.63278538e-02
      4.39520150e-01 6.33911788e-01 -1.91268884e-02 4.68685895e-01
      6.42952919e-01 -2.77854241e-02 4.52132910e-01 6.42754495e-01
      -1.22262770e-02 4.15889621e-01 6.63494051e-01 1.72201619e-02
      3.19045365e-01 3.69629323e-01 -5.50797675e-04 4.46202189e-01
      4.70252186e-01 -2.46687122e-02 4.41510946e-01 5.31946838e-01
      -5.60946018e-02 3.40743154e-01 5.25749445e-01 9.07382555e-03
      4.62178648e-01 3.63089442e-01 -5.37771471e-02 3.97289664e-01
      6.42736554e-01 2.03268342e-02 4.18297708e-01 6.41394019e-01
      1.96208544e-02 4.26994681e-01 6.40473187e-01 1.41904941e-02
      4.41354752e-01 5.54066777e-01 -4.87011410e-02 3.05527568e-01
      3.59159440e-01 1.68065615e-02 2.91274667e-01 3.44803154e-01
      5.71945272e-02 4.87008601e-01 6.36620522e-01 -4.54083867e-02
      4.64129835e-01 6.37989819e-01 -3.28339040e-02 4.46308941e-01
      6.38979316e-01 -1.72518119e-02 4.22805905e-01 6.40934408e-01
      1.67355947e-02 4.33981359e-01 6.45669460e-01 3.36205307e-03
      4.29139495e-01 6.39883280e-01 1.33522050e-02 4.55576330e-01
      6.40270710e-01 -8.41667317e-03 4.72535104e-01 6.42116308e-01
      -1.87610723e-02 4.91894692e-01 6.44232333e-01 -2.69593373e-02
      4.87868518e-01 7.00765491e-01 -1.20972944e-02 4.89471316e-01
      6.75903738e-01 -3.31395157e-02 4.89887148e-01 6.63122177e-01
      -3.55307534e-02 4.90483195e-01 6.53401852e-01 -3.05967331e-02
      4.91725504e-01 6.46652639e-01 -2.72270553e-02 4.53399301e-01
      6.43637896e-01 -8.24975222e-03 4.50971723e-01 6.45776749e-01
      -1.17063690e-02 4.47781444e-01 6.51100814e-01 -1.42022716e-02
      4.44794446e-01 6.58583343e-01 -9.65735503e-03 4.21347320e-01
      6.09897792e-01 -1.50535004e-02 4.42044318e-01 6.42760754e-01
      4.57158778e-03 4.38278735e-01 6.43258989e-01 2.73751840e-03
      4.83537436e-01 5.76751173e-01 -5.22203930e-02 4.48982418e-01
      5.67040086e-01 -3.10545973e-02 4.24616247e-01 4.83665287e-01
      -1.61237456e-02 3.90209049e-01 4.99318451e-01 -9.71203670e-03
      4.37834799e-01 5.41038692e-01 -4.26325388e-02 4.35185611e-01
      6.78715825e-01 6.42543659e-03 4.53910947e-01 3.32564116e-01
      -6.61755279e-02 3.59970719e-01 4.28674847e-01 1.01981424e-02
      3.10638845e-01 4.54082966e-01 4.35070880e-02 3.31083417e-01
      3.96794021e-01 1.60481744e-02 4.60613251e-01 4.55251217e-01
      -3.34525369e-02 2.88477987e-01 4.70144928e-01 6.87209964e-02
      3.26112688e-01 4.69554335e-01 2.57650837e-02 3.54002923e-01
      4.77604687e-01 7.42546283e-03 3.94204527e-01 4.73432720e-01
      -2.19828403e-03 4.23778415e-01 4.63563561e-01 -6.93936460e-03
      4.45219547e-01 4.52423334e-01 -1.37351993e-02 2.92606682e-01
      5.17606020e-01 6.74426779e-02 3.12451392e-01 3.93958300e-01
      2.50930600e-02 4.48300362e-01 4.94038701e-01 -3.12091894e-02
      4.35965002e-01 5.41292369e-01 -2.01170556e-02 3.43459845e-01
      4.09430474e-01 2.48789266e-02 3.44006985e-01 6.91406131e-01
      9.55950990e-02 2.80095041e-01 3.82583380e-01 9.63752642e-02
      4.29598510e-01 5.10693550e-01 -2.20580772e-02 2.90068001e-01
      4.27967727e-01 7.13131726e-02 3.78227741e-01 4.18186486e-01
      2.77123693e-03 4.29627955e-01 6.50014699e-01 7.50106294e-03
      2.96970248e-01 5.63469291e-01 7.95921311e-02 5.03744483e-01
      2.75738388e-01 -6.36094064e-02 2.96758473e-01 3.89355063e-01
      4.62441668e-02 3.59791905e-01 3.96416694e-01 3.80515587e-03
      3.65426421e-01 4.14747030e-01 9.00440384e-03 5.11341155e-01
      5.93456268e-01 -5.00920378e-02 4.40736920e-01 5.98433197e-01
      -2.86294781e-02 4.81983215e-01 5.94461322e-01 -4.90866937e-02
      4.74555492e-01 4.63287264e-01 -6.27994388e-02 4.71033156e-01
      6.45028830e-01 -1.88928880e-02 4.68599170e-01 6.49793446e-01
      -2.27611139e-02 4.66868818e-01 6.57705963e-01 -2.58499198e-02
      4.65284973e-01 6.69020653e-01 -2.24089138e-02 4.59038198e-01
      6.91736519e-01 -5.43955714e-03 4.36742038e-01 6.41451776e-01
      1.59976445e-03 4.31098908e-01 6.40105546e-01 1.31682027e-03
      4.25266176e-01 6.37162566e-01 4.57654707e-04 4.04474556e-01
      6.24827564e-01 2.15089926e-03 3.24178219e-01 5.75242579e-01
      3.65724526e-02 4.40858960e-01 6.38595104e-01 4.17739432e-03
      3.23013932e-01 6.29183233e-01 7.49124140e-02 4.47855204e-01
      7.17313290e-01 6.79104216e-03 4.61151630e-01 5.00752807e-01
      -5.91777079e-02 5.17169297e-01 7.27711439e-01 -1.06443241e-02
      4.81737912e-01 7.28266120e-01 -6.64467737e-03 3.96845847e-01
      6.75470650e-01 2.92602032e-02 4.19310272e-01 5.59405744e-01
      -1.40206497e-02 4.20819461e-01 6.99789345e-01 1.94906518e-02
      3.70140135e-01 5.55782378e-01 -6.85427850e-03 3.99620354e-01
      5.81576407e-01 -7.73131661e-03 3.52027595e-01 5.91769516e-01
      1.43811880e-02 4.48773623e-01 5.12904167e-01 -4.23693582e-02
      3.79879177e-01 6.94736779e-01 5.02846465e-02 3.77513051e-01
      6.47990525e-01 2.86369547e-02 3.03324729e-01 6.02055490e-01
      9.15079191e-02 3.51218194e-01 6.52829230e-01 4.91323136e-02
      3.82164508e-01 6.09157562e-01 5.29100839e-03 4.61897850e-01
      4.78402764e-01 -4.57944646e-02 3.39831710e-01 3.81352216e-01
      -4.32714308e-03 3.28268975e-01 4.16218787e-01 3.38493250e-02
      3.45599979e-01 4.46009636e-01 2.06044018e-02 3.67634237e-01
      4.52346653e-01 8.17379449e-03 3.95651132e-01 4.51721549e-01
      1.25649385e-05 4.22049403e-01 4.46177810e-01 -3.27797746e-03
      4.55145478e-01 5.64398229e-01 -4.37705480e-02 3.53559583e-01
      4.01592404e-01 1.11807948e-02 3.44286591e-01 3.98472369e-01
      1.09979436e-02 6.55712187e-01 4.04499382e-01 2.34984383e-02
      6.16559923e-01 4.28285241e-01 2.93273618e-03 6.36573493e-01
      4.26687211e-01 9.05710738e-03 6.62714243e-01 4.13580805e-01
      2.76982374e-02 6.56770408e-01 3.85393262e-01 6.91384356e-03
      6.79961920e-01 4.28513110e-01 4.04662378e-02 6.62947953e-01
      3.98938566e-01 3.01141441e-02 7.03589737e-01 4.13782090e-01
      6.13770224e-02 6.14943445e-01 5.24299562e-01 -1.13682104e-02
      5.39697528e-01 6.22942328e-01 -4.79514264e-02 5.37555337e-01
      6.42330527e-01 -3.52800675e-02 5.67763865e-01 6.25532448e-01
      -3.32949497e-02 5.86258769e-01 6.30182326e-01 -1.48383593e-02
      5.57972670e-01 6.40717506e-01 -2.52497122e-02 5.74358761e-01
      6.39527619e-01 -8.63147713e-03 6.12097621e-01 6.58334732e-01
      2.29439326e-02 6.91381872e-01 3.61244172e-01 1.04102287e-02
      5.70166290e-01 4.67452317e-01 -2.09474824e-02 5.77313304e-01
      5.29128432e-01 -5.22003956e-02 6.77853763e-01 5.17416596e-01
      1.85922273e-02 5.48780620e-01 3.60700607e-01 -5.10996170e-02
      6.28722429e-01 6.36780858e-01 2.71936953e-02 6.07922196e-01
      6.36659980e-01 2.55988501e-02 5.99020004e-01 6.36053979e-01
      1.92784369e-02 5.78148723e-01 5.51442683e-01 -4.50044349e-02
      7.04088628e-01 3.50240797e-01 2.86346488e-02 7.17161894e-01
      3.35530668e-01 7.00266361e-02 5.39224267e-01 6.35485709e-01
      -4.37946804e-02 5.62134564e-01 6.35619760e-01 -3.00650522e-02
      5.80156684e-01 6.35551751e-01 -1.34407030e-02 6.03271306e-01
      6.36390686e-01 2.21200250e-02 5.93071222e-01 6.41491950e-01
      7.89063890e-03 5.96629798e-01 6.35661781e-01 1.83798373e-02
      5.70688426e-01 6.37106359e-01 -5.13019972e-03 5.54154277e-01
      6.40062273e-01 -1.63982697e-02 5.35170674e-01 6.43060446e-01
      -2.56760418e-02 5.44237435e-01 6.99284136e-01 -1.05714379e-02
      5.41380346e-01 6.74485505e-01 -3.16834226e-02 5.39957881e-01
      6.61890745e-01 -3.40319499e-02 5.38423061e-01 6.52235925e-01
      -2.91654915e-02 5.36745012e-01 6.45584404e-01 -2.58896388e-02
      5.74004352e-01 6.40542865e-01 -4.90982179e-03 5.76636374e-01
      6.42478108e-01 -8.31209496e-03 5.80318749e-01 6.47580206e-01
      -1.05708931e-02 5.83653808e-01 6.54961228e-01 -5.76741621e-03
      6.02492630e-01 6.05524957e-01 -9.89801809e-03 5.84685445e-01
      6.39016569e-01 8.88802018e-03 5.88650346e-01 6.39337718e-01
      6.89460523e-03 5.37466586e-01 5.75750351e-01 -5.08205146e-02
      5.71064532e-01 5.64751446e-01 -2.78903656e-02 5.92369556e-01
      4.79757220e-01 -1.13556087e-02 6.27689064e-01 4.93647844e-01
      -3.02937860e-03 5.81142485e-01 5.38094223e-01 -3.87920476e-02
      5.94465554e-01 6.74372554e-01 1.10268807e-02 5.55670857e-01
      3.29982400e-01 -6.28575236e-02 6.53495729e-01 4.21980441e-01
      1.87542215e-02 7.02949584e-01 4.44532454e-01 5.49516119e-02
      6.80447698e-01 3.88934433e-01 2.65367962e-02 5.55162251e-01
      4.53110695e-01 -3.07083689e-02 7.24683344e-01 4.59457695e-01
      8.17791447e-02 6.88696682e-01 4.60794002e-01 3.63891423e-02
      6.62082613e-01 4.70033169e-01 1.60907023e-02 6.22188091e-01
      4.67980981e-01 4.43962403e-03 5.92112303e-01 4.59543467e-01
      -1.93103100e-03 5.70102632e-01 4.49586153e-01 -1.01199280e-02
      7.23110437e-01 5.06828129e-01 8.03765655e-02 6.98692441e-01
      3.85059506e-01 3.65517698e-02 5.69132805e-01 4.91424739e-01
      -2.76675597e-02 5.82736969e-01 5.38137496e-01 -1.60534456e-02
      6.68368578e-01 4.02085632e-01 3.47816423e-02 6.81884110e-01
      6.81812346e-01 1.05734862e-01 7.28908956e-01 3.72334391e-01
      1.10129304e-01 5.88561416e-01 5.07039905e-01 -1.74922682e-02
      7.21230447e-01 4.17606831e-01 8.42536315e-02 6.35036349e-01
      4.12432790e-01 1.04398923e-02 5.97705662e-01 6.45694554e-01
      1.23007474e-02 7.20796406e-01 5.52534521e-01 9.23117399e-02
      7.13532031e-01 3.79656076e-01 5.86665832e-02 6.51957393e-01
      3.90174896e-01 1.23081626e-02 6.47382081e-01 4.08506930e-01
      1.74620897e-02 5.82042575e-01 5.95281720e-01 -2.47037709e-02
      5.40889978e-01 5.93229473e-01 -4.73546349e-02 5.41931689e-01
      4.61843103e-01 -6.07996993e-02 5.56931853e-01 6.42755270e-01
      -1.66454166e-02 5.59844255e-01 6.47399724e-01 -2.03107223e-02
      5.62269151e-01 6.55074418e-01 -2.32210606e-02 5.64604163e-01
      6.66315317e-01 -1.94494203e-02 5.72270691e-01 6.88670278e-01
      -2.13655643e-03 5.89542866e-01 6.37574077e-01 6.08248357e-03
      5.95106483e-01 6.36036098e-01 6.07462041e-03 6.00738525e-01
      6.32813573e-01 5.73429745e-03 6.20350897e-01 6.19389832e-01
      8.57920665e-03 6.96011126e-01 5.65717459e-01 4.71283309e-02
      5.84844649e-01 6.34890020e-01 8.32134113e-03 6.99179828e-01
      6.19044662e-01 8.60875845e-02 5.84608257e-01 7.13354766e-01
      1.08860331e-02 5.56809366e-01 4.98660237e-01 -5.64622432e-02
      5.52412808e-01 7.26309717e-01 -4.68782336e-03 6.31136000e-01
      6.69140875e-01 3.60966586e-02 6.00830436e-01 5.55252731e-01
      -9.11950693e-03 6.09642386e-01 6.94554448e-01 2.50207968e-02
      6.50623083e-01 5.48951447e-01 7.79854134e-04 6.22409463e-01
      5.76234996e-01 -1.45423668e-03 6.70144081e-01 5.83709002e-01
      2.32982747e-02 5.69327474e-01 5.10294199e-01 -3.88156846e-02
      6.48503482e-01 6.87055230e-01 5.81042133e-02 6.48493409e-01
      6.40735865e-01 3.65931243e-02 7.16406047e-01 5.91297805e-01
      1.03952713e-01 6.73751891e-01 6.44071400e-01 5.85542060e-02
      6.41529083e-01 6.02505565e-01 1.25257419e-02 5.54972589e-01
      4.76353168e-01 -4.29509208e-02 6.71196699e-01 3.74188542e-01
      5.61281759e-03 6.83754683e-01 4.07971174e-01 4.43972833e-02
      6.68313444e-01 4.38370109e-01 2.98327431e-02 6.47133172e-01
      4.45710212e-01 1.63072348e-02 6.19456887e-01 4.46482152e-01
      6.47614431e-03 5.92740834e-01 4.42088932e-01 1.82137545e-03
      5.64898789e-01 5.62531352e-01 -4.10142317e-02 6.58201814e-01
      3.94975275e-01 2.01829933e-02 6.67449296e-01 3.91364336e-01
      2.05521770e-02</_>
    <_>
      5.10713339e-01 6.26010776e-01 -4.57806960e-02 5.08433700e-01
      5.75011790e-01 -5.46562225e-02 3.54567826e-01 4.16005313e-01
      1.90966129e-02 5.05125523e-01 3.71376246e-01 -5.93357272e-02
      5.04770577e-01 3.41872960e-01 -6.70441985e-02 5.11157036e-01
      6.36241972e-01 -4.10919338e-02 5.11405110e-01 6.41613781e-01
      -3.31758410e-02 5.11402190e-01 6.41094744e-01 -2.36671865e-02
      5.10776937e-01 6.40451849e-01 -2.62278244e-02 5.11145413e-01
      6.46943331e-01 -2.96691433e-02 5.11833012e-01 6.56838357e-01
      -3.51247415e-02 5.12313664e-01 6.69042110e-01 -3.41185033e-02
      5.11770964e-01 6.96600556e-01 -1.34329349e-02 3.94587606e-01
      4.37129408e-01 2.09861249e-03 3.73953313e-01 4.35995370e-01
      7.22075999e-03 3.46388489e-01 4.25763607e-01 2.34597921e-02
      3.55632812e-01 3.99982929e-01 1.63659453e-03 3.26962441e-01
      4.39168155e-01 3.55793983e-02 3.47300291e-01 4.12097424e-01
      2.55472362e-02 3.01236212e-01 4.25360262e-01 5.57906926e-02
      3.99121553e-01 5.29311419e-01 -1.29395872e-02 4.82475728e-01
      6.22743249e-01 -4.43801731e-02 4.85933900e-01 6.40707850e-01
      -3.03575844e-02 4.53162163e-01 6.27044201e-01 -3.08155566e-02
      4.32381630e-01 6.32713020e-01 -1.27046555e-02 4.63785529e-01
      6.40254080e-01 -2.07987502e-02 4.44744557e-01 6.39674425e-01
      -5.52751869e-03 4.06555116e-01 6.62476480e-01 2.11757123e-02
      3.17670047e-01 3.77979696e-01 2.87951529e-03 4.43239987e-01
      4.70488697e-01 -2.08605975e-02 4.39448744e-01 5.31312585e-01
      -5.32452427e-02 3.31358761e-01 5.26937783e-01 1.44962147e-02
      4.64454561e-01 3.69627088e-01 -5.32620251e-02 3.86181593e-01
      6.41893983e-01 2.52041370e-02 4.07731116e-01 6.37188137e-01
      2.52301991e-02 4.16943580e-01 6.36775017e-01 1.93811506e-02
      4.38978761e-01 5.52710176e-01 -4.54804897e-02 3.02929997e-01
      3.65818411e-01 2.10723877e-02 2.85945386e-01 3.45991373e-01
      6.44347370e-02 4.83932227e-01 6.34746790e-01 -3.92022356e-02
      4.59450245e-01 6.36027694e-01 -2.61072069e-02 4.39184725e-01
      6.36975765e-01 -1.07541904e-02 4.12476182e-01 6.36757433e-01
      2.19381154e-02 4.25619632e-01 6.41108036e-01 6.17063046e-03
      4.19737905e-01 6.36893332e-01 1.84476227e-02 4.48124468e-01
      6.37064219e-01 -2.42810696e-03 4.67276514e-01 6.38343930e-01
      -1.24221444e-02 4.88357246e-01 6.40377402e-01 -2.09025070e-02
      4.83272314e-01 6.97960019e-01 -1.23910457e-02 4.86350477e-01
      6.68953180e-01 -3.22564542e-02 4.86704051e-01 6.55731916e-01
      -3.37260962e-02 4.86454129e-01 6.46228731e-01 -2.72788405e-02
      4.87286091e-01 6.40282989e-01 -2.33485401e-02 4.45915639e-01
      6.38616562e-01 -4.25283611e-03 4.44053352e-01 6.40713215e-01
      -8.99406523e-03 4.41648424e-01 6.46465838e-01 -1.26703978e-02
      4.38430041e-01 6.53909326e-01 -8.26837867e-03 4.13619339e-01
      6.09310746e-01 -1.00296661e-02 4.33178008e-01 6.38121545e-01
      9.13590938e-03 4.29729015e-01 6.38416409e-01 5.95463812e-03
      4.81156081e-01 5.74456155e-01 -5.00443317e-02 4.45887446e-01
      5.63902497e-01 -2.82449126e-02 4.20221925e-01 4.84376162e-01
      -1.21822059e-02 3.84061754e-01 5.00051200e-01 -5.50676882e-03
      4.35256422e-01 5.39747953e-01 -3.96620631e-02 4.27482545e-01
      6.77224159e-01 8.78435373e-03 4.56664234e-01 3.39780867e-01
      -6.64452314e-02 3.56328487e-01 4.32717443e-01 1.58923417e-02
      3.02545726e-01 4.54796493e-01 4.96909320e-02 3.28141898e-01
      4.02892649e-01 2.07825750e-02 4.58439857e-01 4.55183774e-01
      -3.09533179e-02 2.77943820e-01 4.70360518e-01 7.59304017e-02
      3.18368495e-01 4.70414847e-01 3.17263007e-02 3.47030461e-01
      4.78555262e-01 1.26311034e-02 3.88168097e-01 4.74642873e-01
      2.60289758e-03 4.19096112e-01 4.64748025e-01 -2.66833603e-03
      4.42310333e-01 4.53039169e-01 -9.84758139e-03 2.79179335e-01
      5.18232644e-01 7.54122734e-02 3.08447778e-01 3.99719477e-01
      3.05682421e-02 4.45298165e-01 4.93377566e-01 -2.74972394e-02
      4.32385921e-01 5.38380027e-01 -1.66210681e-02 3.40278953e-01
      4.14817780e-01 3.00723165e-02 3.24619114e-01 6.96660399e-01
      1.00918323e-01 2.71533996e-01 3.80542368e-01 1.04939729e-01
      4.25893843e-01 5.10351658e-01 -1.80412829e-02 2.81549931e-01
      4.28471833e-01 7.87369907e-02 3.75643551e-01 4.21463460e-01
      7.43015110e-03 4.20952320e-01 6.45863533e-01 1.09291896e-02
      2.80275881e-01 5.65407991e-01 8.70809257e-02 5.03312767e-01
      2.77130216e-01 -6.29118606e-02 2.91375309e-01 3.93260330e-01
      5.24520874e-02 3.61324996e-01 4.07598078e-01 7.88242370e-03
      3.63066286e-01 4.18582797e-01 1.35591179e-02 5.08953452e-01
      5.90734005e-01 -4.69597429e-02 4.35987592e-01 5.97106278e-01
      -2.48207152e-02 4.79160398e-01 5.92655778e-01 -4.62227166e-02
      4.73036230e-01 4.62582141e-01 -6.10175841e-02 4.65072781e-01
      6.39062762e-01 -1.49362385e-02 4.63140994e-01 6.43629849e-01
      -1.96008831e-02 4.62081015e-01 6.51501536e-01 -2.39910185e-02
      4.60441828e-01 6.62801743e-01 -2.10721046e-02 4.52871710e-01
      6.89425468e-01 -3.93392891e-03 4.27559227e-01 6.38582885e-01
      7.87381083e-03 4.21798110e-01 6.37502909e-01 7.78731704e-03
      4.15922701e-01 6.35164499e-01 7.26218522e-03 3.94098312e-01
      6.23916984e-01 8.55999440e-03 3.09818715e-01 5.78069568e-01
      4.26945984e-02 4.31893915e-01 6.35696709e-01 9.77262110e-03
      3.04810882e-01 6.32781684e-01 8.11794847e-02 4.39851731e-01
      7.19821692e-01 7.76946545e-03 4.59135264e-01 5.00117242e-01
      -5.62930591e-02 5.11883676e-01 7.28383601e-01 -1.23971701e-02
      4.75307435e-01 7.30007887e-01 -8.04163516e-03 3.86073619e-01
      6.77789807e-01 3.31090391e-02 4.14671451e-01 5.57646036e-01
      -9.56466794e-03 4.11886364e-01 7.02726126e-01 2.18496770e-02
      3.61431926e-01 5.56894064e-01 -2.91294605e-03 3.91867608e-01
      5.81177175e-01 -2.98928469e-03 3.39517176e-01 5.94052374e-01
      1.97731704e-02 4.46217537e-01 5.12316585e-01 -3.90622616e-02
      3.66565794e-01 6.98553205e-01 5.39538860e-02 3.64943862e-01
      6.49884164e-01 3.39876860e-02 2.84308493e-01 6.05417371e-01
      9.85067487e-02 3.35953861e-01 6.56422257e-01 5.50694466e-02
      3.70998621e-01 6.10127568e-01 1.13500059e-02 4.59628731e-01
      4.77553844e-01 -4.28563058e-02 3.39018106e-01 3.89325529e-01
      -8.29085708e-04 3.23034406e-01 4.20145959e-01 3.92826200e-02
      3.39687347e-01 4.48470920e-01 2.60916948e-02 3.61806601e-01
      4.54182059e-01 1.36127919e-02 3.90453458e-01 4.54188854e-01
      5.23218513e-03 4.18094367e-01 4.48355436e-01 1.72953308e-03
      4.52821463e-01 5.62117040e-01 -4.08225656e-02 3.53775829e-01
      4.10402775e-01 1.54733658e-02 3.42903703e-01 4.05553609e-01
      1.54102296e-02 6.59191132e-01 4.03281063e-01 2.67026126e-02
      6.21081829e-01 4.27748024e-01 6.89699501e-03 6.42004430e-01
      4.25382823e-01 1.32499263e-02 6.68770552e-01 4.12392855e-01
      3.14321965e-02 6.58903122e-01 3.86462897e-01 8.75277817e-03
      6.88032389e-01 4.25102890e-01 4.54911441e-02 6.65952504e-01
      3.98305058e-01 3.34219933e-02 7.12115586e-01 4.09514636e-01
      6.73855841e-02 6.19285524e-01 5.21513343e-01 -6.53119385e-03
      5.39301395e-01 6.20760620e-01 -4.29270416e-02 5.37624180e-01
      6.39026046e-01 -2.92008817e-02 5.69699407e-01 6.23076320e-01
      -2.80787796e-02 5.90571284e-01 6.27393305e-01 -8.73465836e-03
      5.60265958e-01 6.37495935e-01 -1.89582258e-02 5.78729689e-01
      6.35455549e-01 -2.21377611e-03 6.15439415e-01 6.56090498e-01
      2.70121545e-02 6.96925581e-01 3.61684561e-01 1.30374283e-02
      5.71859956e-01 4.65557307e-01 -1.81650966e-02 5.79134047e-01
      5.26068211e-01 -4.93316874e-02 6.88366354e-01 5.14638782e-01
      2.49671340e-02 5.46657920e-01 3.65356773e-01 -5.12262918e-02
      6.34802103e-01 6.34201467e-01 3.20140123e-02 6.12253070e-01
      6.30670488e-01 3.00096720e-02 6.04634821e-01 6.30645752e-01
      2.42400914e-02 5.80295622e-01 5.47748923e-01 -4.09674272e-02
      7.10375190e-01 3.48881871e-01 3.20142359e-02 7.25192308e-01
      3.28652442e-01 7.65275955e-02 5.39032340e-01 6.33052289e-01
      -3.80305350e-02 5.63968956e-01 6.32739842e-01 -2.42627859e-02
      5.84190190e-01 6.32216871e-01 -7.31128454e-03 6.08203471e-01
      6.30465150e-01 2.68727094e-02 5.96556664e-01 6.35286033e-01
      1.10222548e-02 6.02754474e-01 6.31048918e-01 2.33552754e-02
      5.75916767e-01 6.33159399e-01 9.52944160e-04 5.56638837e-01
      6.35800362e-01 -1.06448755e-02 5.35194576e-01 6.39042377e-01
      -2.01033652e-02 5.40905178e-01 6.96391046e-01 -1.03423223e-02
      5.38613915e-01 6.67136133e-01 -3.09650972e-02 5.37521899e-01
      6.54076159e-01 -3.26839089e-02 5.36074162e-01 6.44690216e-01
      -2.64334679e-02 5.34560978e-01 6.38882339e-01 -2.25409418e-02
      5.76548755e-01 6.34444535e-01 -6.93708658e-04 5.78963041e-01
      6.36318684e-01 -5.15429676e-03 5.82313776e-01 6.41485095e-01
      -8.42192769e-03 5.85030019e-01 6.48815930e-01 -3.90085578e-03
      6.07406735e-01 6.02971077e-01 -4.18593735e-03 5.88773310e-01
      6.33276641e-01 1.30690262e-02 5.92339098e-01 6.33075178e-01
      1.03497207e-02 5.36673427e-01 5.72501540e-01 -4.81315590e-02
      5.72191656e-01 5.59496403e-01 -2.34251767e-02 5.95725477e-01
      4.77758557e-01 -8.18032771e-03 6.33389592e-01 4.91055846e-01
      1.27553940e-03 5.83139479e-01 5.34396350e-01 -3.51898223e-02
      5.95529914e-01 6.72290027e-01 1.36892125e-02 5.53987741e-01
      3.34654719e-01 -6.34877384e-02 6.59436822e-01 4.20625478e-01
      2.29810476e-02 7.12740421e-01 4.39557076e-01 6.13959283e-02
      6.86244190e-01 3.87872875e-01 2.98773050e-02 5.55965722e-01
      4.51335311e-01 -2.92665884e-02 7.37162590e-01 4.54163313e-01
      8.89164805e-02 6.98124230e-01 4.56383467e-01 4.19859141e-02
      6.69956923e-01 4.66477007e-01 2.12517977e-02 6.27679348e-01
      4.65612680e-01 8.41890275e-03 5.95597267e-01 4.57727998e-01
      1.15185231e-03 5.71892917e-01 4.47848529e-01 -7.52838701e-03
      7.37712801e-01 5.02940238e-01 8.85659307e-02 7.05944240e-01
      3.83614004e-01 4.09783423e-02 5.70487082e-01 4.88773644e-01
      -2.48995572e-02 5.83890736e-01 5.32824576e-01 -1.17974356e-02
      6.73247814e-01 4.00573432e-01 3.80709767e-02 6.94140196e-01
      6.87665880e-01 1.13479704e-01 7.38626420e-01 3.63117486e-01
      1.17765278e-01 5.90974629e-01 5.04250765e-01 -1.37450323e-02
      7.31242180e-01 4.11933839e-01 9.14702564e-02 6.38894379e-01
      4.10702020e-01 1.33704841e-02 6.00695193e-01 6.39881432e-01
      1.56461000e-02 7.37409174e-01 5.51028550e-01 1.01190656e-01
      7.21989810e-01 3.76335084e-01 6.38328791e-02 6.52652442e-01
      3.94571126e-01 1.48537755e-02 6.51036024e-01 4.06781584e-01
      2.04549134e-02 5.84486425e-01 5.92166781e-01 -2.03953460e-02
      5.40244341e-01 5.90602934e-01 -4.45113927e-02 5.41963100e-01
      4.59991127e-01 -5.96200489e-02 5.56948602e-01 6.36180222e-01
      -1.29524469e-02 5.59799433e-01 6.40458286e-01 -1.72207952e-02
      5.61715901e-01 6.47977114e-01 -2.16082931e-02 5.63513756e-01
      6.59217656e-01 -1.85644776e-02 5.71006536e-01 6.86252713e-01
      -7.54363835e-04 5.95539689e-01 6.33228302e-01 1.21904910e-02
      6.00547791e-01 6.31755054e-01 1.20421499e-02 6.06197953e-01
      6.28863573e-01 1.17717087e-02 6.26948535e-01 6.16491735e-01
      1.50086805e-02 7.10764349e-01 5.65313160e-01 5.56026399e-02
      5.91613531e-01 6.30805910e-01 1.37521923e-02 7.14424908e-01
      6.20957196e-01 9.49837118e-02 5.83675802e-01 7.16197252e-01
      1.26053169e-02 5.57483912e-01 4.96439546e-01 -5.39060123e-02
      5.48871696e-01 7.28260398e-01 -5.27448207e-03 6.35883749e-01
      6.70764387e-01 4.12210375e-02 6.03515625e-01 5.50980210e-01
      -3.84619832e-03 6.11061692e-01 6.97399497e-01 2.84188539e-02
      6.59108996e-01 5.46972632e-01 6.79279119e-03 6.28082931e-01
      5.73538125e-01 4.57870960e-03 6.81835294e-01 5.83336771e-01
      3.12028378e-02 5.70826888e-01 5.07481873e-01 -3.57431844e-02
      6.54264748e-01 6.91049218e-01 6.34185970e-02 6.56214476e-01
      6.41240835e-01 4.25600857e-02 7.33934164e-01 5.92069268e-01
      1.13112956e-01 6.84817135e-01 6.46641374e-01 6.65653944e-02
      6.50337040e-01 6.01474404e-01 1.98464692e-02 5.55490136e-01
      4.73975837e-01 -4.11689356e-02 6.75520539e-01 3.74532878e-01
      7.83935189e-03 6.90875828e-01 4.05296832e-01 4.90067899e-02
      6.75968349e-01 4.35417235e-01 3.47357690e-02 6.53942704e-01
      4.43049371e-01 2.09907889e-02 6.24847531e-01 4.44952279e-01
      1.05286092e-02 5.96445620e-01 4.40831423e-01 5.17269969e-03
      5.65987229e-01 5.58249056e-01 -3.64276171e-02 6.59995794e-01
      3.96929622e-01 2.30365545e-02 6.71531558e-01 3.91108364e-01
      2.33896375e-02</_>
    <_>
      5.09757578e-01 6.32659197e-01 -4.95936312e-02 5.06013870e-01
      5.77051401e-01 -5.57905659e-02 3.51046026e-01 4.11683023e-01
      2.08579898e-02 5.05115211e-01 3.71832281e-01 -5.88827319e-02
      5.04890203e-01 3.42279047e-01 -6.73826262e-02 5.10311067e-01
      6.43886864e-01 -4.54668440e-02 5.10685802e-01 6.50109649e-01
      -3.72531191e-02 5.10651946e-01 6.50668085e-01 -2.68068276e-02
      5.10665417e-01 6.51740789e-01 -2.63787098e-02 5.11005044e-01
      6.59670055e-01 -2.94196755e-02 5.12045860e-01 6.70218945e-01
      -3.38582844e-02 5.12467265e-01 6.82510376e-01 -3.06003317e-02
      5.11791825e-01 7.06320941e-01 -8.13962519e-03 3.95006299e-01
      4.33926761e-01 3.78952920e-03 3.73771906e-01 4.33371991e-01
      8.54238123e-03 3.44877392e-01 4.21271026e-01 2.51208246e-02
      3.51029932e-01 3.93160164e-01 3.64378095e-03 3.27324122e-01
      4.37498122e-01 3.65000889e-02 3.42816353e-01 4.06685829e-01
      2.70999968e-02 3.02145571e-01 4.24581677e-01 5.60623556e-02
      4.00623441e-01 5.30964375e-01 -1.26277879e-02 4.82664794e-01
      6.29055619e-01 -4.76650968e-02 4.86944497e-01 6.49465263e-01
      -3.41082551e-02 4.54991698e-01 6.33440495e-01 -3.40919122e-02
      4.36120749e-01 6.40060186e-01 -1.57204941e-02 4.66508567e-01
      6.48973346e-01 -2.43152790e-02 4.48689640e-01 6.49193525e-01
      -8.32619518e-03 4.09826159e-01 6.70629084e-01 2.12154239e-02
      3.17004561e-01 3.75378609e-01 3.12735140e-03 4.43422526e-01
      4.70568806e-01 -1.96787715e-02 4.40342754e-01 5.32046080e-01
      -5.34423180e-02 3.35917830e-01 5.28494596e-01 1.41474158e-02
      4.63178277e-01 3.71258229e-01 -5.29892407e-02 3.90647292e-01
      6.49806201e-01 2.51377821e-02 4.11786854e-01 6.48534894e-01
      2.50954330e-02 4.22054917e-01 6.47495627e-01 1.88970938e-02
      4.40003932e-01 5.54087698e-01 -4.67437506e-02 3.02347898e-01
      3.64504755e-01 2.12152451e-02 2.85120249e-01 3.45847964e-01
      6.44264221e-02 4.84716684e-01 6.42134607e-01 -4.32865024e-02
      4.61605430e-01 6.43720329e-01 -2.98259109e-02 4.42862064e-01
      6.45288765e-01 -1.38217956e-02 4.17048186e-01 6.48002684e-01
      2.14272216e-02 4.29644495e-01 6.52301669e-01 6.76984340e-03
      4.25027072e-01 6.46772683e-01 1.80338994e-02 4.52732176e-01
      6.46757782e-01 -4.28368896e-03 4.70077068e-01 6.48115993e-01
      -1.48649663e-02 4.89448756e-01 6.49958789e-01 -2.35333368e-02
      4.83769089e-01 7.07054317e-01 -7.96348602e-03 4.86733109e-01
      6.81613803e-01 -2.92933211e-02 4.87239450e-01 6.68464482e-01
      -3.17645036e-02 4.87040967e-01 6.58433676e-01 -2.68548355e-02
      4.88240093e-01 6.51494861e-01 -2.32159160e-02 4.50138807e-01
      6.49587333e-01 -4.52191383e-03 4.48079437e-01 6.51819289e-01
      -8.59660655e-03 4.44978923e-01 6.57251239e-01 -1.10858753e-02
      4.41204846e-01 6.64844155e-01 -6.35631382e-03 4.16978300e-01
      6.14689887e-01 -1.25240237e-02 4.37888205e-01 6.49025977e-01
      9.24983621e-03 4.34109300e-01 6.49698079e-01 6.49617612e-03
      4.79862690e-01 5.76427579e-01 -5.09738885e-02 4.45832431e-01
      5.67406654e-01 -2.98430137e-02 4.21507955e-01 4.84177947e-01
      -1.08290017e-02 3.86365354e-01 5.00836611e-01 -5.28344512e-03
      4.36111093e-01 5.41335583e-01 -3.99654210e-02 4.30006027e-01
      6.85196280e-01 1.04461014e-02 4.55415785e-01 3.41356426e-01
      -6.64533079e-02 3.55552852e-01 4.29434776e-01 1.69719756e-02
      3.04662406e-01 4.55083370e-01 4.99724001e-02 3.26319277e-01
      3.99028718e-01 2.16445029e-02 4.57866222e-01 4.55498815e-01
      -2.91715115e-02 2.81325430e-01 4.71301258e-01 7.67268389e-02
      3.20424050e-01 4.71035033e-01 3.23329866e-02 3.49137872e-01
      4.79166061e-01 1.35339051e-02 3.89959037e-01 4.74481493e-01
      3.64962220e-03 4.19974953e-01 4.63918716e-01 -9.98914242e-04
      4.42051321e-01 4.52607602e-01 -8.58429074e-03 2.84377694e-01
      5.19860566e-01 7.56532997e-02 3.08399618e-01 3.97318244e-01
      3.09237018e-02 4.45185721e-01 4.94321853e-01 -2.62404606e-02
      4.32556868e-01 5.41506171e-01 -1.68747976e-02 3.37262392e-01
      4.09986645e-01 3.15092355e-02 3.33852053e-01 6.97286904e-01
      1.02342799e-01 2.71162063e-01 3.82256210e-01 1.05478346e-01
      4.26818699e-01 5.11299372e-01 -1.71991140e-02 2.83525616e-01
      4.28914487e-01 7.90936649e-02 3.73674154e-01 4.18704182e-01
      9.53046978e-03 4.24665034e-01 6.56910479e-01 1.13982260e-02
      2.87827373e-01 5.66773176e-01 8.75015110e-02 5.03205419e-01
      2.72440135e-01 -6.22161403e-02 2.91757673e-01 3.92197371e-01
      5.28516769e-02 3.55708480e-01 3.97786438e-01 9.66981053e-03
      3.60077113e-01 4.15354729e-01 1.56778693e-02 5.06950736e-01
      5.94763815e-01 -4.84401472e-02 4.37360495e-01 6.01536632e-01
      -2.67675109e-02 4.78472650e-01 5.96580267e-01 -4.74932268e-02
      4.72501278e-01 4.63786781e-01 -6.01915531e-02 4.67499703e-01
      6.50574327e-01 -1.49391964e-02 4.65500563e-01 6.55415535e-01
      -1.92449465e-02 4.64015454e-01 6.63380563e-01 -2.19511017e-02
      4.61884528e-01 6.74935937e-01 -1.83343254e-02 4.54539090e-01
      6.97996140e-01 -8.52502882e-04 4.32795286e-01 6.48449421e-01
      5.98292053e-03 4.26547110e-01 6.47127688e-01 5.83925098e-03
      4.20696110e-01 6.44227207e-01 5.19149005e-03 3.99009049e-01
      6.31007791e-01 6.10790402e-03 3.17912728e-01 5.79274535e-01
      4.20428514e-02 4.37474668e-01 6.45498931e-01 8.81458074e-03
      3.14208925e-01 6.34306312e-01 8.14058334e-02 4.41903055e-01
      7.23809123e-01 1.08445734e-02 4.59192187e-01 5.01115561e-01
      -5.63163273e-02 5.12184143e-01 7.34396279e-01 -6.33700937e-03
      4.76372749e-01 7.34883785e-01 -3.05842608e-03 3.89681220e-01
      6.82484925e-01 3.29761654e-02 4.15639251e-01 5.61004043e-01
      -1.06890574e-02 4.14563298e-01 7.06571996e-01 2.31676772e-02
      3.65994424e-01 5.59114456e-01 -3.19409370e-03 3.94979537e-01
      5.85102022e-01 -4.34634835e-03 3.46554250e-01 5.96524477e-01
      1.88574344e-02 4.46726918e-01 5.13135195e-01 -3.87009569e-02
      3.71329516e-01 7.01067567e-01 5.45963198e-02 3.70125860e-01
      6.54743195e-01 3.34312320e-02 2.93547928e-01 6.06362462e-01
      9.90811288e-02 3.43538851e-01 6.58858180e-01 5.43659776e-02
      3.76806170e-01 6.14884079e-01 9.24527645e-03 4.59129244e-01
      4.78762180e-01 -4.17437106e-02 3.36510569e-01 3.85020763e-01
      -4.77753580e-04 3.22538793e-01 4.17304188e-01 3.99170145e-02
      3.40122610e-01 4.47072923e-01 2.69822627e-02 3.63036990e-01
      4.53352511e-01 1.42103881e-02 3.91926527e-01 4.52599078e-01
      6.13550842e-03 4.18521523e-01 4.46572870e-01 3.77292186e-03
      4.53025281e-01 5.64429760e-01 -4.26773988e-02 3.48766983e-01
      4.02709424e-01 1.71696618e-02 3.39451522e-01 3.99792254e-01
      1.68897882e-02 6.60072565e-01 4.00363624e-01 2.91731209e-02
      6.20128036e-01 4.25338566e-01 7.25060701e-03 6.41434789e-01
      4.23386693e-01 1.38842016e-02 6.69440150e-01 4.09240812e-01
      3.31901759e-02 6.63217306e-01 3.79708529e-01 1.15401298e-02
      6.87284887e-01 4.23789054e-01 4.72337306e-02 6.67893827e-01
      3.94372463e-01 3.58727276e-02 7.12384582e-01 4.08375710e-01
      6.92665726e-02 6.15854084e-01 5.23824215e-01 -4.93376702e-03
      5.37709355e-01 6.27342105e-01 -4.61532921e-02 5.35959959e-01
      6.47990167e-01 -3.28529179e-02 5.67012727e-01 6.30199015e-01
      -3.08981501e-02 5.87057531e-01 6.35390043e-01 -1.18494183e-02
      5.57740927e-01 6.46446407e-01 -2.30742134e-02 5.74891686e-01
      6.45035863e-01 -5.40897250e-03 6.13105059e-01 6.65139973e-01
      2.83511877e-02 7.00870872e-01 3.57697070e-01 1.51716620e-02
      5.70188105e-01 4.65942532e-01 -1.74447596e-02 5.76122165e-01
      5.28019547e-01 -4.86171842e-02 6.84056699e-01 5.16862869e-01
      2.58826166e-02 5.47289133e-01 3.66216749e-01 -5.03221080e-02
      6.30296350e-01 6.42689824e-01 3.24278846e-02 6.08144701e-01
      6.41909003e-01 2.92578340e-02 6.00686669e-01 6.41185164e-01
      2.36306041e-02 5.76285124e-01 5.50421834e-01 -4.06270362e-02
      7.14368224e-01 3.45266998e-01 3.42598259e-02 7.29139745e-01
      3.25201929e-01 7.80705065e-02 5.37527919e-01 6.40647829e-01
      -4.20046784e-02 5.61426103e-01 6.40897393e-01 -2.80508287e-02
      5.80494404e-01 6.40930414e-01 -1.05432048e-02 6.04062676e-01
      6.41514301e-01 2.62700990e-02 5.93939185e-01 6.46752954e-01
      1.22415349e-02 5.99086165e-01 6.40789092e-01 2.27112174e-02
      5.72018802e-01 6.42577112e-01 -1.72038376e-03 5.53886652e-01
      6.45487845e-01 -1.38748214e-02 5.33690870e-01 6.48577869e-01
      -2.34306641e-02 5.41178644e-01 7.05886543e-01 -4.91385907e-03
      5.39588392e-01 6.80323720e-01 -2.78993063e-02 5.38139939e-01
      6.67284727e-01 -3.09463404e-02 5.35883069e-01 6.57226622e-01
      -2.64190920e-02 5.34129143e-01 6.50458038e-01 -2.30348594e-02
      5.74104905e-01 6.45743906e-01 -8.18654895e-04 5.76966882e-01
      6.47772968e-01 -3.90966237e-03 5.81036985e-01 6.53087139e-01
      -5.63331693e-03 5.83932817e-01 6.60808265e-01 -9.55402851e-04
      6.02327883e-01 6.08893991e-01 -5.47777116e-03 5.85592628e-01
      6.44228995e-01 1.26404390e-02 5.89441419e-01 6.44493401e-01
      1.11146718e-02 5.32942653e-01 5.75096011e-01 -4.83143255e-02
      5.67083657e-01 5.64071774e-01 -2.23869644e-02 5.92991054e-01
      4.78042811e-01 -7.42093474e-03 6.30074620e-01 4.92208153e-01
      2.05283612e-03 5.79498053e-01 5.37052453e-01 -3.43808718e-02
      5.93968153e-01 6.81449771e-01 1.60980970e-02 5.54868281e-01
      3.34892601e-01 -6.17886111e-02 6.59699500e-01 4.18348819e-01
      2.39693224e-02 7.11068451e-01 4.39711243e-01 6.31202012e-02
      6.88775301e-01 3.83800417e-01 3.18086520e-02 5.54998994e-01
      4.52011496e-01 -2.82397345e-02 7.34869480e-01 4.54731256e-01
      9.02569145e-02 6.95980310e-01 4.57136035e-01 4.36207876e-02
      6.67328358e-01 4.67401177e-01 2.25524381e-02 6.24630988e-01
      4.65810210e-01 8.93547386e-03 5.92988849e-01 4.57433403e-01
      2.01892853e-03 5.70523202e-01 4.47788656e-01 -6.70822710e-03
      7.32421875e-01 5.04839301e-01 8.88983756e-02 7.08691120e-01
      3.80400836e-01 4.27070186e-02 5.67901790e-01 4.90114778e-01
      -2.41934210e-02 5.79181373e-01 5.36986351e-01 -1.01799890e-02
      6.74890220e-01 3.96884620e-01 4.01303470e-02 6.86333537e-01
      6.91387475e-01 1.15629122e-01 7.40178704e-01 3.61846209e-01
      1.19024292e-01 5.87782264e-01 5.05800128e-01 -1.25564262e-02
      7.31186926e-01 4.11303371e-01 9.27630216e-02 6.38201118e-01
      4.08949733e-01 1.54443234e-02 5.98339558e-01 6.51278496e-01
      1.66981667e-02 7.29636192e-01 5.53514838e-01 1.01884931e-01
      7.24589527e-01 3.73594016e-01 6.58984631e-02 6.56580806e-01
      3.86262566e-01 1.80553794e-02 6.51141286e-01 4.04790550e-01
      2.28017867e-02 5.80038190e-01 5.97288072e-01 -2.10492015e-02
      5.37488759e-01 5.94861984e-01 -4.51729447e-02 5.40948749e-01
      4.61365789e-01 -5.90187684e-02 5.55409431e-01 6.47967458e-01
      -1.32165104e-02 5.58733881e-01 6.52676702e-01 -1.69241726e-02
      5.61583400e-01 6.60670817e-01 -1.94734484e-02 5.63465059e-01
      6.72297001e-01 -1.56541467e-02 5.70783913e-01 6.95536852e-01
      2.88217515e-03 5.91373146e-01 6.42906785e-01 9.79257375e-03
      5.96530616e-01 6.41327560e-01 9.38953459e-03 6.02258205e-01
      6.37917936e-01 9.26498324e-03 6.21405959e-01 6.23997867e-01
      1.32068768e-02 7.03608334e-01 5.67792296e-01 5.63156754e-02
      5.87269425e-01 6.40248716e-01 1.21643320e-02 7.05900192e-01
      6.24502242e-01 9.61683542e-02 5.82653821e-01 7.21743047e-01
      1.73050761e-02 5.55810928e-01 4.97888565e-01 -5.34389466e-02
      5.48889279e-01 7.33990908e-01 1.02157146e-03 6.32574677e-01
      6.77349865e-01 4.29131910e-02 5.99082172e-01 5.55285215e-01
      -2.92472541e-03 6.09398782e-01 7.03203678e-01 3.18689868e-02
      6.54193878e-01 5.49965382e-01 8.97923112e-03 6.23031557e-01
      5.78250945e-01 5.00392914e-03 6.75276577e-01 5.87015867e-01
      3.26695070e-02 5.68109870e-01 5.09155869e-01 -3.49465497e-02
      6.50207996e-01 6.96436048e-01 6.60979748e-02 6.51159048e-01
      6.47510707e-01 4.31327820e-02 7.24870980e-01 5.94746113e-01
      1.14474192e-01 6.78693116e-01 6.51290298e-01 6.76561445e-02
      6.44270897e-01 6.06785417e-01 1.94832459e-02 5.53866386e-01
      4.75394875e-01 -4.05907929e-02 6.79142356e-01 3.69676471e-01
      9.98861343e-03 6.91602945e-01 4.02765542e-01 5.09944409e-02
      6.74756467e-01 4.34570014e-01 3.63092422e-02 6.52052999e-01
      4.42594022e-01 2.17512920e-02 6.22612178e-01 4.43817884e-01
      1.10063776e-02 5.94296396e-01 4.39716965e-01 6.30272925e-03
      5.61425030e-01 5.61722398e-01 -3.61097977e-02 6.62927449e-01
      3.90746981e-01 2.59407312e-02 6.74382389e-01 3.85862052e-01
      2.63338238e-02</_>
    <_>
      5.12635708e-01 6.14193261e-01 -4.86007035e-02 5.09520531e-01
      5.71428120e-01 -5.66947982e-02 3.51931691e-01 4.13855106e-01
      1.92603171e-02 5.06601274e-01 3.66795212e-01 -5.40662333e-02
      5.06326258e-01 3.37039351e-01 -6.09346591e-02 5.13398409e-01
      6.24186575e-01 -4.40766811e-02 5.13854980e-01 6.30338073e-01
      -3.66649851e-02 5.14011562e-01 6.30535305e-01 -2.76222229e-02
      5.14512360e-01 6.33700728e-01 -3.08135375e-02 5.14821410e-01
      6.41091406e-01 -3.44814360e-02 5.15721083e-01 6.52280152e-01
      -3.98840010e-02 5.16296744e-01 6.65663898e-01 -3.88498455e-02
      5.16061723e-01 6.94480419e-01 -1.85151547e-02 3.93770039e-01
      4.36242104e-01 2.59239972e-03 3.72873485e-01 4.34580237e-01
      7.82468915e-03 3.44112009e-01 4.22198594e-01 2.35890001e-02
      3.51930976e-01 3.91082525e-01 1.95084512e-03 3.27077508e-01
      4.34919655e-01 3.60281914e-02 3.44396353e-01 4.08354759e-01
      2.60474086e-02 3.05282444e-01 4.19631362e-01 5.68070710e-02
      3.96388888e-01 5.24844110e-01 -1.61495879e-02 4.82063979e-01
      6.10680401e-01 -4.79724780e-02 4.85114068e-01 6.29399717e-01
      -3.42712104e-02 4.50104892e-01 6.13663614e-01 -3.45458686e-02
      4.27801937e-01 6.16928279e-01 -1.52847841e-02 4.60999250e-01
      6.27643526e-01 -2.42945552e-02 4.40799981e-01 6.25592291e-01
      -7.57837296e-03 4.04692799e-01 6.47970140e-01 2.09238827e-02
      3.19400817e-01 3.65831882e-01 4.99600172e-03 4.42912310e-01
      4.69515145e-01 -2.04476193e-02 4.39152628e-01 5.28704584e-01
      -5.63858896e-02 3.27147424e-01 5.20011127e-01 1.24090910e-02
      4.63331342e-01 3.63029748e-01 -4.92087156e-02 3.83604884e-01
      6.24802709e-01 2.29956508e-02 4.02039230e-01 6.18552804e-01
      2.43236721e-02 4.12306815e-01 6.19418800e-01 1.92026049e-02
      4.38770622e-01 5.49110532e-01 -4.90123332e-02 3.06606144e-01
      3.54274273e-01 2.29777396e-02 2.92841941e-01 3.39665473e-01
      6.69119507e-02 4.83249009e-01 6.22515202e-01 -4.27447185e-02
      4.56369162e-01 6.22509122e-01 -2.95463651e-02 4.34743047e-01
      6.21718347e-01 -1.30213946e-02 4.07047182e-01 6.18568659e-01
      2.14373469e-02 4.21603918e-01 6.27057672e-01 6.70140982e-03
      4.15787667e-01 6.20356202e-01 1.86280161e-02 4.44640964e-01
      6.23421133e-01 -4.69763577e-03 4.64681953e-01 6.26381636e-01
      -1.60575509e-02 4.87642884e-01 6.29521370e-01 -2.51080990e-02
      4.84971166e-01 6.94525719e-01 -1.71105787e-02 4.87429410e-01
      6.64429307e-01 -3.63690853e-02 4.87508178e-01 6.50161922e-01
      -3.79131734e-02 4.87380862e-01 6.39331102e-01 -3.15724835e-02
      4.88574624e-01 6.32915497e-01 -2.75900811e-02 4.44157183e-01
      6.27652645e-01 -5.55888563e-03 4.41922247e-01 6.30169213e-01
      -1.03077888e-02 4.39102858e-01 6.36370301e-01 -1.39824599e-02
      4.35858935e-01 6.44274712e-01 -8.89479369e-03 4.10035700e-01
      5.97406387e-01 -1.19034350e-02 4.30532187e-01 6.24803066e-01
      9.80570912e-03 4.26274180e-01 6.24674022e-01 6.36960566e-03
      4.81846660e-01 5.70624411e-01 -5.27909920e-02 4.45110589e-01
      5.59243262e-01 -3.23355719e-02 4.18890238e-01 4.81868774e-01
      -1.27289146e-02 3.81273806e-01 4.95378286e-01 -6.41132146e-03
      4.34726149e-01 5.36509216e-01 -4.31727171e-02 4.26261514e-01
      6.67570829e-01 8.62188637e-03 4.56698209e-01 3.33871394e-01
      -6.16971701e-02 3.54463845e-01 4.30248171e-01 1.62472874e-02
      3.04842055e-01 4.49607193e-01 4.96439636e-02 3.27926010e-01
      3.95383567e-01 2.20376849e-02 4.58636731e-01 4.55377787e-01
      -2.96990499e-02 2.81765580e-01 4.64263260e-01 7.54081607e-02
      3.18438351e-01 4.64851677e-01 3.09667438e-02 3.45682710e-01
      4.73331988e-01 1.17102563e-02 3.86676192e-01 4.70941216e-01
      2.59497762e-03 4.18333471e-01 4.62793201e-01 -2.41105258e-03
      4.41982687e-01 4.52400953e-01 -8.73994082e-03 2.79346257e-01
      5.10079861e-01 7.32587129e-02 3.11599761e-01 3.91530335e-01
      3.20548415e-02 4.44487631e-01 4.91749942e-01 -2.89753824e-02
      4.31011796e-01 5.34496307e-01 -2.09287927e-02 3.37742358e-01
      4.09700483e-01 3.06266397e-02 3.32129657e-01 6.85702443e-01
      9.69119072e-02 2.79871523e-01 3.75396818e-01 1.06381506e-01
      4.24270004e-01 5.07346272e-01 -2.07434744e-02 2.88064152e-01
      4.22618806e-01 7.93927610e-02 3.73785734e-01 4.20907855e-01
      7.61866570e-03 4.16733384e-01 6.31385565e-01 1.12985224e-02
      2.79426217e-01 5.56108356e-01 8.33537430e-02 5.05033731e-01
      2.78404742e-01 -5.63544333e-02 2.96811283e-01 3.85281026e-01
      5.36825806e-02 3.59142214e-01 4.03689772e-01 8.45724344e-03
      3.60728890e-01 4.17394966e-01 1.38681382e-02 5.10557055e-01
      5.84647715e-01 -4.92443964e-02 4.33764994e-01 5.88251412e-01
      -2.75657177e-02 4.79392976e-01 5.85974514e-01 -4.89688590e-02
      4.73465174e-01 4.63206172e-01 -6.01379424e-02 4.64691430e-01
      6.30174816e-01 -1.79280490e-02 4.62343991e-01 6.35217965e-01
      -2.25336254e-02 4.61102396e-01 6.43984139e-01 -2.66691744e-02
      4.59659666e-01 6.56268537e-01 -2.29179710e-02 4.52672035e-01
      6.83595717e-01 -5.30256331e-03 4.22769517e-01 6.22274041e-01
      7.28280842e-03 4.16327387e-01 6.20120108e-01 7.07846880e-03
      4.10290331e-01 6.17378771e-01 5.98943233e-03 3.90103400e-01
      6.08574271e-01 6.72355294e-03 3.06203038e-01 5.69561541e-01
      3.94433588e-02 4.27931041e-01 6.20151818e-01 8.93716514e-03
      3.05475831e-01 6.22648835e-01 7.69193769e-02 4.42002475e-01
      7.13651001e-01 5.22232056e-03 4.58693147e-01 4.99012053e-01
      -5.77147976e-02 5.16757905e-01 7.26768315e-01 -1.70112550e-02
      4.78449434e-01 7.26757407e-01 -1.25187635e-02 3.88537616e-01
      6.64713681e-01 3.20854634e-02 4.12821829e-01 5.52041352e-01
      -1.33613497e-02 4.14187610e-01 6.93050802e-01 2.07053274e-02
      3.57401878e-01 5.50661802e-01 -6.65746629e-03 3.89068365e-01
      5.73140442e-01 -5.72823733e-03 3.36233556e-01 5.85351408e-01
      1.54320002e-02 4.45350945e-01 5.10172725e-01 -4.15368676e-02
      3.71984035e-01 6.87342763e-01 5.18646091e-02 3.65602940e-01
      6.35271251e-01 3.14692408e-02 2.84900069e-01 5.95377266e-01
      9.41530615e-02 3.37789685e-01 6.44966364e-01 5.19702137e-02
      3.68252218e-01 5.97674727e-01 8.47271085e-03 4.59526896e-01
      4.77283031e-01 -4.32190150e-02 3.37467164e-01 3.79064202e-01
      1.14087760e-03 3.23783010e-01 4.14723188e-01 4.03899550e-02
      3.38540554e-01 4.44443494e-01 2.57977247e-02 3.61052275e-01
      4.50989157e-01 1.39869303e-02 3.89697790e-01 4.51937258e-01
      5.84916770e-03 4.17613596e-01 4.47408676e-01 1.62497163e-03
      4.52517927e-01 5.58313370e-01 -4.41880375e-02 3.51046503e-01
      4.06568408e-01 1.61075890e-02 3.39995682e-01 3.98585916e-01
      1.54902190e-02 6.64834738e-01 4.04812187e-01 3.17672491e-02
      6.24695837e-01 4.29168463e-01 1.06789172e-02 6.45666957e-01
      4.26505506e-01 1.78248584e-02 6.74378335e-01 4.12455052e-01
      3.65067124e-02 6.65336967e-01 3.81788850e-01 1.44291520e-02
      6.90773964e-01 4.23984766e-01 5.04097641e-02 6.72035694e-01
      3.98744702e-01 3.91223580e-02 7.11977065e-01 4.07523513e-01
      7.31264949e-02 6.25039697e-01 5.17804921e-01 -6.25637174e-03
      5.44581354e-01 6.08844161e-01 -4.53073829e-02 5.44320405e-01
      6.27673328e-01 -3.18661332e-02 5.79086721e-01 6.09993577e-01
      -2.91801393e-02 6.02964163e-01 6.11699045e-01 -7.92486221e-03
      5.69919050e-01 6.24772072e-01 -2.02365965e-02 5.90493083e-01
      6.21006846e-01 -1.72567368e-03 6.27571464e-01 6.41756415e-01
      2.99558192e-02 6.97400630e-01 3.54829699e-01 2.01926231e-02
      5.74234366e-01 4.65437353e-01 -1.56209990e-02 5.81225455e-01
      5.24098098e-01 -4.99953628e-02 6.95455551e-01 5.08901000e-01
      2.76636481e-02 5.50676703e-01 3.60413462e-01 -4.56191897e-02
      6.47868574e-01 6.17252827e-01 3.38051021e-02 6.28663182e-01
      6.11594200e-01 3.28955054e-02 6.19678736e-01 6.12701595e-01
      2.74713486e-02 5.82512021e-01 5.44510901e-01 -4.21375409e-02
      7.09374547e-01 3.42498600e-01 3.87896746e-02 7.21435606e-01
      3.26518297e-01 8.32983404e-02 5.45109987e-01 6.20867133e-01
      -4.02897745e-02 5.73807538e-01 6.19300187e-01 -2.52120495e-02
      5.96443832e-01 6.16820037e-01 -6.43779337e-03 6.24147415e-01
      6.11574590e-01 3.01278979e-02 6.10719323e-01 6.21018767e-01
      1.47270709e-02 6.16842389e-01 6.13943696e-01 2.67484784e-02
      5.87451279e-01 6.18965268e-01 9.68113542e-04 5.66113174e-01
      6.23601615e-01 -1.24401450e-02 5.42194247e-01 6.27971172e-01
      -2.32769474e-02 5.48331439e-01 6.93142593e-01 -1.42573193e-02
      5.46248317e-01 6.62805736e-01 -3.44788507e-02 5.45117438e-01
      6.48785412e-01 -3.60908657e-02 5.43331206e-01 6.38058782e-01
      -2.99696028e-02 5.41513979e-01 6.31728470e-01 -2.59990990e-02
      5.87842405e-01 6.23314977e-01 3.73482704e-04 5.90937912e-01
      6.25609934e-01 -4.04548645e-03 5.94839215e-01 6.31402671e-01
      -7.26714730e-03 5.97621799e-01 6.39174998e-01 -2.02336907e-03
      6.17462933e-01 5.91129005e-01 -2.37908959e-03 6.01249993e-01
      6.19639814e-01 1.63802654e-02 6.05877280e-01 6.19009197e-01
      1.37161016e-02 5.38301826e-01 5.69029212e-01 -4.98934388e-02
      5.75576365e-01 5.55065513e-01 -2.51158774e-02 5.99244416e-01
      4.76115137e-01 -5.92880696e-03 6.38539672e-01 4.87327695e-01
      3.90118361e-03 5.85943282e-01 5.31457961e-01 -3.60664129e-02
      6.06750488e-01 6.62934899e-01 1.60027444e-02 5.57309151e-01
      3.30479234e-01 -5.70889637e-02 6.64153159e-01 4.21280503e-01
      2.80312598e-02 7.13789642e-01 4.37228680e-01 6.60744011e-02
      6.89271688e-01 3.84822726e-01 3.62794846e-02 5.57937443e-01
      4.52362031e-01 -2.63097957e-02 7.37565756e-01 4.50949460e-01
      9.35097039e-02 7.00825632e-01 4.53089297e-01 4.60844040e-02
      6.73791409e-01 4.62989092e-01 2.44431794e-02 6.31444991e-01
      4.63231504e-01 1.16478354e-02 5.98755240e-01 4.57121104e-01
      4.06375527e-03 5.74626327e-01 4.48309779e-01 -4.17791307e-03
      7.41377532e-01 4.96935397e-01 9.18815434e-02 7.06055641e-01
      3.79957616e-01 4.75529581e-02 5.73014915e-01 4.87890363e-01
      -2.40535438e-02 5.87791681e-01 5.29242218e-01 -1.33611262e-02
      6.79123878e-01 3.99704099e-01 4.39187288e-02 6.98058963e-01
      6.79517925e-01 1.13802403e-01 7.34774172e-01 3.61655295e-01
      1.23522401e-01 5.94867527e-01 5.01859963e-01 -1.34417266e-02
      7.29658127e-01 4.09826428e-01 9.66410190e-02 6.43236458e-01
      4.13074642e-01 1.77967846e-02 6.15359187e-01 6.25248432e-01
      1.93511248e-02 7.43398845e-01 5.43814123e-01 1.03511065e-01
      7.20546782e-01 3.72758776e-01 7.00586289e-02 6.58275664e-01
      3.94873589e-01 2.02674568e-02 6.56092942e-01 4.09001350e-01
      2.52928287e-02 5.91523170e-01 5.83437145e-01 -2.01793015e-02
      5.43722153e-01 5.84241211e-01 -4.61205989e-02 5.43061614e-01
      4.61176425e-01 -5.75087890e-02 5.66307366e-01 6.27467453e-01
      -1.43482834e-02 5.69536686e-01 6.32176697e-01 -1.84855163e-02
      5.71948409e-01 6.40725851e-01 -2.26665586e-02 5.73559821e-01
      6.52965307e-01 -1.89182609e-02 5.80730736e-01 6.80711091e-01
      -7.05450773e-04 6.09590173e-01 6.16427779e-01 1.47201568e-02
      6.15183473e-01 6.14090383e-01 1.48664564e-02 6.21046960e-01
      6.10847652e-01 1.45227164e-02 6.39374554e-01 6.01091027e-01
      1.73271596e-02 7.19669342e-01 5.58334410e-01 5.76275438e-02
      6.04790390e-01 6.14588857e-01 1.58626884e-02 7.22236514e-01
      6.12765431e-01 9.60230976e-02 5.92124939e-01 7.10910439e-01
      1.18415356e-02 5.59266388e-01 4.95901734e-01 -5.33132553e-02
      5.55956483e-01 7.25395799e-01 -8.78564268e-03 6.43401206e-01
      6.58714592e-01 4.31247950e-02 6.08874917e-01 5.45744121e-01
      -4.32121009e-03 6.19249523e-01 6.88685596e-01 2.97675580e-02
      6.67581320e-01 5.41563511e-01 7.54509866e-03 6.36074483e-01
      5.65805435e-01 5.73119521e-03 6.91268682e-01 5.75487852e-01
      3.17146927e-02 5.73320389e-01 5.06003201e-01 -3.57976109e-02
      6.59022570e-01 6.81715250e-01 6.46164715e-02 6.65146768e-01
      6.27638102e-01 4.36004847e-02 7.40482271e-01 5.84349632e-01
      1.14605188e-01 6.92501366e-01 6.36906266e-01 6.78122044e-02
      6.60440028e-01 5.89162230e-01 2.11300701e-02 5.57258129e-01
      4.74411696e-01 -3.96072567e-02 6.79439723e-01 3.68965715e-01
      1.50347501e-02 6.93379521e-01 4.03763562e-01 5.49837947e-02
      6.79716885e-01 4.34025973e-01 3.91585529e-02 6.57094538e-01
      4.41886753e-01 2.52396911e-02 6.28157437e-01 4.44471478e-01
      1.44812167e-02 5.99799156e-01 4.41490203e-01 7.93370605e-03
      5.68388522e-01 5.54741800e-01 -3.76620293e-02 6.66031539e-01
      3.97332668e-01 2.86754519e-02 6.77513719e-01 3.88467282e-01
      2.91761905e-02</_>
    <_>
      5.10164261e-01 6.41635656e-01 -4.42646667e-02 5.10649323e-01
      5.80191374e-01 -5.33649623e-02 3.46987098e-01 4.17060643e-01
      1.94652099e-02 5.04233181e-01 3.67795557e-01 -6.11994639e-02
      5.03798485e-01 3.36958259e-01 -6.96832091e-02 5.10187268e-01
      6.53509855e-01 -3.88746932e-02 5.09785235e-01 6.60605907e-01
      -3.02736778e-02 5.09495795e-01 6.61414146e-01 -2.01189015e-02
      5.08542717e-01 6.56639159e-01 -2.17598472e-02 5.08550644e-01
      6.65055275e-01 -2.48676781e-02 5.08305609e-01 6.76983416e-01
      -2.94453185e-02 5.08301556e-01 6.91210330e-01 -2.73564998e-02
      5.08993089e-01 7.21517563e-01 -6.03036396e-03 3.89455378e-01
      4.38415170e-01 1.69458054e-03 3.67807567e-01 4.37740117e-01
      7.46783800e-03 3.37843955e-01 4.26458538e-01 2.40051243e-02
      3.45902473e-01 3.96341950e-01 1.15871802e-03 3.20351779e-01
      4.40698773e-01 3.72777209e-02 3.38843107e-01 4.12427366e-01
      2.55715568e-02 2.94427603e-01 4.25412476e-01 5.74618131e-02
      3.94323140e-01 5.34371614e-01 -8.69743153e-03 4.79838699e-01
      6.37696147e-01 -4.24111113e-02 4.82442886e-01 6.60018086e-01
      -2.71440577e-02 4.48136061e-01 6.43189967e-01 -2.76413877e-02
      4.26038772e-01 6.50062919e-01 -8.50522891e-03 4.58526134e-01
      6.59900665e-01 -1.75950509e-02 4.38867688e-01 6.59383297e-01
      -1.24453753e-03 3.97931427e-01 6.83025837e-01 2.88984198e-02
      3.05695236e-01 3.68673265e-01 2.15765648e-03 4.39574569e-01
      4.72063810e-01 -1.98154692e-02 4.33894277e-01 5.34451306e-01
      -5.06866202e-02 3.26430470e-01 5.33013165e-01 2.01585535e-02
      4.59201515e-01 3.64135593e-01 -5.53093180e-02 3.77924085e-01
      6.60415173e-01 3.25387642e-02 4.00949091e-01 6.56786084e-01
      3.10702827e-02 4.09925014e-01 6.55611336e-01 2.53002364e-02
      4.34287876e-01 5.57518184e-01 -4.23562527e-02 2.91402459e-01
      3.56439292e-01 1.98152382e-02 2.76539385e-01 3.41142803e-01
      6.32335097e-02 4.80758667e-01 6.52031898e-01 -3.69126052e-02
      4.54411983e-01 6.53989613e-01 -2.30596419e-02 4.32921588e-01
      6.55418336e-01 -6.60775043e-03 4.05711621e-01 6.56136274e-01
      2.80747805e-02 4.17995483e-01 6.60277963e-01 1.29740853e-02
      4.12113279e-01 6.55408859e-01 2.43485551e-02 4.41998124e-01
      6.57021761e-01 2.27237865e-03 4.62240845e-01 6.58825397e-01
      -8.53161328e-03 4.84753847e-01 6.60680175e-01 -1.74376983e-02
      4.77968335e-01 7.22011685e-01 -4.47864644e-03 4.79659975e-01
      6.90718055e-01 -2.56853905e-02 4.80771273e-01 6.75839067e-01
      -2.80063692e-02 4.82187539e-01 6.64112628e-01 -2.26532724e-02
      4.83555615e-01 6.56983137e-01 -1.93510931e-02 4.39715475e-01
      6.56614542e-01 1.14621967e-03 4.37007904e-01 6.59199476e-01
      -2.90028937e-03 4.33241606e-01 6.65731490e-01 -5.81108779e-03
      4.29849207e-01 6.74243808e-01 -1.02208368e-03 4.07878727e-01
      6.22283697e-01 -5.35812601e-03 4.26651269e-01 6.56587422e-01
      1.44355763e-02 4.22815859e-01 6.57108247e-01 1.21453237e-02
      4.80683059e-01 5.79971313e-01 -4.77746725e-02 4.42712635e-01
      5.70816994e-01 -2.43220199e-02 4.16502595e-01 4.86607969e-01
      -1.00364108e-02 3.79976124e-01 5.03679693e-01 -1.42241828e-03
      4.29924607e-01 5.44215858e-01 -3.64507958e-02 4.19683486e-01
      6.99409008e-01 1.68256555e-02 4.51023370e-01 3.32548380e-01
      -6.83126822e-02 3.48893344e-01 4.34365064e-01 1.64218638e-02
      2.96777308e-01 4.57446814e-01 5.23850620e-02 3.18538815e-01
      3.99165958e-01 2.07210798e-02 4.55190897e-01 4.56373960e-01
      -3.05137690e-02 2.72764981e-01 4.74456519e-01 7.93193132e-02
      3.13023835e-01 4.73610252e-01 3.48493159e-02 3.42202336e-01
      4.82081890e-01 1.55724306e-02 3.84402901e-01 4.77480233e-01
      4.71398421e-03 4.15862828e-01 4.66509134e-01 -1.67543814e-03
      4.38968420e-01 4.54135329e-01 -9.33672115e-03 2.75362462e-01
      5.25061190e-01 8.04709792e-02 2.98824579e-01 3.94984990e-01
      3.02250069e-02 4.41508651e-01 4.95791703e-01 -2.59714834e-02
      4.28301543e-01 5.43903112e-01 -1.29746608e-02 3.31656069e-01
      4.14183825e-01 2.99293604e-02 3.19943070e-01 7.18308449e-01
      1.12913176e-01 2.65164763e-01 3.80139977e-01 1.04577571e-01
      4.21353400e-01 5.14023960e-01 -1.53659526e-02 2.75230080e-01
      4.29710627e-01 8.02926719e-02 3.69768083e-01 4.22931492e-01
      7.39741139e-03 4.13055241e-01 6.65457904e-01 1.76034514e-02
      2.77251810e-01 5.75099945e-01 9.46563482e-02 5.02654374e-01
      2.72573203e-01 -6.59861118e-02 2.82329530e-01 3.88986856e-01
      5.21137416e-02 3.52526933e-01 4.08410311e-01 7.71929510e-03
      3.56383085e-01 4.19991195e-01 1.38062555e-02 5.10231256e-01
      5.99376917e-01 -4.58822772e-02 4.31067586e-01 6.08171463e-01
      -2.11216416e-02 4.77475107e-01 6.01904452e-01 -4.43019792e-02
      4.70695645e-01 4.63474214e-01 -6.06998056e-02 4.60159242e-01
      6.56333804e-01 -1.03411619e-02 4.57311928e-01 6.61906242e-01
      -1.46124270e-02 4.54959661e-01 6.71150684e-01 -1.82876643e-02
      4.52788144e-01 6.84390247e-01 -1.46418791e-02 4.45852280e-01
      7.12948561e-01 3.70569527e-03 4.20887679e-01 6.58034146e-01
      1.28966104e-02 4.15132642e-01 6.56427026e-01 1.27108376e-02
      4.08921182e-01 6.53438687e-01 1.22196991e-02 3.87525111e-01
      6.39809430e-01 1.41196903e-02 3.05422425e-01 5.87741971e-01
      5.10040596e-02 4.25054371e-01 6.55135095e-01 1.49168130e-02
      3.00701141e-01 6.47733092e-01 9.15787816e-02 4.33831960e-01
      7.44054258e-01 1.74981598e-02 4.55542743e-01 5.01990855e-01
      -5.48514724e-02 5.09542167e-01 7.54908919e-01 -3.23794596e-03
      4.70754743e-01 7.55291939e-01 2.03399174e-03 3.77974689e-01
      6.98426783e-01 4.24541682e-02 4.09429014e-01 5.65002620e-01
      -5.41066378e-03 4.04153973e-01 7.25419044e-01 3.18217650e-02
      3.55927706e-01 5.64445496e-01 4.07304801e-03 3.86117220e-01
      5.90925634e-01 2.68260017e-03 3.33741486e-01 6.05243683e-01
      2.80714985e-02 4.41426367e-01 5.14916539e-01 -3.70745435e-02
      3.59514087e-01 7.21038640e-01 6.51158318e-02 3.57029349e-01
      6.67617738e-01 4.24670875e-02 2.81148821e-01 6.18004262e-01
      1.08100221e-01 3.29078525e-01 6.74269974e-01 6.53222501e-02
      3.64431173e-01 6.23561144e-01 1.81861501e-02 4.56564188e-01
      4.79127526e-01 -4.21650410e-02 3.28390747e-01 3.82720888e-01
      -8.13657418e-04 3.15171182e-01 4.19462740e-01 3.99695560e-02
      3.33515853e-01 4.50740159e-01 2.76952479e-02 3.56658369e-01
      4.56903160e-01 1.51881147e-02 3.86117846e-01 4.56257612e-01
      6.16264902e-03 4.14300531e-01 4.49470997e-01 1.58378854e-03
      4.49765414e-01 5.67933559e-01 -3.73432338e-02 3.44929248e-01
      4.11024868e-01 1.55607294e-02 3.33296806e-01 4.02877867e-01
      1.54194701e-02 6.58741534e-01 4.05594200e-01 2.33716015e-02
      6.17733598e-01 4.29887652e-01 5.05447574e-03 6.38871431e-01
      4.28083003e-01 1.10597629e-02 6.66985750e-01 4.14492011e-01
      2.80375984e-02 6.58352971e-01 3.87046516e-01 5.50728105e-03
      6.84608281e-01 4.28328365e-01 4.10989895e-02 6.66164160e-01
      4.00623888e-01 2.96536032e-02 7.08161831e-01 4.11814928e-01
      6.16931766e-02 6.18798852e-01 5.26815951e-01 -7.12565519e-03
      5.39084375e-01 6.35131836e-01 -4.16870266e-02 5.35249710e-01
      6.57945693e-01 -2.65073050e-02 5.68661273e-01 6.37961566e-01
      -2.64915843e-02 5.88332832e-01 6.43203795e-01 -6.73775747e-03
      5.57472467e-01 6.55661762e-01 -1.60310399e-02 5.75437248e-01
      6.53856814e-01 6.91611320e-04 6.14316285e-01 6.74857020e-01
      3.10446341e-02 6.94663227e-01 3.58229637e-01 6.43066131e-03
      5.71977198e-01 4.67701375e-01 -1.82817094e-02 5.82839072e-01
      5.28872550e-01 -4.99633476e-02 6.83109224e-01 5.20783544e-01
      2.30688211e-02 5.48124611e-01 3.62897635e-01 -5.45093939e-02
      6.33502901e-01 6.50702834e-01 3.49714532e-02 6.10745907e-01
      6.48692727e-01 3.40402797e-02 6.01297677e-01 6.48355246e-01
      2.75120307e-02 5.83841205e-01 5.51937878e-01 -4.20469344e-02
      7.07682073e-01 3.45293730e-01 2.45923568e-02 7.20797658e-01
      3.28134149e-01 6.89538866e-02 5.37614465e-01 6.49758875e-01
      -3.60866040e-02 5.62037528e-01 6.49532676e-01 -2.17925478e-02
      5.81599772e-01 6.49281740e-01 -4.69070673e-03 6.05739772e-01
      6.48550749e-01 3.04982048e-02 5.93542993e-01 6.53660953e-01
      1.49531197e-02 5.98954558e-01 6.48256421e-01 2.66384948e-02
      5.71584940e-01 6.51746631e-01 4.18495387e-03 5.53253293e-01
      6.55178428e-01 -7.08803907e-03 5.32253385e-01 6.58890545e-01
      -1.64512638e-02 5.38518310e-01 7.19673932e-01 -3.91378254e-03
      5.35359859e-01 6.88724816e-01 -2.47475598e-02 5.34310937e-01
      6.73804879e-01 -2.68496666e-02 5.33424139e-01 6.62093222e-01
      -2.13975105e-02 5.31849265e-01 6.55057549e-01 -1.78903248e-02
      5.72542667e-01 6.51316762e-01 2.78530084e-03 5.74994326e-01
      6.53883457e-01 -1.43534131e-03 5.78692317e-01 6.60371721e-01
      -4.53639776e-03 5.82436800e-01 6.68769777e-01 5.82063571e-04
      6.06839299e-01 6.14827275e-01 -4.00860794e-03 5.84999084e-01
      6.50292218e-01 1.67981591e-02 5.88708699e-01 6.50835395e-01
      1.42142866e-02 5.40161252e-01 5.77725470e-01 -4.77270186e-02
      5.76278627e-01 5.65923333e-01 -2.46530194e-02 5.95362008e-01
      4.80517864e-01 -8.21517408e-03 6.31180465e-01 4.95462418e-01
      5.41826710e-04 5.86818159e-01 5.38587451e-01 -3.59473377e-02
      5.93906403e-01 6.92731321e-01 1.87686738e-02 5.55208027e-01
      3.31427932e-01 -6.77733645e-02 6.56928420e-01 4.23221886e-01
      2.02478860e-02 7.07582474e-01 4.43521470e-01 5.64206764e-02
      6.84232235e-01 3.87996525e-01 2.48799715e-02 5.56151748e-01
      4.52877522e-01 -2.92098783e-02 7.30826795e-01 4.58942831e-01
      8.41577202e-02 6.93284094e-01 4.60794240e-01 3.86371166e-02
      6.66086793e-01 4.71183091e-01 1.87574979e-02 6.25487506e-01
      4.69244301e-01 7.17854686e-03 5.94473600e-01 4.60384339e-01
      3.75237316e-04 5.71209252e-01 4.49649930e-01 -7.73531944e-03
      7.31229603e-01 5.09107471e-01 8.51540118e-02 7.02545583e-01
      3.82822514e-01 3.51142511e-02 5.72501779e-01 4.91364360e-01
      -2.45779753e-02 5.88539898e-01 5.38056016e-01 -1.27693284e-02
      6.72785282e-01 4.02329504e-01 3.41096744e-02 6.92105711e-01
      7.02780664e-01 1.14960253e-01 7.33406007e-01 3.65356773e-01
      1.10926911e-01 5.92361391e-01 5.08235872e-01 -1.39206238e-02
      7.26136804e-01 4.14716214e-01 8.55218023e-02 6.36936545e-01
      4.12888527e-01 1.09097380e-02 5.98568559e-01 6.58496678e-01
      1.96329001e-02 7.31158674e-01 5.58480084e-01 9.87563878e-02
      7.17615247e-01 3.75704646e-01 5.73072210e-02 6.52626038e-01
      3.97932291e-01 1.12315584e-02 6.49895847e-01 4.09038484e-01
      1.74261723e-02 5.86074889e-01 6.02238536e-01 -2.02387348e-02
      5.41711390e-01 5.99235952e-01 -4.37255427e-02 5.42872190e-01
      4.61196661e-01 -5.98492697e-02 5.53642094e-01 6.52482748e-01
      -8.63655843e-03 5.56349933e-01 6.57970548e-01 -1.28803831e-02
      5.58523059e-01 6.67191029e-01 -1.65811051e-02 5.60971797e-01
      6.80308998e-01 -1.29062999e-02 5.69162726e-01 7.08262980e-01
      5.42572699e-03 5.91513515e-01 6.51264846e-01 1.53711382e-02
      5.97478569e-01 6.49153292e-01 1.52563471e-02 6.03496194e-01
      6.45814657e-01 1.45983081e-02 6.24918401e-01 6.30887330e-01
      1.62877869e-02 7.04355180e-01 5.73291004e-01 5.40575236e-02
      5.86824358e-01 6.48684978e-01 1.71438698e-02 7.09355652e-01
      6.31933451e-01 9.44557339e-02 5.82148433e-01 7.38164783e-01
      1.85959097e-02 5.59791684e-01 4.98432904e-01 -5.43174930e-02
      5.46927810e-01 7.52284348e-01 2.41590850e-03 6.34956658e-01
      6.88470006e-01 4.40623760e-02 6.06326282e-01 5.57978690e-01
      -4.44979779e-03 6.10277951e-01 7.17490196e-01 3.29505280e-02
      6.55856192e-01 5.54142118e-01 5.63514791e-03 6.27596915e-01
      5.82396865e-01 4.06255759e-03 6.77481413e-01 5.92849135e-01
      2.98192818e-02 5.73852479e-01 5.10266542e-01 -3.62588316e-02
      6.54190242e-01 7.08890378e-01 6.65746927e-02 6.54719651e-01
      6.56086564e-01 4.47830930e-02 7.27790952e-01 6.01075351e-01
      1.11586943e-01 6.82053685e-01 6.60462797e-01 6.75024018e-02
      6.47328079e-01 6.13304555e-01 1.99057106e-02 5.57098746e-01
      4.75816458e-01 -4.10431847e-02 6.74474478e-01 3.73131186e-01
      2.95268930e-03 6.88372970e-01 4.07091260e-01 4.38969582e-02
      6.72793865e-01 4.39080805e-01 3.10030822e-02 6.50883913e-01
      4.46747839e-01 1.82786640e-02 6.22264862e-01 4.48027343e-01
      8.74705054e-03 5.94463766e-01 4.43080395e-01 3.86489928e-03
      5.69596410e-01 5.63410580e-01 -3.75574827e-02 6.60270095e-01
      3.99703264e-01 1.94028411e-02 6.70634568e-01 3.92090142e-01
      1.93352196e-02</_>
    <_>
      5.09584010e-01 6.32566810e-01 -4.93096747e-02 5.07644475e-01
      5.78046918e-01 -5.41509017e-02 3.52015734e-01 4.13110375e-01
      1.99742168e-02 5.05125999e-01 3.72668594e-01 -5.98498620e-02
      5.04841030e-01 3.43074441e-01 -6.84353709e-02 5.10029376e-01
      6.44005954e-01 -4.50482368e-02 5.10219395e-01 6.50863886e-01
      -3.66090387e-02 5.10301173e-01 6.51867390e-01 -2.61369720e-02
      5.10338962e-01 6.53119743e-01 -2.67532095e-02 5.10606766e-01
      6.61420226e-01 -2.94430181e-02 5.11245847e-01 6.72658563e-01
      -3.34529355e-02 5.11738777e-01 6.85376048e-01 -2.95007713e-02
      5.11476934e-01 7.09607661e-01 -5.10544330e-03 3.93794656e-01
      4.35008526e-01 2.51245499e-03 3.72949302e-01 4.34534639e-01
      7.50160217e-03 3.44492018e-01 4.23457861e-01 2.41155624e-02
      3.53264749e-01 3.96550387e-01 2.17445940e-03 3.25773597e-01
      4.39052224e-01 3.58603299e-02 3.44318449e-01 4.08803225e-01
      2.62663290e-02 3.00118089e-01 4.25820857e-01 5.59626371e-02
      4.00578797e-01 5.32990336e-01 -1.18257031e-02 4.83397305e-01
      6.28961325e-01 -4.73651364e-02 4.87457454e-01 6.50162935e-01
      -3.35993804e-02 4.56508458e-01 6.34764791e-01 -3.37249003e-02
      4.37928379e-01 6.42850816e-01 -1.61317214e-02 4.67586398e-01
      6.50512815e-01 -2.43444666e-02 4.50536191e-01 6.51267946e-01
      -8.92819464e-03 4.11399066e-01 6.76094592e-01 2.04438418e-02
      3.16500783e-01 3.76706213e-01 2.56962329e-03 4.43235934e-01
      4.71565485e-01 -2.05247030e-02 4.40794587e-01 5.33897638e-01
      -5.25219813e-02 3.34186435e-01 5.32002985e-01 1.45733804e-02
      4.64095592e-01 3.71779144e-01 -5.34890629e-02 3.92641664e-01
      6.54776514e-01 2.35611200e-02 4.15553033e-01 6.52124286e-01
      2.29717642e-02 4.25122142e-01 6.50774479e-01 1.68701410e-02
      4.41206574e-01 5.56446433e-01 -4.49466333e-02 3.01882833e-01
      3.65052015e-01 2.09000111e-02 2.85131812e-01 3.44952315e-01
      6.43685907e-02 4.85257924e-01 6.42359376e-01 -4.28391732e-02
      4.62975323e-01 6.45029366e-01 -2.97629721e-02 4.44691598e-01
      6.47774994e-01 -1.43046379e-02 4.20570612e-01 6.51519299e-01
      1.95788816e-02 4.31937397e-01 6.55237198e-01 4.98756021e-03
      4.27609622e-01 6.50007725e-01 1.57720521e-02 4.54223037e-01
      6.49026096e-01 -5.25601953e-03 4.71247256e-01 6.49696708e-01
      -1.52246356e-02 4.90020156e-01 6.51173532e-01 -2.34014951e-02
      4.83576655e-01 7.10722327e-01 -5.03389537e-03 4.86303031e-01
      6.84808612e-01 -2.84599103e-02 4.86808956e-01 6.70979202e-01
      -3.18844765e-02 4.87210333e-01 6.60109520e-01 -2.71635242e-02
      4.88414824e-01 6.52849078e-01 -2.38740295e-02 4.51147139e-01
      6.51520729e-01 -5.45175374e-03 4.48945522e-01 6.54075503e-01
      -9.47840512e-03 4.45981979e-01 6.60167813e-01 -1.21751428e-02
      4.42261398e-01 6.68165505e-01 -7.17480481e-03 4.18628097e-01
      6.17059290e-01 -1.24232247e-02 4.39720035e-01 6.51386559e-01
      7.30603933e-03 4.36188042e-01 6.52183473e-01 4.73972410e-03
      4.82286692e-01 5.77645540e-01 -4.93346043e-02 4.48334992e-01
      5.68971992e-01 -2.71720178e-02 4.20912087e-01 4.85906512e-01
      -1.14673525e-02 3.85391474e-01 5.03091931e-01 -5.06781042e-03
      4.36884224e-01 5.43295145e-01 -3.86845246e-02 4.30789232e-01
      6.90370500e-01 1.03953853e-02 4.56414580e-01 3.41563523e-01
      -6.71793818e-02 3.54928434e-01 4.31024283e-01 1.61344409e-02
      3.01867306e-01 4.56608385e-01 4.99755442e-02 3.26297045e-01
      4.00701523e-01 2.08327025e-02 4.58025038e-01 4.55915421e-01
      -3.03194821e-02 2.77717471e-01 4.72938508e-01 7.63620287e-02
      3.18049908e-01 4.73085403e-01 3.21406722e-02 3.47205460e-01
      4.81586814e-01 1.30413473e-02 3.88686895e-01 4.76387054e-01
      2.89452821e-03 4.19239581e-01 4.65364724e-01 -2.10480392e-03
      4.41805065e-01 4.53395009e-01 -9.53748822e-03 2.81106234e-01
      5.22911072e-01 7.56258816e-02 3.07112575e-01 3.98788393e-01
      3.04461420e-02 4.45691884e-01 4.95312095e-01 -2.65071690e-02
      4.33955967e-01 5.43166459e-01 -1.51821524e-02 3.37984204e-01
      4.12235796e-01 3.05939168e-02 3.30231071e-01 7.03960001e-01
      1.03158787e-01 2.70510554e-01 3.81259978e-01 1.05549797e-01
      4.26909685e-01 5.12990475e-01 -1.69232339e-02 2.80626655e-01
      4.29721445e-01 7.89389461e-02 3.73966932e-01 4.18955714e-01
      8.38400424e-03 4.27019060e-01 6.60254180e-01 9.54712182e-03
      2.84689873e-01 5.70784092e-01 8.76855850e-02 5.03003180e-01
      2.73253024e-01 -6.37468621e-02 2.90256560e-01 3.93043518e-01
      5.26485294e-02 3.57814431e-01 4.02078956e-01 8.56748223e-03
      3.60836565e-01 4.15993899e-01 1.45386755e-02 5.07987857e-01
      5.94807506e-01 -4.70179729e-02 4.39420223e-01 6.03221893e-01
      -2.55381577e-02 4.79970276e-01 5.96869826e-01 -4.62330170e-02
      4.72713113e-01 4.63550091e-01 -6.05811700e-02 4.68279362e-01
      6.51860595e-01 -1.57302618e-02 4.65981901e-01 6.57183766e-01
      -1.98649317e-02 4.64184761e-01 6.65935457e-01 -2.26469673e-02
      4.62122023e-01 6.77994370e-01 -1.85732469e-02 4.54888642e-01
      7.02274799e-01 2.36757100e-04 4.35218275e-01 6.51397109e-01
      4.58304584e-03 4.29335475e-01 6.50171280e-01 4.24289703e-03
      4.23356235e-01 6.47542298e-01 3.62455845e-03 4.00691330e-01
      6.34536862e-01 5.42154163e-03 3.15537333e-01 5.83948195e-01
      4.26120758e-02 4.39403355e-01 6.48269713e-01 7.16075301e-03
      3.11536610e-01 6.39840305e-01 8.20863694e-02 4.41443086e-01
      7.29872406e-01 1.29494369e-02 4.59300816e-01 5.01801789e-01
      -5.58757409e-02 5.12376904e-01 7.39335358e-01 -4.06125933e-03
      4.75853622e-01 7.40235448e-01 -5.52311540e-04 3.89773548e-01
      6.89015210e-01 3.28123495e-02 4.16712880e-01 5.63065350e-01
      -8.86058807e-03 4.14218903e-01 7.13179767e-01 2.42668688e-02
      3.65070105e-01 5.62097788e-01 -2.00496614e-03 3.95441294e-01
      5.87700486e-01 -3.28854471e-03 3.45360160e-01 6.00821257e-01
      1.98664889e-02 4.46968555e-01 5.14576614e-01 -3.82784717e-02
      3.70288730e-01 7.07888007e-01 5.50335348e-02 3.70264411e-01
      6.60706878e-01 3.28270569e-02 2.90288568e-01 6.11217260e-01
      9.96525139e-02 3.41963291e-01 6.65119827e-01 5.47009706e-02
      3.76854599e-01 6.19167745e-01 9.52330232e-03 4.59519982e-01
      4.78947818e-01 -4.22552824e-02 3.37255001e-01 3.86866361e-01
      -1.26184523e-03 3.21455300e-01 4.18890446e-01 3.93566489e-02
      3.38628888e-01 4.48791593e-01 2.64867395e-02 3.61349463e-01
      4.54930454e-01 1.36595070e-02 3.90300512e-01 4.53999490e-01
      5.50419837e-03 4.17581439e-01 4.47655261e-01 2.58009136e-03
      4.55192864e-01 5.66283047e-01 -4.02182378e-02 3.50474954e-01
      4.05936420e-01 1.61604211e-02 3.40651393e-01 4.02369142e-01
      1.58724934e-02 6.60371006e-01 4.00021762e-01 2.83579379e-02
      6.21135890e-01 4.25272495e-01 7.66565651e-03 6.42152905e-01
      4.23676312e-01 1.40073895e-02 6.69606984e-01 4.09903705e-01
      3.26682553e-02 6.60574198e-01 3.82753044e-01 1.00317746e-02
      6.88413680e-01 4.25031871e-01 4.63725924e-02 6.67576611e-01
      3.94650847e-01 3.48690003e-02 7.12843597e-01 4.09624010e-01
      6.82771951e-02 6.16721332e-01 5.26136160e-01 -4.91216034e-03
      5.36123693e-01 6.27361417e-01 -4.60292026e-02 5.33873141e-01
      6.48837566e-01 -3.26891206e-02 5.64053893e-01 6.31978691e-01
      -3.11114043e-02 5.82977414e-01 6.39079988e-01 -1.25699937e-02
      5.54251075e-01 6.48628414e-01 -2.29437687e-02 5.70837557e-01
      6.48304105e-01 -6.24682009e-03 6.10239804e-01 6.71177864e-01
      2.67865285e-02 6.98376954e-01 3.59738350e-01 1.35135576e-02
      5.71317136e-01 4.66898680e-01 -1.75265446e-02 5.76834023e-01
      5.29653847e-01 -4.84126173e-02 6.85021758e-01 5.20494938e-01
      2.55059004e-02 5.46706319e-01 3.66939336e-01 -5.12075908e-02
      6.27547562e-01 6.48713589e-01 3.07106003e-02 6.03095591e-01
      6.47389948e-01 2.74259597e-02 5.95356226e-01 6.46342158e-01
      2.13083923e-02 5.76802552e-01 5.52577019e-01 -4.02812846e-02
      7.11793125e-01 3.47310930e-01 3.29433531e-02 7.26288438e-01
      3.26830685e-01 7.71926194e-02 5.35564780e-01 6.41136110e-01
      -4.17646319e-02 5.58337390e-01 6.42808318e-01 -2.82729343e-02
      5.76694608e-01 6.44408166e-01 -1.13671720e-02 5.98683834e-01
      6.47006691e-01 2.40211412e-02 5.89244187e-01 6.51168823e-01
      9.50914621e-03 5.93725860e-01 6.45786524e-01 2.02132910e-02
      5.67711234e-01 6.46172583e-01 -2.71158665e-03 5.50517976e-01
      6.47983730e-01 -1.39869750e-02 5.31298637e-01 6.50187373e-01
      -2.29959376e-02 5.40268481e-01 7.09447026e-01 -2.43350118e-03
      5.37761152e-01 6.83434725e-01 -2.70389505e-02 5.36249995e-01
      6.69855773e-01 -3.07754762e-02 5.34265101e-01 6.59080923e-01
      -2.65217945e-02 5.32474577e-01 6.51995182e-01 -2.32611708e-02
      5.70328295e-01 6.48629963e-01 -2.26090848e-03 5.73146939e-01
      6.50857270e-01 -5.90387732e-03 5.76984227e-01 6.56681359e-01
      -7.95992464e-03 5.80269217e-01 6.64578557e-01 -2.90852785e-03
      6.00943625e-01 6.12090111e-01 -6.59373403e-03 5.81401467e-01
      6.47894084e-01 1.07150301e-02 5.84826410e-01 6.48463786e-01
      8.58658552e-03 5.33911467e-01 5.76369047e-01 -4.73606251e-02
      5.67934990e-01 5.65853179e-01 -2.22105384e-02 5.94401062e-01
      4.79763180e-01 -7.34230876e-03 6.31384850e-01 4.94718462e-01
      2.16066092e-03 5.80247760e-01 5.39081931e-01 -3.41863446e-02
      5.92223287e-01 6.86621606e-01 1.55783892e-02 5.54060102e-01
      3.35776538e-01 -6.36215061e-02 6.59931362e-01 4.18762088e-01
      2.38118917e-02 7.12859690e-01 4.41387922e-01 6.24926388e-02
      6.87671542e-01 3.85252446e-01 3.07461694e-02 5.55868924e-01
      4.52193499e-01 -2.85575911e-02 7.36991405e-01 4.56658840e-01
      8.99827927e-02 6.97791934e-01 4.59322244e-01 4.30760384e-02
      6.69177115e-01 4.70007509e-01 2.21957564e-02 6.26527250e-01
      4.67646986e-01 9.07672197e-03 5.94808698e-01 4.58552957e-01
      1.85350329e-03 5.71842492e-01 4.48259175e-01 -6.93807751e-03
      7.35344887e-01 5.07767320e-01 8.91054273e-02 7.07326233e-01
      3.82234335e-01 4.18778211e-02 5.69111943e-01 4.91241276e-01
      -2.37904266e-02 5.80752730e-01 5.38678527e-01 -1.00852847e-02
      6.74475253e-01 3.97693992e-01 3.93211842e-02 6.89846754e-01
      6.95562661e-01 1.16133645e-01 7.39257932e-01 3.63006532e-01
      1.18885219e-01 5.88923812e-01 5.07797122e-01 -1.23875588e-02
      7.31968462e-01 4.12645459e-01 9.24464315e-02 6.39191926e-01
      4.07609373e-01 1.49223283e-02 5.93729496e-01 6.56064630e-01
      1.40410662e-02 7.32497454e-01 5.56785583e-01 1.01969674e-01
      7.23236680e-01 3.75549316e-01 6.49388880e-02 6.54985130e-01
      3.88813555e-01 1.64656118e-02 6.51762664e-01 4.03784305e-01
      2.20873952e-02 5.79279721e-01 5.99520683e-01 -2.10214742e-02
      5.37506521e-01 5.95382035e-01 -4.44012582e-02 5.41806996e-01
      4.61063743e-01 -5.89764863e-02 5.52809060e-01 6.49870574e-01
      -1.41753033e-02 5.55937052e-01 6.54904366e-01 -1.78119838e-02
      5.58594823e-01 6.63406968e-01 -2.04278678e-02 5.60979843e-01
      6.75446928e-01 -1.61353648e-02 5.69185317e-01 6.99834764e-01
      3.71053070e-03 5.86148143e-01 6.47539794e-01 8.23269784e-03
      5.91335595e-01 6.46224678e-01 7.94595480e-03 5.97084999e-01
      6.43111229e-01 7.78070092e-03 6.19059443e-01 6.28641367e-01
      1.18734986e-02 7.04697669e-01 5.71973443e-01 5.60419261e-02
      5.82230330e-01 6.44637346e-01 1.03547201e-02 7.07795262e-01
      6.28677487e-01 9.60733145e-02 5.83238721e-01 7.26887524e-01
      1.86999068e-02 5.56660891e-01 4.98495281e-01 -5.32648191e-02
      5.49465358e-01 7.38874972e-01 2.87528336e-03 6.32438779e-01
      6.83172047e-01 4.18889821e-02 5.99956274e-01 5.57569504e-01
      -2.65265256e-03 6.09633923e-01 7.08962619e-01 3.19063663e-02
      6.54539764e-01 5.53111434e-01 8.57251137e-03 6.23213172e-01
      5.81202745e-01 4.77527082e-03 6.75386250e-01 5.91095805e-01
      3.19957882e-02 5.69193900e-01 5.10565877e-01 -3.47007103e-02
      6.51748002e-01 7.01283872e-01 6.55564219e-02 6.50814056e-01
      6.53263450e-01 4.22585607e-02 7.27735221e-01 5.98408818e-01
      1.14472911e-01 6.79353774e-01 6.56304181e-01 6.69392943e-02
      6.43509209e-01 6.11614823e-01 1.87115967e-02 5.54953575e-01
      4.75637227e-01 -4.03247438e-02 6.77009881e-01 3.71596575e-01
      8.32727551e-03 6.91858351e-01 4.03771222e-01 4.98788506e-02
      6.76110446e-01 4.35824275e-01 3.57847959e-02 6.53636694e-01
      4.43892509e-01 2.16709301e-02 6.24437869e-01 4.44786727e-01
      1.10083893e-02 5.96133292e-01 4.40039814e-01 6.34128600e-03
      5.62060356e-01 5.63525438e-01 -3.57401967e-02 6.62035108e-01
      3.92177522e-01 2.47091576e-02 6.72947049e-01 3.87609571e-01
      2.48713940e-02</_>
    <_>
      5.09944201e-01 6.11367524e-01 -4.49711755e-02 5.11466801e-01
      5.69828749e-01 -5.53883687e-02 3.38970363e-01 4.15498018e-01
      3.47652361e-02 5.03863573e-01 3.72700125e-01 -4.61587161e-02
      5.02754688e-01 3.42953950e-01 -5.23343161e-02 5.09698868e-01
      6.21615231e-01 -4.06029969e-02 5.09168148e-01 6.28089309e-01
      -3.37051898e-02 5.08592069e-01 6.28493905e-01 -2.43118163e-02
      5.10525763e-01 6.62433505e-01 -1.11346487e-02 5.10606706e-01
      6.71496212e-01 -1.51572954e-02 5.10271430e-01 6.83035612e-01
      -2.03983504e-02 5.10191500e-01 6.96300626e-01 -1.70764644e-02
      5.10368049e-01 7.19153583e-01 2.85153463e-03 3.83158982e-01
      4.35283273e-01 1.41502684e-02 3.60710144e-01 4.34300482e-01
      2.00491138e-02 3.28116626e-01 4.23267841e-01 3.85847986e-02
      3.34926456e-01 3.92345339e-01 1.78867076e-02 3.10357809e-01
      4.35704410e-01 5.14072999e-02 3.30040932e-01 4.11076009e-01
      4.20122296e-02 2.85843462e-01 4.22352225e-01 7.38294050e-02
      3.81852448e-01 5.22863746e-01 -4.78138775e-03 4.71932232e-01
      6.07893109e-01 -4.23466340e-02 4.73058015e-01 6.27367496e-01
      -2.91913580e-02 4.32070255e-01 6.11135662e-01 -2.54242513e-02
      4.06107396e-01 6.14311934e-01 -3.37729231e-04 4.43813652e-01
      6.26034319e-01 -1.62072312e-02 4.21365499e-01 6.24249041e-01
      5.95573336e-03 3.82779568e-01 6.53503716e-01 4.71504182e-02
      3.00461471e-01 3.70538771e-01 2.12107711e-02 4.34787631e-01
      4.69964474e-01 -1.17461830e-02 4.28089827e-01 5.26326418e-01
      -5.02755418e-02 3.07285011e-01 5.17678797e-01 2.61370614e-02
      4.57097381e-01 3.69270802e-01 -3.87749970e-02 3.60743344e-01
      6.24315500e-01 4.74468395e-02 3.76746625e-01 6.21419549e-01
      4.92829382e-02 3.88543814e-01 6.22837603e-01 4.41509485e-02
      4.27411973e-01 5.45946717e-01 -4.28855866e-02 2.86764860e-01
      3.58796865e-01 3.99699509e-02 2.72356689e-01 3.42032343e-01
      8.60295668e-02 4.71842438e-01 6.20066881e-01 -3.75043377e-02
      4.38584417e-01 6.20275140e-01 -2.09630076e-02 4.13769752e-01
      6.19467378e-01 1.33317895e-03 3.82186383e-01 6.21727288e-01
      4.65736389e-02 3.98188382e-01 6.39221430e-01 3.49673517e-02
      3.92857760e-01 6.23759985e-01 4.33184430e-02 4.25223559e-01
      6.21748686e-01 8.89043137e-03 4.48139757e-01 6.24638915e-01
      -7.75990821e-03 4.75305259e-01 6.27396047e-01 -2.02039648e-02
      4.71962720e-01 7.17770994e-01 6.29833154e-03 4.72953618e-01
      6.93545818e-01 -1.33496020e-02 4.74199623e-01 6.80086970e-01
      -1.61887873e-02 4.76068467e-01 6.68517530e-01 -1.04811136e-02
      4.78238106e-01 6.60893202e-01 -6.93672709e-03 4.26790655e-01
      6.46872640e-01 1.98458005e-02 4.22474802e-01 6.49465442e-01
      1.65153667e-02 4.16811436e-01 6.55206025e-01 1.42512396e-02
      4.13078040e-01 6.62562907e-01 1.96281094e-02 3.91918421e-01
      5.95038295e-01 3.81856784e-03 4.11633492e-01 6.38516903e-01
      3.54775451e-02 4.04632837e-01 6.37757063e-01 3.36863957e-02
      4.78219151e-01 5.68445086e-01 -4.88806218e-02 4.34388310e-01
      5.56633353e-01 -2.40272451e-02 4.08443719e-01 4.80679125e-01
      -3.17924470e-03 3.67360443e-01 4.93154824e-01 4.23881970e-03
      4.22577262e-01 5.33970058e-01 -3.58775705e-02 4.06209737e-01
      6.79603338e-01 3.52339409e-02 4.49167162e-01 3.39094549e-01
      -4.99501973e-02 3.40248674e-01 4.30605292e-01 2.96893213e-02
      2.85386354e-01 4.50156748e-01 6.60713762e-02 3.10201645e-01
      3.98366451e-01 3.86317410e-02 4.52301562e-01 4.57239628e-01
      -2.19106916e-02 2.60363132e-01 4.65611309e-01 9.27807316e-02
      3.00479800e-01 4.63633478e-01 4.60112840e-02 3.30122024e-01
      4.71002311e-01 2.55127773e-02 3.75417620e-01 4.69420195e-01
      1.38231702e-02 4.09458697e-01 4.62306380e-01 8.15470517e-03
      4.34292972e-01 4.53317165e-01 9.30101611e-04 2.57766843e-01
      5.10725975e-01 9.01684985e-02 2.91942328e-01 3.95041287e-01
      4.84033003e-02 4.35677022e-01 4.91632998e-01 -2.12825667e-02
      4.19510812e-01 5.32574475e-01 -1.07921306e-02 3.21562976e-01
      4.12111938e-01 4.65046167e-02 3.17517549e-01 6.93438351e-01
      1.22169428e-01 2.58774638e-01 3.78710538e-01 1.25567734e-01
      4.12409574e-01 5.05760908e-01 -1.12746898e-02 2.66375452e-01
      4.26076919e-01 9.71660614e-02 3.63315612e-01 4.20810491e-01
      2.13044565e-02 3.92600507e-01 6.42109573e-01 3.88275012e-02
      2.57288247e-01 5.58185995e-01 1.02426954e-01 5.01290500e-01
      2.77381808e-01 -4.59728092e-02 2.75464237e-01 3.88837010e-01
      7.09024891e-02 3.44297677e-01 4.05681491e-01 2.39028782e-02
      3.49308044e-01 4.18270707e-01 2.83134133e-02 5.10870337e-01
      5.83218098e-01 -4.65576872e-02 4.18663234e-01 5.85711598e-01
      -1.71145257e-02 4.72582728e-01 5.83882391e-01 -4.35611382e-02
      4.69504446e-01 4.65523630e-01 -5.43919727e-02 4.50492471e-01
      6.54970467e-01 4.91277128e-03 4.46370363e-01 6.60515845e-01
      1.70086138e-03 4.42745984e-01 6.69479847e-01 -1.29430182e-03
      4.40677524e-01 6.81583762e-01 3.32044624e-03 4.34695780e-01
      7.02489257e-01 1.94393285e-02 4.00017560e-01 6.22011483e-01
      2.64197122e-02 3.92649442e-01 6.19395018e-01 2.68114191e-02
      3.85965019e-01 6.15991473e-01 2.61976086e-02 3.69483441e-01
      6.06536806e-01 2.71820650e-02 2.84262568e-01 5.69420338e-01
      5.70585728e-02 4.06236440e-01 6.19610131e-01 2.76608355e-02
      2.85781741e-01 6.26453996e-01 9.91638452e-02 4.26635504e-01
      7.26224661e-01 3.03606782e-02 4.51632231e-01 4.98919249e-01
      -5.20401821e-02 5.10707438e-01 7.44682252e-01 5.70634380e-03
      4.67012167e-01 7.43154824e-01 1.25299003e-02 3.70919168e-01
      6.68022454e-01 5.83357736e-02 3.99098426e-01 5.49851358e-01
      -1.84394419e-03 3.96879017e-01 7.00725794e-01 4.71059754e-02
      3.39045733e-01 5.49168050e-01 8.82391259e-03 3.73270065e-01
      5.71373343e-01 9.74450260e-03 3.17194730e-01 5.84086597e-01
      3.47217545e-02 4.35503304e-01 5.08976340e-01 -3.42181996e-02
      3.57460737e-01 6.93011284e-01 7.78872147e-02 3.46900105e-01
      6.35131836e-01 5.46080619e-02 2.63560355e-01 5.99100709e-01
      1.15364619e-01 3.19577783e-01 6.47924006e-01 7.56659135e-02
      3.49889934e-01 5.94587207e-01 2.69674510e-02 4.53273475e-01
      4.78551984e-01 -3.66045311e-02 3.19897830e-01 3.82291257e-01
      1.80139653e-02 3.06466192e-01 4.17172372e-01 5.65257594e-02
      3.23106587e-01 4.44395274e-01 4.03779298e-02 3.48158777e-01
      4.50402737e-01 2.70428453e-02 3.79221290e-01 4.51207727e-01
      1.74580421e-02 4.08505470e-01 4.47137117e-01 1.30718667e-02
      4.42982823e-01 5.55574656e-01 -3.77382785e-02 3.36225957e-01
      4.09025341e-01 3.17787677e-02 3.22798550e-01 4.00505483e-01
      3.22204828e-02 6.63930416e-01 4.06466305e-01 3.68373841e-02
      6.21496022e-01 4.28930581e-01 1.68333519e-02 6.42869473e-01
      4.26802844e-01 2.27914620e-02 6.73080266e-01 4.13875550e-01
      4.10044715e-02 6.65180147e-01 3.84701133e-01 2.03047879e-02
      6.90975308e-01 4.26023692e-01 5.32416105e-02 6.72173977e-01
      4.01762635e-01 4.42468897e-02 7.12655067e-01 4.12075728e-01
      7.60281831e-02 6.28915966e-01 5.16197503e-01 -6.11020066e-03
      5.45996606e-01 6.05584204e-01 -4.29813787e-02 5.43027401e-01
      6.25340223e-01 -2.98441071e-02 5.82955301e-01 6.06089890e-01
      -2.67619919e-02 6.06603086e-01 6.08053565e-01 -1.89040042e-03
      5.70152998e-01 6.21982098e-01 -1.68146472e-02 5.91423094e-01
      6.19149327e-01 4.84831166e-03 6.30000532e-01 6.45872593e-01
      4.58708704e-02 6.94626570e-01 3.62374246e-01 2.40699649e-02
      5.76177835e-01 4.66400206e-01 -1.11570600e-02 5.87896943e-01
      5.21670520e-01 -5.14355078e-02 6.97770774e-01 5.06982863e-01
      2.54773051e-02 5.48246503e-01 3.68477613e-01 -3.84749174e-02
      6.49631739e-01 6.15740120e-01 4.62531447e-02 6.34641707e-01
      6.13980889e-01 4.78857383e-02 6.22300148e-01 6.16279066e-01
      4.24962193e-02 5.90044498e-01 5.41099191e-01 -4.50327322e-02
      7.06741810e-01 3.50294828e-01 4.32075784e-02 7.19241679e-01
      3.32758218e-01 9.01326314e-02 5.45105517e-01 6.17777586e-01
      -3.80648822e-02 5.76110423e-01 6.15747571e-01 -2.18484979e-02
      5.99056900e-01 6.13715589e-01 -1.23530626e-04 6.29095554e-01
      6.14775240e-01 4.49174196e-02 6.14628971e-01 6.33114278e-01
      3.30253541e-02 6.17492259e-01 6.17490470e-01 4.20759246e-02
      5.86271346e-01 6.17042542e-01 7.92536605e-03 5.65264821e-01
      6.21050894e-01 -8.15699622e-03 5.39863825e-01 6.25539482e-01
      -2.02925745e-02 5.47290504e-01 7.15202868e-01 5.29757142e-03
      5.45531631e-01 6.91426396e-01 -1.36239436e-02 5.44757485e-01
      6.77923560e-01 -1.60309318e-02 5.43458879e-01 6.66512549e-01
      -1.00860018e-02 5.40891409e-01 6.58916473e-01 -6.43299334e-03
      5.87824345e-01 6.42039597e-01 1.90690774e-02 5.91911137e-01
      6.44473970e-01 1.50818639e-02 5.97245336e-01 6.50025904e-01
      1.23140821e-02 6.01541519e-01 6.56991422e-01 1.77049693e-02
      6.21742725e-01 5.88042736e-01 1.67295616e-03 6.01597071e-01
      6.32906616e-01 3.51456217e-02 6.08497977e-01 6.31941497e-01
      3.23921815e-02 5.43654680e-01 5.66541493e-01 -4.99644652e-02
      5.84279716e-01 5.52168071e-01 -2.74839569e-02 6.01743877e-01
      4.75531548e-01 -2.60354392e-03 6.40808582e-01 4.86064643e-01
      4.12187073e-03 5.93444407e-01 5.28919637e-01 -3.75834256e-02
      6.08926356e-01 6.72941685e-01 3.40727940e-02 5.54046094e-01
      3.38568985e-01 -5.01904562e-02 6.62122726e-01 4.21773911e-01
      3.24328691e-02 7.14826763e-01 4.39328015e-01 6.75432160e-02
      6.88474357e-01 3.89353484e-01 4.08342034e-02 5.58685482e-01
      4.54534233e-01 -2.08390672e-02 7.38808632e-01 4.53059375e-01
      9.51099694e-02 7.01712906e-01 4.53385115e-01 4.76331636e-02
      6.74614906e-01 4.62162971e-01 2.66195778e-02 6.32014573e-01
      4.62803870e-01 1.49793755e-02 5.99402547e-01 4.57473904e-01
      9.28136799e-03 5.75169683e-01 4.49800551e-01 1.97473448e-03
      7.43994951e-01 4.97042567e-01 9.16527733e-02 7.04597592e-01
      3.85744750e-01 5.16328067e-02 5.77620506e-01 4.87908751e-01
      -2.10355986e-02 5.97179055e-01 5.27385771e-01 -1.33610517e-02
      6.79474831e-01 4.02555227e-01 4.88191098e-02 6.92411423e-01
