<?xml version="1.0"?>
<opencv_storage>
<opencv_ml_svm>
  <format>3</format>
  <svmType>EPS_SVR</svmType>
  <kernel>
    <type>RBF</type>
    <gamma>1.</gamma></kernel>
  <C>10.</C>
  <p>1.0000000000000001e-01</p>
  <term_criteria><epsilon>1.0000000000000001e-05</epsilon>
    <iterations>3000</iterations></term_criteria>
  <var_count>765</var_count>
  <sv_total>146</sv_total>
  <support_vectors>
    <_>
      5.10274291e-01 6.19485736e-01 -4.42623831e-02 5.07791996e-01
      5.77252388e-01 -5.66635840e-02 3.57164979e-01 4.10993129e-01
      1.44880190e-02 5.06055474e-01 3.72977406e-01 -6.34645820e-02
      5.05994856e-01 3.44132781e-01 -7.14790449e-02 5.10794461e-01
      6.28750622e-01 -4.02428657e-02 5.10988593e-01 6.33299351e-01
      -3.31398845e-02 5.10821760e-01 6.32809043e-01 -2.33268682e-02
      5.10842860e-01 6.41225219e-01 -1.93228349e-02 5.10967314e-01
      6.47372365e-01 -2.26534959e-02 5.11675715e-01 6.55997634e-01
      -2.83631664e-02 5.12017727e-01 6.67667210e-01 -2.73862965e-02
      5.12168825e-01 6.96210861e-01 -1.03579350e-02 4.00386661e-01
      4.27754372e-01 -1.55651569e-03 3.79353404e-01 4.28425163e-01
      2.50884518e-03 3.49564731e-01 4.19732749e-01 1.81273371e-02
      3.55404139e-01 3.95288497e-01 -2.80610472e-03 3.31952840e-01
      4.34933156e-01 2.88521796e-02 3.48412067e-01 4.07902062e-01
      1.99970566e-02 3.06740761e-01 4.25121933e-01 4.66119871e-02
      3.98539126e-01 5.23123801e-01 -1.61954276e-02 4.80376840e-01
      6.16229534e-01 -4.35906984e-02 4.84332621e-01 6.32651687e-01
      -3.03907301e-02 4.49957132e-01 6.18180037e-01 -3.09355147e-02
      4.30718571e-01 6.22005463e-01 -1.21185035e-02 4.61697072e-01
      6.31058931e-01 -2.07470246e-02 4.43845272e-01 6.30698442e-01
      -4.61302325e-03 4.07651752e-01 6.51795506e-01 2.48155892e-02
      3.21935922e-01 3.78209025e-01 -5.34402207e-03 4.43207711e-01
      4.65310931e-01 -2.39932239e-02 4.35154527e-01 5.27229428e-01
      -5.61865047e-02 3.34397554e-01 5.18693566e-01 8.66296142e-03
      4.65792149e-01 3.71598512e-01 -5.76636381e-02 3.86826962e-01
      6.31501555e-01 2.79567316e-02 4.07067627e-01 6.28513098e-01
      2.93113068e-02 4.17399794e-01 6.28818035e-01 2.38956660e-02
      4.33076531e-01 5.48266888e-01 -4.94655594e-02 3.08102131e-01
      3.67760420e-01 1.17601454e-02 2.92312711e-01 3.49830449e-01
      5.30998036e-02 4.82309163e-01 6.27084911e-01 -3.91426533e-02
      4.56902653e-01 6.27058744e-01 -2.60968283e-02 4.37932700e-01
      6.26849949e-01 -9.67383757e-03 4.12184805e-01 6.28233492e-01
      2.61367559e-02 4.25783515e-01 6.34527802e-01 1.31499544e-02
      4.20756996e-01 6.29064679e-01 2.31325924e-02 4.47526425e-01
      6.28194511e-01 -4.63791192e-04 4.65246439e-01 6.29783332e-01
      -1.16665289e-02 4.86602366e-01 6.32277668e-01 -2.04539523e-02
      4.83347565e-01 6.95640087e-01 -9.32945497e-03 4.85543460e-01
      6.66303217e-01 -2.55855806e-02 4.86170262e-01 6.54057741e-01
      -2.64494549e-02 4.86056298e-01 6.46069050e-01 -2.01170966e-02
      4.87104267e-01 6.40727222e-01 -1.65630057e-02 4.47178870e-01
      6.35444760e-01 1.76639110e-03 4.44899797e-01 6.36770189e-01
      -1.87633932e-03 4.41982359e-01 6.41039670e-01 -4.56819125e-03
      4.38555568e-01 6.48103416e-01 -5.51667064e-04 4.10923928e-01
      6.02113664e-01 -1.08313560e-02 4.34832603e-01 6.33356214e-01
      1.46660358e-02 4.30535614e-01 6.32846832e-01 1.27556697e-02
      4.76996273e-01 5.74573159e-01 -5.24882935e-02 4.39049870e-01
      5.60639501e-01 -3.21816579e-02 4.21561301e-01 4.77581590e-01
      -1.52910110e-02 3.86578262e-01 4.92326319e-01 -1.02096014e-02
      4.30422753e-01 5.35192609e-01 -4.28376012e-02 4.28155661e-01
      6.69512153e-01 1.29927434e-02 4.57876474e-01 3.41764897e-01
      -7.03653321e-02 3.60589653e-01 4.25996721e-01 1.04226619e-02
      3.08525205e-01 4.51576442e-01 4.17167395e-02 3.31255317e-01
      4.00905788e-01 1.36781298e-02 4.58060443e-01 4.51590449e-01
      -3.31872851e-02 2.84614801e-01 4.69052464e-01 6.68967962e-02
      3.24214786e-01 4.64427501e-01 2.54026428e-02 3.52250010e-01
      4.70715463e-01 8.11875612e-03 3.92779410e-01 4.66867357e-01
      -1.45901740e-03 4.22282606e-01 4.57542062e-01 -5.63332997e-03
      4.43402529e-01 4.47295994e-01 -1.31026655e-02 2.84757107e-01
      5.15051663e-01 6.63340017e-02 3.13480765e-01 3.99201453e-01
      2.16054246e-02 4.43244785e-01 4.89773154e-01 -3.00735496e-02
      4.27385658e-01 5.34912229e-01 -1.97932664e-02 3.42207283e-01
      4.10880893e-01 2.37038098e-02 3.29476327e-01 6.95532858e-01
      9.62586477e-02 2.78099895e-01 3.86281013e-01 9.24097821e-02
      4.24214244e-01 5.04921317e-01 -2.08700337e-02 2.88090974e-01
      4.30257350e-01 6.80447444e-02 3.80345762e-01 4.14671302e-01
      4.09698486e-03 4.20973450e-01 6.38147175e-01 1.70295648e-02
      2.84857035e-01 5.62465966e-01 7.86903575e-02 5.04718840e-01
      2.74681449e-01 -6.64220452e-02 2.97325224e-01 3.94746512e-01
      4.23369110e-02 3.60996813e-01 4.01202947e-01 3.33670527e-03
      3.66810799e-01 4.13020164e-01 9.50365514e-03 5.08393288e-01
      5.90316772e-01 -4.78795655e-02 4.30951178e-01 5.91308236e-01
      -2.68412642e-02 4.76298481e-01 5.89863896e-01 -4.70335744e-02
      4.72577393e-01 4.61388439e-01 -6.32827431e-02 4.65380788e-01
      6.38383448e-01 -8.60781595e-03 4.63204890e-01 6.42041922e-01
      -1.23978779e-02 4.61957932e-01 6.48563147e-01 -1.59427114e-02
      4.59980369e-01 6.59532249e-01 -1.36208795e-02 4.52938467e-01
      6.85030282e-01 -1.03585422e-04 4.27557021e-01 6.29504025e-01
      9.94036347e-03 4.21349913e-01 6.27696633e-01 9.83879715e-03
      4.15279597e-01 6.24596715e-01 9.01881605e-03 3.93360108e-01
      6.15004838e-01 8.68316367e-03 3.12888741e-01 5.71107686e-01
      3.63610387e-02 4.32422251e-01 6.27133548e-01 1.28719322e-02
      3.08580697e-01 6.28729105e-01 7.52073452e-02 4.42122340e-01
      7.14167953e-01 9.62786376e-03 4.57348794e-01 4.97975260e-01
      -5.92877604e-02 5.12373626e-01 7.26180315e-01 -7.65506737e-03
      4.77245539e-01 7.25858510e-01 -4.02035937e-03 3.88236046e-01
      6.68045521e-01 3.50993946e-02 4.11161512e-01 5.52207351e-01
      -1.34098940e-02 4.14117277e-01 6.94354892e-01 2.35588476e-02
      3.62146318e-01 5.49573064e-01 -6.55983947e-03 3.91064852e-01
      5.74343503e-01 -5.89868799e-03 3.41233760e-01 5.86230338e-01
      1.63607523e-02 4.43400770e-01 5.08650303e-01 -4.18754332e-02
      3.69569361e-01 6.93130314e-01 5.39361238e-02 3.67057115e-01
      6.40070081e-01 3.44853848e-02 2.88967609e-01 6.02916002e-01
      9.06794965e-02 3.38752806e-01 6.49731934e-01 5.24155572e-02
      3.71739835e-01 6.00458741e-01 8.68359953e-03 4.58236605e-01
      4.75434929e-01 -4.51610126e-02 3.40932488e-01 3.87437046e-01
      -7.28910416e-03 3.27273786e-01 4.17740911e-01 3.13477516e-02
      3.44953656e-01 4.42670107e-01 2.02966705e-02 3.67813826e-01
      4.47290510e-01 8.39491934e-03 3.96379530e-01 4.45956260e-01
      1.01742521e-03 4.22342986e-01 4.40265596e-01 -9.77750868e-04
      4.46235687e-01 5.59186578e-01 -4.54246476e-02 3.54103804e-01
      4.05193597e-01 1.03716925e-02 3.44215423e-01 4.01611894e-01
      1.00473240e-02 6.53084278e-01 4.01603460e-01 2.28905715e-02
      6.12879336e-01 4.20843005e-01 2.70954520e-03 6.34129882e-01
      4.20050532e-01 8.62808526e-03 6.62808716e-01 4.09432918e-01
      2.69832723e-02 6.57401145e-01 3.85664165e-01 5.83371520e-03
      6.81220770e-01 4.22715276e-01 3.94666269e-02 6.61662340e-01
      3.97818685e-01 2.92244032e-02 7.06925094e-01 4.10638630e-01
      5.97638339e-02 6.17851496e-01 5.15347004e-01 -8.04156065e-03
      5.41112602e-01 6.13902211e-01 -4.12051976e-02 5.39000988e-01
      6.30391181e-01 -2.81938165e-02 5.72567105e-01 6.13554597e-01
      -2.59574130e-02 5.92593551e-01 6.15610123e-01 -6.10899925e-03
      5.62496483e-01 6.27041698e-01 -1.76475085e-02 5.79997838e-01
      6.24869704e-01 2.44803727e-04 6.14287794e-01 6.44731522e-01
      3.20690945e-02 6.93469942e-01 3.65637571e-01 6.29835576e-03
      5.70560813e-01 4.60740656e-01 -2.04920433e-02 5.81784189e-01
      5.22027552e-01 -4.95013595e-02 6.83362544e-01 5.06543398e-01
      2.05479302e-02 5.46350002e-01 3.68934929e-01 -5.54800853e-02
      6.34126484e-01 6.22644901e-01 3.65270078e-02 6.13070667e-01
      6.20145977e-01 3.54829207e-02 6.04782224e-01 6.20556056e-01
      3.01788226e-02 5.83970368e-01 5.42914391e-01 -4.17142920e-02
      7.06868470e-01 3.53555441e-01 2.43925154e-02 7.21804678e-01
      3.33021104e-01 6.66375980e-02 5.40768325e-01 6.24932885e-01
      -3.69190499e-02 5.66699803e-01 6.22823298e-01 -2.24200580e-02
      5.85955560e-01 6.20832443e-01 -4.63638827e-03 6.08800292e-01
      6.20015740e-01 3.26975957e-02 5.96647084e-01 6.27576888e-01
      1.93894245e-02 6.02614462e-01 6.21151209e-01 2.91756317e-02
      5.76834381e-01 6.22231245e-01 3.99978086e-03 5.58521330e-01
      6.25743866e-01 -8.78860801e-03 5.36624908e-01 6.30107641e-01
      -1.91074815e-02 5.41428506e-01 6.94044411e-01 -7.00205937e-03
      5.39062738e-01 6.64591253e-01 -2.41390206e-02 5.37949324e-01
      6.52562022e-01 -2.53969971e-02 5.36626875e-01 6.44433200e-01
      -1.91161763e-02 5.35237968e-01 6.39156640e-01 -1.56474151e-02
      5.76320291e-01 6.30267382e-01 6.21125475e-03 5.78976333e-01
      6.31520271e-01 3.09834629e-03 5.82260549e-01 6.35617495e-01
      9.46763903e-04 5.85048378e-01 6.42827094e-01 4.88812849e-03
      6.09019578e-01 5.94528556e-01 -2.05624104e-03 5.88365555e-01
      6.27012253e-01 1.93663128e-02 5.92257023e-01 6.26028895e-01
      1.82708502e-02 5.38729250e-01 5.72388411e-01 -4.88954298e-02
      5.75813532e-01 5.55482745e-01 -2.38639135e-02 5.92660606e-01
      4.71339822e-01 -1.08441729e-02 6.28944993e-01 4.83705878e-01
      -2.67072581e-03 5.85824847e-01 5.29515743e-01 -3.55218463e-02
      5.95062256e-01 6.64304256e-01 1.88679211e-02 5.53780973e-01
      3.38247001e-01 -6.64509535e-02 6.52422011e-01 4.16421413e-01
      1.80551372e-02 7.05801785e-01 4.37341839e-01 5.48345447e-02
      6.82216406e-01 3.89068395e-01 2.42693387e-02 5.55221081e-01
      4.48138893e-01 -3.10594477e-02 7.30772853e-01 4.53096092e-01
      8.13397840e-02 6.90153003e-01 4.51425135e-01 3.68741378e-02
      6.62456572e-01 4.59622324e-01 1.71645395e-02 6.21050239e-01
      4.58783537e-01 4.28466499e-03 5.90568006e-01 4.51597959e-01
      -2.03942508e-03 5.69263279e-01 4.42952663e-01 -1.03865564e-02
      7.31711745e-01 4.99489605e-01 8.13214108e-02 7.01890588e-01
      3.85418653e-01 3.37343812e-02 5.70742369e-01 4.85150844e-01
      -2.61218734e-02 5.86135089e-01 5.28997064e-01 -1.19003877e-02
      6.68782294e-01 4.00140613e-01 3.30586508e-02 6.92815840e-01
      6.86587453e-01 1.10779680e-01 7.34541535e-01 3.68030429e-01
      1.07005693e-01 5.90653002e-01 4.98874098e-01 -1.48248039e-02
      7.26129174e-01 4.14286166e-01 8.23767856e-02 6.30437434e-01
      4.06796873e-01 1.01821944e-02 6.00967407e-01 6.31157935e-01
      2.32873298e-02 7.33078301e-01 5.47724903e-01 9.49442908e-02
      7.17896581e-01 3.79164994e-01 5.55788726e-02 6.50656939e-01
      3.92165571e-01 1.18588842e-02 6.43541992e-01 4.04386133e-01
      1.68906711e-02 5.87401032e-01 5.85302949e-01 -1.93475746e-02
      5.41658759e-01 5.87449789e-01 -4.38782647e-02 5.41623056e-01
      4.58952159e-01 -6.13053367e-02 5.57418525e-01 6.34900928e-01
      -5.94516471e-03 5.60054541e-01 6.38477802e-01 -9.50584933e-03
      5.61984003e-01 6.44954860e-01 -1.30028613e-02 5.63719392e-01
      6.55877471e-01 -1.05569772e-02 5.71369290e-01 6.81537151e-01
      3.60200927e-03 5.96429706e-01 6.22051775e-01 1.58102475e-02
      6.01665735e-01 6.20242059e-01 1.57649331e-02 6.07522488e-01
      6.16709471e-01 1.55393444e-02 6.27350867e-01 6.06065750e-01
      1.77408978e-02 7.07232535e-01 5.58009505e-01 5.13767302e-02
      5.91987252e-01 6.19919181e-01 1.80770643e-02 7.12370753e-01
      6.16335392e-01 9.14444402e-02 5.82284093e-01 7.10917473e-01
      1.51113570e-02 5.58226645e-01 4.94330734e-01 -5.53908050e-02
      5.47671974e-01 7.24541962e-01 -1.13128498e-03 6.33407831e-01
      6.61142290e-01 4.45404276e-02 6.04641974e-01 5.45090616e-01
      -4.69755940e-03 6.09182179e-01 6.89395607e-01 3.15155461e-02
      6.56754494e-01 5.39541602e-01 5.45494258e-03 6.27618790e-01
      5.66208363e-01 4.23363224e-03 6.79230750e-01 5.74989676e-01
      3.01161036e-02 5.72156847e-01 5.03846526e-01 -3.66597660e-02
      6.51948035e-01 6.86132371e-01 6.50896803e-02 6.53974235e-01
      6.30846381e-01 4.46326062e-02 7.30954826e-01 5.89139938e-01
      1.07921474e-01 6.83004141e-01 6.39687061e-01 6.61672279e-02
      6.49180055e-01 5.90599775e-01 1.96731612e-02 5.55596411e-01
      4.71918583e-01 -4.24448624e-02 6.72758937e-01 3.76395047e-01
      3.35705653e-03 6.85556889e-01 4.05437529e-01 4.25091162e-02
      6.68186545e-01 4.31547821e-01 2.96315178e-02 6.45956695e-01
      4.37778711e-01 1.60507336e-02 6.17132008e-01 4.38398838e-01
      6.27603009e-03 5.90070486e-01 4.34502035e-01 2.21022218e-03
      5.69909096e-01 5.54779291e-01 -3.76712307e-02 6.57017112e-01
      3.95632356e-01 1.92711614e-02 6.68109715e-01 3.90933186e-01
      1.97672695e-02</_>
    <_>
      5.09792745e-01 6.26878440e-01 -5.58692589e-02 5.06425798e-01
      5.74712574e-01 -5.88129498e-02 3.50238502e-01 4.08059239e-01
      1.72729716e-02 5.03373921e-01 3.71109039e-01 -5.87442107e-02
      5.03046095e-01 3.41755450e-01 -6.62502795e-02 5.10185719e-01
      6.37849987e-01 -5.21300398e-02 5.10177612e-01 6.44554734e-01
      -4.40828279e-02 5.09959996e-01 6.45897686e-01 -3.40523794e-02
      5.09513617e-01 6.50106609e-01 -3.27952877e-02 5.09816289e-01
      6.58393383e-01 -3.57332155e-02 5.10654330e-01 6.69585884e-01
      -3.95511910e-02 5.10777175e-01 6.81861103e-01 -3.55913863e-02
      5.09570181e-01 7.04568326e-01 -1.28080174e-02 3.93860161e-01
      4.30826932e-01 7.10174441e-04 3.72881472e-01 4.30249989e-01
      5.29446453e-03 3.43860924e-01 4.17687953e-01 2.11888626e-02
      3.50930184e-01 3.89407784e-01 7.80776143e-04 3.26029152e-01
      4.34060514e-01 3.19830403e-02 3.42047334e-01 4.02866155e-01
      2.32210979e-02 3.00353289e-01 4.20071274e-01 5.15921935e-02
      4.01345789e-01 5.29175401e-01 -1.69953033e-02 4.84025180e-01
      6.24003112e-01 -5.35353348e-02 4.88479793e-01 6.44501805e-01
      -4.11000475e-02 4.57775354e-01 6.30620480e-01 -4.08680439e-02
      4.40410137e-01 6.39347196e-01 -2.39182487e-02 4.69556093e-01
      6.45708621e-01 -3.20189223e-02 4.53344464e-01 6.47481620e-01
      -1.73142850e-02 4.12877023e-01 6.72011733e-01 1.01053268e-02
      3.16791892e-01 3.70914400e-01 1.63035840e-03 4.42833662e-01
      4.68508065e-01 -2.31275186e-02 4.41618085e-01 5.31572819e-01
      -5.58322445e-02 3.36583883e-01 5.27179122e-01 8.49523395e-03
      4.61813569e-01 3.69109005e-01 -5.26510030e-02 3.94468844e-01
      6.51935995e-01 1.42644122e-02 4.18282688e-01 6.50822341e-01
      1.38807371e-02 4.29006636e-01 6.49161279e-01 7.60155171e-03
      4.42084193e-01 5.53795338e-01 -4.92937863e-02 3.01820993e-01
      3.59680802e-01 1.96948871e-02 2.83568621e-01 3.40689242e-01
      6.20733574e-02 4.86127555e-01 6.36970341e-01 -4.96630259e-02
      4.64520156e-01 6.40657842e-01 -3.71809378e-02 4.47217882e-01
      6.44169688e-01 -2.24865079e-02 4.23814058e-01 6.50261104e-01
      1.02391690e-02 4.35119867e-01 6.53595686e-01 -4.35479730e-03
      4.31690276e-01 6.48006976e-01 6.56420738e-03 4.57391381e-01
      6.45280719e-01 -1.35105550e-02 4.73103166e-01 6.44957840e-01
      -2.31254697e-02 4.90826786e-01 6.45717680e-01 -3.09824571e-02
      4.82522726e-01 7.05448389e-01 -1.32889897e-02 4.86184835e-01
      6.81215644e-01 -3.49408612e-02 4.87216175e-01 6.67980969e-01
      -3.80055830e-02 4.87552881e-01 6.57289922e-01 -3.34994569e-02
      4.88766849e-01 6.50096476e-01 -3.00822183e-02 4.54152882e-01
      6.49534583e-01 -1.35336146e-02 4.51950610e-01 6.52213454e-01
      -1.75649449e-02 4.48621571e-01 6.57998025e-01 -2.03956664e-02
      4.44288254e-01 6.65619552e-01 -1.59219876e-02 4.19725358e-01
      6.13987684e-01 -2.06400007e-02 4.43065643e-01 6.49471402e-01
      -1.47682428e-03 4.39627349e-01 6.50588393e-01 -4.26092744e-03
      4.81329799e-01 5.74597716e-01 -5.41948304e-02 4.47903514e-01
      5.66403627e-01 -3.31723467e-02 4.21414196e-01 4.82062280e-01
      -1.50024071e-02 3.86668622e-01 4.98909205e-01 -9.67381150e-03
      4.37596381e-01 5.40692985e-01 -4.29612175e-02 4.31307316e-01
      6.85441971e-01 5.08531928e-04 4.54326749e-01 3.39781970e-01
      -6.51676804e-02 3.54627192e-01 4.26160663e-01 1.33544430e-02
      3.02676320e-01 4.51723188e-01 4.47837785e-02 3.25671703e-01
      3.94711882e-01 1.82783976e-02 4.56999898e-01 4.53543931e-01
      -3.22688669e-02 2.78504252e-01 4.67457235e-01 7.02891871e-02
      3.19153577e-01 4.68521982e-01 2.71422490e-02 3.48557293e-01
      4.77242202e-01 8.58271122e-03 3.89573216e-01 4.72196341e-01
      -7.02038407e-04 4.19280887e-01 4.61335778e-01 -5.15427440e-03
      4.41056550e-01 4.50190902e-01 -1.22745857e-02 2.81961858e-01
      5.17048299e-01 6.81900010e-02 3.07499737e-01 3.92734885e-01
      2.78593674e-02 4.45144117e-01 4.92503405e-01 -2.96727940e-02
      4.34037626e-01 5.40388823e-01 -2.08605677e-02 3.36234152e-01
      4.05832887e-01 2.76012942e-02 3.28184664e-01 6.95919275e-01
      8.91221687e-02 2.68504858e-01 3.76326203e-01 1.01121016e-01
      4.27283049e-01 5.09605825e-01 -2.11368278e-02 2.80775338e-01
      4.23933357e-01 7.40110204e-02 3.72919559e-01 4.15200442e-01
      6.31254166e-03 4.29760218e-01 6.58346117e-01 9.55760479e-05
      2.85588026e-01 5.64110577e-01 7.80231282e-02 5.01378298e-01
      2.73109138e-01 -6.05205223e-02 2.90326715e-01 3.87248367e-01
      4.94369492e-02 3.55465055e-01 3.95386249e-01 6.51218742e-03
      3.59445155e-01 4.11791444e-01 1.22751668e-02 5.06974101e-01
      5.90659261e-01 -5.25266342e-02 4.39508021e-01 6.00218117e-01
      -3.27593610e-02 4.79427218e-01 5.93375802e-01 -5.16992882e-02
      4.71821129e-01 4.62533653e-01 -6.17990196e-02 4.69846845e-01
      6.49618089e-01 -2.26882398e-02 4.67651367e-01 6.54863834e-01
      -2.68972069e-02 4.65726256e-01 6.63327932e-01 -2.96493173e-02
      4.63001847e-01 6.74831450e-01 -2.60756835e-02 4.54585612e-01
      6.97192192e-01 -8.74567777e-03 4.39060450e-01 6.48841441e-01
      -4.18826193e-03 4.32677805e-01 6.47826374e-01 -4.36387211e-03
      4.26578701e-01 6.45241678e-01 -4.75936383e-03 4.02894318e-01
      6.31747961e-01 -3.42222303e-03 3.17961127e-01 5.77844203e-01
      3.41712907e-02 4.43506956e-01 6.45478368e-01 -1.66585296e-03
      3.12257349e-01 6.32729173e-01 7.05231205e-02 4.40371454e-01
      7.22173631e-01 2.81585753e-03 4.59263980e-01 4.99897301e-01
      -5.83079122e-02 5.09618819e-01 7.32395053e-01 -1.21751353e-02
      4.74165440e-01 7.32652724e-01 -9.28983837e-03 3.89623940e-01
      6.82956338e-01 2.15999261e-02 4.17057753e-01 5.59702694e-01
      -1.54643133e-02 4.13572490e-01 7.05916107e-01 1.29735023e-02
      3.67264867e-01 5.57730675e-01 -8.58975202e-03 3.96671057e-01
      5.84004760e-01 -1.09134838e-02 3.47964227e-01 5.95612884e-01
      1.14084333e-02 4.47269797e-01 5.11956453e-01 -4.15202379e-02
      3.68930638e-01 7.00195014e-01 4.27090153e-02 3.70968044e-01
      6.55695438e-01 2.28106603e-02 2.90719599e-01 6.03987157e-01
      8.83381143e-02 3.42185438e-01 6.58731818e-01 4.34440896e-02
      3.79137814e-01 6.15205169e-01 9.58055258e-04 4.58748817e-01
      4.77024555e-01 -4.44252416e-02 3.36401701e-01 3.80945086e-01
      -2.71054357e-03 3.21092963e-01 4.13056225e-01 3.57629582e-02
      3.39002877e-01 4.43991095e-01 2.24559531e-02 3.61976624e-01
      4.50714916e-01 9.97486711e-03 3.90937030e-01 4.49875802e-01
      2.26792693e-03 4.17437017e-01 4.43658650e-01 -1.40137970e-04
      4.55228209e-01 5.63708067e-01 -4.53771055e-02 3.48223805e-01
      3.99682343e-01 1.37178823e-02 3.38948131e-01 3.95756871e-01
      1.34496167e-02 6.56108081e-01 3.96954417e-01 2.35548392e-02
      6.17048681e-01 4.22428310e-01 2.78272480e-03 6.38330638e-01
      4.20540065e-01 9.20458883e-03 6.66014433e-01 4.06065136e-01
      2.73301974e-02 6.58544004e-01 3.77271235e-01 6.41975552e-03
      6.85112894e-01 4.20666128e-01 4.08450589e-02 6.63805842e-01
      3.91008973e-01 3.00353989e-02 7.10665286e-01 4.04523522e-01
      6.26703426e-02 6.13414586e-01 5.22065103e-01 -1.02752224e-02
      5.35728335e-01 6.21910393e-01 -5.25128953e-02 5.32824039e-01
      6.42940044e-01 -4.03122231e-02 5.62898636e-01 6.26773953e-01
      -3.84707972e-02 5.80729246e-01 6.33946836e-01 -2.15501860e-02
      5.52944899e-01 6.42899990e-01 -3.15999612e-02 5.68290532e-01
      6.43225610e-01 -1.60075054e-02 6.06741846e-01 6.66512072e-01
      1.58338025e-02 6.96040630e-01 3.55400175e-01 1.07425004e-02
      5.68569422e-01 4.63935614e-01 -2.13614255e-02 5.74857831e-01
      5.27046800e-01 -5.16247377e-02 6.81526899e-01 5.15734553e-01
      1.84012279e-02 5.44942200e-01 3.65064353e-01 -5.09370826e-02
      6.23484492e-01 6.44657314e-01 1.95611045e-02 5.98635793e-01
      6.44086719e-01 1.50764287e-02 5.91220438e-01 6.42751873e-01
      9.63813812e-03 5.74831665e-01 5.49404681e-01 -4.38610241e-02
      7.10168421e-01 3.42351049e-01 3.00418064e-02 7.26500213e-01
      3.20874304e-01 7.34462366e-02 5.34915328e-01 6.35197639e-01
      -4.89179417e-02 5.57038486e-01 6.37291312e-01 -3.63101289e-02
      5.74112177e-01 6.39355481e-01 -2.07496211e-02 5.94411016e-01
      6.43646777e-01 1.21453628e-02 5.85797429e-01 6.48105383e-01
      -8.27617943e-04 5.90096653e-01 6.42088175e-01 8.76647979e-03
      5.65460265e-01 6.41051710e-01 -1.25826076e-02 5.49064457e-01
      6.42354429e-01 -2.30647996e-02 5.30363202e-01 6.44394755e-01
      -3.15334275e-02 5.37614405e-01 7.04437435e-01 -1.02152750e-02
      5.36092401e-01 6.80082262e-01 -3.34756821e-02 5.34790874e-01
      6.66843355e-01 -3.71335819e-02 5.32496691e-01 6.56204760e-01
      -3.32451686e-02 5.30665457e-01 6.49098337e-01 -2.99572498e-02
      5.67165494e-01 6.45667255e-01 -1.10314563e-02 5.70089638e-01
      6.48154080e-01 -1.41288564e-02 5.74329376e-01 6.53951168e-01
      -1.61520690e-02 5.77494740e-01 6.61623538e-01 -1.15508512e-02
      5.98067284e-01 6.07784927e-01 -1.45931467e-02 5.77967227e-01
      6.44719541e-01 3.82289290e-05 5.81354082e-01 6.45447373e-01
      -1.60155445e-03 5.32502115e-01 5.72991371e-01 -5.18172644e-02
      5.65541148e-01 5.62422574e-01 -2.65676677e-02 5.91152728e-01
      4.76132751e-01 -1.23082474e-02 6.27605081e-01 4.90546912e-01
      -3.54662538e-03 5.78026593e-01 5.35989881e-01 -3.80417183e-02
      5.89011848e-01 6.82000756e-01 5.29650599e-03 5.52330136e-01
      3.34507167e-01 -6.16905801e-02 6.56328857e-01 4.15351599e-01
      1.87598243e-02 7.10087597e-01 4.36532289e-01 5.61446473e-02
      6.85000777e-01 3.80833924e-01 2.60233507e-02 5.53462923e-01
      4.50223058e-01 -3.16436514e-02 7.35645473e-01 4.51121271e-01
      8.22997168e-02 6.94527149e-01 4.54832852e-01 3.67157236e-02
      6.65456653e-01 4.65797633e-01 1.61503330e-02 6.22435153e-01
      4.63750273e-01 3.33847851e-03 5.91021061e-01 4.55070972e-01
      -3.07690352e-03 5.68674028e-01 4.45478469e-01 -1.09292790e-02
      7.33577490e-01 5.02129734e-01 7.99651667e-02 7.05594420e-01
      3.77145588e-01 3.73913869e-02 5.66543877e-01 4.88364875e-01
      -2.80089155e-02 5.77725232e-01 5.35322368e-01 -1.49327293e-02
      6.71164632e-01 3.93385261e-01 3.39769349e-02 6.88889384e-01
      6.90031648e-01 1.03006862e-01 7.39746034e-01 3.56392354e-01
      1.12784885e-01 5.86053669e-01 5.04148006e-01 -1.71684548e-02
      7.30751634e-01 4.06865567e-01 8.59345123e-02 6.34472728e-01
      4.05615568e-01 1.03499070e-02 5.90230942e-01 6.52757406e-01
      3.31673771e-03 7.31025577e-01 5.51038742e-01 9.17333588e-02
      7.22479165e-01 3.69708717e-01 6.02798685e-02 6.51993215e-01
      3.84500057e-01 1.28421634e-02 6.47128880e-01 4.01359349e-01
      1.74593851e-02 5.77377796e-01 5.95483899e-01 -2.75274962e-02
      5.36197543e-01 5.91286123e-01 -4.96496409e-02 5.39649367e-01
      4.60134894e-01 -6.08457997e-02 5.50148368e-01 6.47157073e-01
      -2.17101648e-02 5.53478479e-01 6.52208686e-01 -2.51779184e-02
      5.56430459e-01 6.60757363e-01 -2.77666524e-02 5.58595896e-01
      6.72478497e-01 -2.38366202e-02 5.66286445e-01 6.95175886e-01
      -5.35843521e-03 5.82730174e-01 6.43150926e-01 -2.50466913e-03
      5.87840497e-01 6.41880453e-01 -3.03835422e-03 5.93742907e-01
      6.38643563e-01 -2.98503786e-03 6.15171731e-01 6.24570310e-01
      1.80313736e-03 7.01857507e-01 5.66465497e-01 4.71840724e-02
      5.79181135e-01 6.40182376e-01 -4.82819974e-04 7.05701113e-01
      6.23010457e-01 8.46950039e-02 5.79247534e-01 7.20578432e-01
      9.14451480e-03 5.54586887e-01 4.96624172e-01 -5.58621995e-02
      5.45441031e-01 7.32077241e-01 -5.38619608e-03 6.29082441e-01
      6.77765727e-01 3.10607031e-02 5.96945465e-01 5.53681850e-01
      -8.29581171e-03 6.06163323e-01 7.02849269e-01 2.15135589e-02
      6.50758386e-01 5.48738480e-01 2.23191082e-03 6.19634926e-01
      5.77017307e-01 -2.50660628e-03 6.71789944e-01 5.86225867e-01
      2.37521306e-02 5.66946685e-01 5.07809162e-01 -3.83221954e-02
      6.48925185e-01 6.95649207e-01 5.41637465e-02 6.47064328e-01
      6.48502052e-01 3.14854160e-02 7.26482153e-01 5.92351854e-01
      1.03235774e-01 6.77076042e-01 6.51025653e-01 5.61089590e-02
      6.39240444e-01 6.07202470e-01 1.01557672e-02 5.52594483e-01
      4.73790050e-01 -4.35049012e-02 6.74499154e-01 3.67250592e-01
      4.94388491e-03 6.88910186e-01 3.99209350e-01 4.44934890e-02
      6.72402442e-01 4.31775570e-01 3.01592425e-02 6.49875104e-01
      4.40154582e-01 1.62646696e-02 6.20346725e-01 4.41290736e-01
      5.92981279e-03 5.92131436e-01 4.37042862e-01 1.35350227e-03
      5.59991479e-01 5.60299814e-01 -3.96375582e-02 6.58600211e-01
      3.88208270e-01 2.05095187e-02 6.70130074e-01 3.82939041e-01
      2.06187889e-02</_>
    <_>
      5.11532843e-01 6.15770936e-01 -5.43379486e-02 5.08157432e-01
      5.68533778e-01 -5.85367009e-02 3.39393467e-01 4.14524198e-01
      2.26762593e-02 5.04633665e-01 3.63544852e-01 -5.14221638e-02
      5.04332960e-01 3.31746399e-01 -5.78901023e-02 5.12103915e-01
      6.26210868e-01 -5.06330132e-02 5.12514055e-01 6.33733749e-01
      -4.29573357e-02 5.12717783e-01 6.35855079e-01 -3.35586965e-02
      5.13170600e-01 6.55724883e-01 -2.84266472e-02 5.13599753e-01
      6.65133953e-01 -3.11925113e-02 5.14512539e-01 6.78480804e-01
      -3.42686474e-02 5.14803410e-01 6.92700148e-01 -2.92158425e-02
      5.13594985e-01 7.18841910e-01 -4.65326011e-03 3.83560240e-01
      4.40698206e-01 6.01388514e-03 3.61861795e-01 4.37847793e-01
      1.13449693e-02 3.31741750e-01 4.22405481e-01 2.68773288e-02
      3.39536488e-01 3.85530502e-01 4.08138335e-03 3.13782901e-01
      4.35046673e-01 3.90971601e-02 3.31456214e-01 4.07165796e-01
      2.93118656e-02 2.89576650e-01 4.16275024e-01 6.02498055e-02
      3.91514421e-01 5.28907597e-01 -1.56346560e-02 4.81735557e-01
      6.12904608e-01 -5.23702502e-02 4.85504895e-01 6.33837640e-01
      -3.98500264e-02 4.50944662e-01 6.18803620e-01 -3.86712849e-02
      4.29958940e-01 6.25148535e-01 -1.91661716e-02 4.63154972e-01
      6.34232938e-01 -2.95056254e-02 4.44516540e-01 6.34397030e-01
      -1.27025098e-02 4.05310273e-01 6.63877666e-01 1.99340284e-02
      3.06424171e-01 3.59875798e-01 9.86349583e-03 4.37897205e-01
      4.72322583e-01 -1.89232826e-02 4.39437181e-01 5.30044377e-01
      -5.58587164e-02 3.18383038e-01 5.25615871e-01 1.31157935e-02
      4.57650542e-01 3.59458774e-01 -4.65007722e-02 3.85879606e-01
      6.38371229e-01 2.06781179e-02 4.06673938e-01 6.34240270e-01
      2.02932209e-02 4.19122338e-01 6.35007858e-01 1.51812136e-02
      4.41184431e-01 5.50396860e-01 -4.85278219e-02 2.91434884e-01
      3.46983314e-01 2.85319090e-02 2.72717267e-01 3.30515951e-01
      7.30810463e-02 4.83203620e-01 6.25420749e-01 -4.78440523e-02
      4.57431793e-01 6.27847552e-01 -3.46188247e-02 4.37326521e-01
      6.30177796e-01 -1.80118680e-02 4.12633330e-01 6.34572208e-01
      1.75977647e-02 4.25527215e-01 6.45946801e-01 5.00598550e-03
      4.23132181e-01 6.35206997e-01 1.49050206e-02 4.49459612e-01
      6.32928848e-01 -1.00054443e-02 4.67433065e-01 6.33652747e-01
      -2.16504335e-02 4.88368660e-01 6.35402441e-01 -3.06717157e-02
      4.81955260e-01 7.17355788e-01 -4.52525914e-03 4.85370487e-01
      6.90046966e-01 -2.74373293e-02 4.86120254e-01 6.75477803e-01
      -3.16810906e-02 4.86548275e-01 6.62329018e-01 -2.79779136e-02
      4.88341212e-01 6.54220343e-01 -2.45781243e-02 4.48571324e-01
      6.46877766e-01 -4.72223759e-03 4.45448548e-01 6.50524676e-01
      -9.04123485e-03 4.41117555e-01 6.57659233e-01 -1.22123063e-02
      4.36486483e-01 6.65542185e-01 -6.75843656e-03 4.10929680e-01
      6.04489684e-01 -1.46639198e-02 4.36248273e-01 6.42316580e-01
      8.92303884e-03 4.31204319e-01 6.43187165e-01 4.85780835e-03
      4.82878953e-01 5.69406509e-01 -5.36884367e-02 4.46947545e-01
      5.61036527e-01 -3.23841721e-02 4.12525475e-01 4.85146970e-01
      -1.16451830e-02 3.73624951e-01 4.99360263e-01 -5.18064201e-03
      4.35396075e-01 5.38381875e-01 -4.27428186e-02 4.24948007e-01
      6.85470223e-01 1.15699023e-02 4.50797886e-01 3.29196662e-01
      -5.88548332e-02 3.42564762e-01 4.32218105e-01 1.97225511e-02
      2.90107250e-01 4.49731767e-01 5.22360504e-02 3.14456969e-01
      3.91369581e-01 2.56054401e-02 4.54334438e-01 4.57812935e-01
      -2.78663635e-02 2.66029596e-01 4.63569880e-01 7.82531202e-02
      3.05083156e-01 4.67170268e-01 3.30651402e-02 3.34242970e-01
      4.76932138e-01 1.31528676e-02 3.77740532e-01 4.74432528e-01
      4.55828011e-03 4.10733998e-01 4.66198266e-01 -6.91443682e-04
      4.35786337e-01 4.55562890e-01 -6.85754418e-03 2.66244859e-01
      5.12648284e-01 7.49500692e-02 2.96849906e-01 3.86616290e-01
      3.62890065e-02 4.40903068e-01 4.93979365e-01 -2.85246223e-02
      4.30488765e-01 5.36828220e-01 -2.12346315e-02 3.24182510e-01
      4.07510787e-01 3.40819061e-02 3.25855374e-01 6.95969105e-01
      9.82597768e-02 2.58263797e-01 3.67067367e-01 1.11986637e-01
      4.20367956e-01 5.10469854e-01 -2.05667615e-02 2.70546466e-01
      4.18374687e-01 8.33563507e-02 3.62293273e-01 4.24610943e-01
      1.07954293e-02 4.19647664e-01 6.49863422e-01 9.09779966e-03
      2.69238234e-01 5.60098529e-01 8.35963190e-02 5.02129018e-01
      2.69229770e-01 -5.36739081e-02 2.79851556e-01 3.79110396e-01
      5.85628748e-02 3.47357213e-01 4.00807858e-01 1.12919211e-02
      3.48677009e-01 4.19672430e-01 1.72833651e-02 5.08993804e-01
      5.83816707e-01 -5.15420586e-02 4.34330076e-01 5.92736006e-01
      -2.89971232e-02 4.79042321e-01 5.86647093e-01 -5.00764251e-02
      4.70863223e-01 4.65074211e-01 -5.84873855e-02 4.66558784e-01
      6.50631547e-01 -1.55659914e-02 4.63558614e-01 6.56785786e-01
      -1.95339173e-02 4.61088836e-01 6.67187393e-01 -2.23256350e-02
      4.58350897e-01 6.80161417e-01 -1.69651657e-02 4.50101495e-01
      7.04249918e-01 2.52807140e-03 4.28643554e-01 6.34273946e-01
      2.80992687e-03 4.20844615e-01 6.31949604e-01 2.58195400e-03
      4.14049864e-01 6.29167140e-01 1.67739391e-03 3.92428339e-01
      6.18464172e-01 3.69137526e-03 2.99827695e-01 5.76059818e-01
      3.93982530e-02 4.34716374e-01 6.31610692e-01 4.02262807e-03
      3.00640583e-01 6.30518913e-01 7.69143999e-02 4.37826782e-01
      7.31101215e-01 1.39594376e-02 4.56507355e-01 5.00394821e-01
      -5.68903536e-02 5.14022231e-01 7.50412822e-01 -2.51060724e-03
      4.74583596e-01 7.47475147e-01 3.71783972e-04 3.86004120e-01
      6.78052604e-01 3.23600918e-02 4.11511242e-01 5.55753469e-01
      -1.31152421e-02 4.10297245e-01 7.08109021e-01 2.46507376e-02
      3.53034288e-01 5.56903243e-01 -5.96795976e-03 3.87455106e-01
      5.79105079e-01 -6.19691610e-03 3.33801061e-01 5.93192637e-01
      1.54218823e-02 4.43407029e-01 5.12012303e-01 -4.10641879e-02
      3.67064267e-01 7.00016201e-01 5.33005297e-02 3.64631295e-01
      6.46973372e-01 3.06408703e-02 2.77037829e-01 6.00704551e-01
      9.39492285e-02 3.34588021e-01 6.55915260e-01 5.19610792e-02
      3.68611395e-01 6.06372535e-01 7.62112439e-03 4.56296265e-01
      4.79161233e-01 -4.22768146e-02 3.25320393e-01 3.74003649e-01
      4.38542664e-03 3.09690297e-01 4.12264794e-01 4.37140316e-02
      3.25809091e-01 4.45991606e-01 2.82761902e-02 3.49710047e-01
      4.53695744e-01 1.67752504e-02 3.79982412e-01 4.55688119e-01
      8.27534497e-03 4.09260511e-01 4.51445013e-01 3.80715728e-03
      4.55088615e-01 5.59083521e-01 -4.39736843e-02 3.38883102e-01
      4.04517710e-01 1.92672312e-02 3.27053338e-01 3.94949347e-01
      1.81248486e-02 6.70916975e-01 4.06060666e-01 3.14263254e-02
      6.30204856e-01 4.34032232e-01 1.10650808e-02 6.51974320e-01
      4.30011749e-01 1.79905146e-02 6.80825889e-01 4.13637012e-01
      3.58936787e-02 6.73061728e-01 3.76702338e-01 1.24936402e-02
      6.98751748e-01 4.24092531e-01 4.98956144e-02 6.77929461e-01
      3.98551464e-01 3.86158973e-02 7.21692502e-01 4.03918356e-01
      7.26285875e-02 6.26781404e-01 5.21920323e-01 -7.76451826e-03
      5.42874396e-01 6.11388087e-01 -5.08475304e-02 5.41657507e-01
      6.32552207e-01 -3.84569168e-02 5.76230705e-01 6.16036713e-01
      -3.49739790e-02 5.98654687e-01 6.21395350e-01 -1.48183703e-02
      5.65859258e-01 6.32319272e-01 -2.77765393e-02 5.84704578e-01
      6.31420076e-01 -9.98273492e-03 6.24935091e-01 6.59215629e-01
      2.60359049e-02 7.06934154e-01 3.48682910e-01 2.07491815e-02
      5.75627267e-01 4.68464851e-01 -1.60837173e-02 5.78839600e-01
      5.26117682e-01 -5.20197898e-02 7.01513648e-01 5.14416039e-01
      2.57091969e-02 5.52543938e-01 3.56481940e-01 -4.34018075e-02
      6.43424392e-01 6.32359505e-01 2.72134244e-02 6.21746302e-01
      6.29026473e-01 2.43685544e-02 6.11596704e-01 6.30246341e-01
      1.88336521e-02 5.78086078e-01 5.46415687e-01 -4.42257673e-02
      7.20080316e-01 3.34608555e-01 3.97346020e-02 7.34230638e-01
      3.16023529e-01 8.48130882e-02 5.43061793e-01 6.24038398e-01
      -4.63115871e-02 5.70459664e-01 6.25738621e-01 -3.22356075e-02
      5.91625810e-01 6.26588762e-01 -1.42701268e-02 6.16650105e-01
      6.29275262e-01 2.17893124e-02 6.05461895e-01 6.41165316e-01
      9.59257782e-03 6.08807623e-01 6.30882740e-01 1.83040649e-02
      5.81214190e-01 6.29974365e-01 -7.61127472e-03 5.61506987e-01
      6.31952524e-01 -2.04152167e-02 5.39307892e-01 6.34323418e-01
      -3.01769227e-02 5.47156990e-01 7.16113687e-01 -1.63789093e-03
      5.46058238e-01 6.89119577e-01 -2.63398737e-02 5.44652522e-01
      6.74559653e-01 -3.09873521e-02 5.41898608e-01 6.61564648e-01
      -2.76057720e-02 5.39567292e-01 6.53630257e-01 -2.45613754e-02
      5.82213581e-01 6.43660307e-01 -1.83351338e-03 5.86295426e-01
      6.46922886e-01 -5.10877371e-03 5.91788113e-01 6.53505683e-01
      -7.60041177e-03 5.95715880e-01 6.61247671e-01 -1.80846453e-03
      6.14028871e-01 5.98984420e-01 -7.94109702e-03 5.94334960e-01
      6.38879895e-01 1.10655725e-02 5.99743724e-01 6.38861120e-01
      8.84220004e-03 5.34928501e-01 5.68045795e-01 -5.16880900e-02
      5.70547581e-01 5.57390213e-01 -2.69422978e-02 6.01747155e-01
      4.79642570e-01 -6.91774487e-03 6.42676651e-01 4.91199762e-01
      2.94108689e-03 5.82820237e-01 5.34147859e-01 -3.82530093e-02
      6.05789244e-01 6.82374239e-01 1.68880671e-02 5.59596300e-01
      3.25217336e-01 -5.46025038e-02 6.70821846e-01 4.23544914e-01
      2.79687941e-02 7.23426521e-01 4.37034577e-01 6.50955886e-02
      6.97614133e-01 3.81204277e-01 3.56881171e-02 5.58625281e-01
      4.55088466e-01 -2.64423341e-02 7.48060167e-01 4.50277507e-01
      9.16400850e-02 7.10188150e-01 4.55120862e-01 4.46907580e-02
      6.81657910e-01 4.66265500e-01 2.31932253e-02 6.36407673e-01
      4.66862321e-01 1.09156370e-02 6.01984084e-01 4.60739017e-01
      3.58685851e-03 5.76359928e-01 4.51521367e-01 -4.12909687e-03
      7.49802887e-01 5.00036955e-01 8.88924897e-02 7.15929449e-01
      3.74858946e-01 4.72187698e-02 5.73363602e-01 4.90617335e-01
      -2.59197354e-02 5.84510207e-01 5.32133341e-01 -1.58180296e-02
      6.86213255e-01 3.98428202e-01 4.34287488e-02 7.01097667e-01
      6.93317175e-01 1.12376571e-01 7.47799218e-01 3.52400988e-01
      1.24071985e-01 5.95448792e-01 5.05378127e-01 -1.55114532e-02
      7.40758598e-01 4.04984832e-01 9.60008502e-02 6.49163246e-01
      4.17063802e-01 1.80555582e-02 6.10837221e-01 6.44715369e-01
      1.38919652e-02 7.49342263e-01 5.49169302e-01 9.93168056e-02
      7.31884837e-01 3.66145432e-01 7.00174272e-02 6.63179815e-01
      3.93016845e-01 1.92655623e-02 6.62033558e-01 4.11518961e-01
      2.52768099e-02 5.88044941e-01 5.88638127e-01 -2.37194002e-02
      5.41380167e-01 5.85222602e-01 -4.80853617e-02 5.43106437e-01
      4.62968409e-01 -5.70587665e-02 5.62776268e-01 6.48807526e-01
      -1.44633353e-02 5.66853583e-01 6.54530764e-01 -1.75922066e-02
      5.70699751e-01 6.64695740e-01 -2.00568438e-02 5.73163509e-01
      6.77702546e-01 -1.46124214e-02 5.80310464e-01 7.02447474e-01
      5.93295693e-03 6.01892531e-01 6.30156875e-01 6.24942780e-03
      6.08542979e-01 6.27498984e-01 6.13033772e-03 6.15151227e-01
      6.24120235e-01 6.13448024e-03 6.34603322e-01 6.12375617e-01
      1.03358924e-02 7.23105967e-01 5.65644562e-01 5.42816520e-02
      5.97004950e-01 6.28125131e-01 6.79734349e-03 7.24176764e-01
      6.22556806e-01 9.23017859e-02 5.92825115e-01 7.29795098e-01
      2.03593075e-02 5.59222877e-01 4.97450650e-01 -5.39616644e-02
      5.55063903e-01 7.46831000e-01 4.50694561e-03 6.43444419e-01
      6.73926771e-01 4.09375280e-02 6.06580377e-01 5.50009310e-01
      -6.37570024e-03 6.20571077e-01 7.05683947e-01 3.26788276e-02
      6.69535339e-01 5.47729790e-01 6.16843998e-03 6.34674966e-01
      5.72322607e-01 2.63993442e-03 6.91707432e-01 5.83973408e-01
      2.87723839e-02 5.72665036e-01 5.08353293e-01 -3.72905582e-02
      6.61486924e-01 6.96977198e-01 6.41094595e-02 6.63814843e-01
      6.41197145e-01 3.88746113e-02 7.44446158e-01 5.91329932e-01
      1.10205323e-01 6.93622410e-01 6.49965942e-01 6.47340417e-02
      6.57696486e-01 5.98859131e-01 1.72728449e-02 5.57592690e-01
      4.76699442e-01 -4.05009985e-02 6.87416553e-01 3.64039570e-01
      1.46811008e-02 7.01501429e-01 4.01492715e-01 5.45696020e-02
      6.87451482e-01 4.35640007e-01 3.85192633e-02 6.64125621e-01
      4.44446623e-01 2.49721110e-02 6.33535802e-01 4.48366106e-01
      1.44012570e-02 6.03599966e-01 4.45913881e-01 7.54891336e-03
      5.63211143e-01 5.55970550e-01 -3.93655896e-02 6.71341121e-01
      3.96128476e-01 2.80701816e-02 6.85150027e-01 3.85473698e-01
      2.80797482e-02</_>
    <_>
      5.09887934e-01 6.36544585e-01 -5.24974689e-02 5.06384850e-01
      5.78001142e-01 -5.63172475e-02 3.48073721e-01 4.12732393e-01
      1.85371339e-02 5.03217518e-01 3.68175954e-01 -5.81238940e-02
      5.02992034e-01 3.38318855e-01 -6.60702735e-02 5.10294259e-01
      6.48072481e-01 -4.84085679e-02 5.10361969e-01 6.55325294e-01
      -3.98453623e-02 5.10258615e-01 6.57086492e-01 -2.93341875e-02
      5.10516822e-01 6.59438729e-01 -2.79230103e-02 5.10916471e-01
      6.68601036e-01 -3.05997208e-02 5.11890650e-01 6.80555940e-01
      -3.42124701e-02 5.12389779e-01 6.93508506e-01 -2.98233926e-02
      5.11756063e-01 7.16347814e-01 -5.53762913e-03 3.92458588e-01
      4.35362607e-01 1.51345134e-03 3.71438622e-01 4.34918433e-01
      6.57626987e-03 3.42390865e-01 4.22427893e-01 2.30288804e-02
      3.48258376e-01 3.92043918e-01 1.51363760e-03 3.26403975e-01
      4.38828379e-01 3.47706676e-02 3.39916468e-01 4.07266498e-01
      2.49145478e-02 3.01987082e-01 4.24111724e-01 5.50872684e-02
      4.01452392e-01 5.33004403e-01 -1.42461434e-02 4.84245688e-01
      6.33281350e-01 -5.04055545e-02 4.89117473e-01 6.55232906e-01
      -3.69112343e-02 4.58491385e-01 6.39132738e-01 -3.73946279e-02
      4.41600502e-01 6.47399187e-01 -2.03996450e-02 4.70443517e-01
      6.55739188e-01 -2.79747099e-02 4.54534024e-01 6.56656265e-01
      -1.34093761e-02 4.14306849e-01 6.79093122e-01 1.48426220e-02
      3.14615846e-01 3.70513707e-01 3.45738977e-03 4.42307234e-01
      4.71635729e-01 -2.15957835e-02 4.40738022e-01 5.33895850e-01
      -5.44875786e-02 3.38142127e-01 5.31860948e-01 1.29208863e-02
      4.59619254e-01 3.65522414e-01 -5.25472201e-02 3.96017879e-01
      6.58183575e-01 1.87008381e-02 4.19820458e-01 6.57945871e-01
      1.78133026e-02 4.30635661e-01 6.56375408e-01 1.13898218e-02
      4.41767782e-01 5.56603670e-01 -4.74861413e-02 3.00965518e-01
      3.59902412e-01 2.18417346e-02 2.86126643e-01 3.44927967e-01
      6.52428865e-02 4.86627012e-01 6.46925330e-01 -4.61628400e-02
      4.65321004e-01 6.49861097e-01 -3.34598497e-02 4.48305637e-01
      6.52784228e-01 -1.88493803e-02 4.25486058e-01 6.57588124e-01
      1.40935481e-02 4.36473787e-01 6.61007643e-01 -3.83250415e-04
      4.33312833e-01 6.55120373e-01 1.04884654e-02 4.58831996e-01
      6.54601574e-01 -9.37193632e-03 4.74266529e-01 6.55368447e-01
      -1.86579451e-02 4.91586387e-01 6.56669497e-01 -2.62905359e-02
      4.84412193e-01 7.16209173e-01 -6.46384060e-03 4.87190843e-01
      6.92112088e-01 -2.95193195e-02 4.87990201e-01 6.78537965e-01
      -3.28907818e-02 4.88396347e-01 6.67059302e-01 -2.87118629e-02
      4.89718348e-01 6.59203410e-01 -2.55296454e-02 4.55393553e-01
      6.57388806e-01 -9.42640752e-03 4.53086019e-01 6.60234451e-01
      -1.35314688e-02 4.49725449e-01 6.66190028e-01 -1.63958594e-02
      4.45375025e-01 6.73812628e-01 -1.17127746e-02 4.20971483e-01
      6.19748592e-01 -1.74110532e-02 4.44543660e-01 6.56832695e-01
      2.39919871e-03 4.41090614e-01 6.58073187e-01 -3.74190509e-04
      4.81202066e-01 5.77934504e-01 -5.18082604e-02 4.48116839e-01
      5.69981873e-01 -3.06864232e-02 4.20782238e-01 4.85906243e-01
      -1.26802400e-02 3.86467129e-01 5.03325343e-01 -6.32849336e-03
      4.37096477e-01 5.43633282e-01 -4.12790477e-02 4.33079422e-01
      6.93585396e-01 5.67705184e-03 4.52328175e-01 3.35966557e-01
      -6.56424537e-02 3.53110611e-01 4.30936724e-01 1.50553361e-02
      3.04719269e-01 4.56564605e-01 4.83612716e-02 3.24230909e-01
      3.97335708e-01 2.02734768e-02 4.56536233e-01 4.56000894e-01
      -3.08196992e-02 2.82374591e-01 4.72127944e-01 7.50298053e-02
      3.20224136e-01 4.73500401e-01 3.05020958e-02 3.48704904e-01
      4.82238650e-01 1.11311153e-02 3.88974011e-01 4.76809174e-01
      1.65970623e-03 4.18525547e-01 4.65401649e-01 -3.43789160e-03
      4.40423638e-01 4.53486979e-01 -1.06052533e-02 2.86419243e-01
      5.21403790e-01 7.37775862e-02 3.07368815e-01 3.94768476e-01
      3.03563774e-02 4.44850564e-01 4.95303035e-01 -2.81988978e-02
      4.33855623e-01 5.43836594e-01 -1.87187046e-02 3.34498137e-01
      4.09988195e-01 2.96354294e-02 3.34501743e-01 6.99976563e-01
      9.83939767e-02 2.73052335e-01 3.81882191e-01 1.05482638e-01
      4.27109152e-01 5.13109565e-01 -1.91745162e-02 2.84172565e-01
      4.28282082e-01 7.80828744e-02 3.70675236e-01 4.19892490e-01
      6.98564947e-03 4.31043506e-01 6.65623903e-01 4.04832512e-03
      2.91335672e-01 5.67722201e-01 8.49009454e-02 5.01333296e-01
      2.76255786e-01 -6.08032458e-02 2.91832060e-01 3.89841944e-01
      5.27254045e-02 3.53438407e-01 3.99984390e-01 7.14915991e-03
      3.57089788e-01 4.16497648e-01 1.33268833e-02 5.07088602e-01
      5.96098244e-01 -4.98304479e-02 4.40099269e-01 6.05573654e-01
      -2.97855884e-02 4.79431152e-01 5.98888814e-01 -4.90266047e-02
      4.71285224e-01 4.63774532e-01 -6.12919182e-02 4.70904529e-01
      6.58161640e-01 -1.82626396e-02 4.68565077e-01 6.63771391e-01
      -2.25452259e-02 4.66682434e-01 6.72623515e-01 -2.53761634e-02
      4.64006692e-01 6.84562325e-01 -2.15300322e-02 4.56371427e-01
      7.06704497e-01 -2.88948417e-03 4.40469295e-01 6.56910181e-01
      -3.45751643e-04 4.34034348e-01 6.55574441e-01 -7.57649541e-04
      4.27806020e-01 6.52669072e-01 -1.18643045e-03 4.04510200e-01
      6.37829900e-01 2.02901661e-04 3.22070986e-01 5.81823826e-01
      4.02158499e-02 4.45136189e-01 6.53684735e-01 2.16474384e-03
      3.18079263e-01 6.36268735e-01 7.83623159e-02 4.42866713e-01
      7.31291652e-01 1.00675896e-02 4.58656043e-01 5.01710534e-01
      -5.74756749e-02 5.12380064e-01 7.44556665e-01 -3.37535143e-03
      4.76771444e-01 7.43362308e-01 -9.51126218e-04 3.91539574e-01
      6.89450145e-01 2.72402465e-02 4.17097747e-01 5.63636661e-01
      -1.27338842e-02 4.15608585e-01 7.13502407e-01 1.95278078e-02
      3.68588179e-01 5.61893225e-01 -4.70265746e-03 3.97503972e-01
      5.88350892e-01 -7.70720840e-03 3.50624979e-01 5.99949241e-01
      1.62920058e-02 4.46664214e-01 5.14477193e-01 -4.02675942e-02
      3.71712953e-01 7.06433058e-01 5.00563085e-02 3.72971058e-01
      6.61157012e-01 2.81068832e-02 2.97440082e-01 6.07094169e-01
      9.61323678e-02 3.46075892e-01 6.63469434e-01 5.01218438e-02
      3.80864084e-01 6.20205402e-01 5.03542274e-03 4.58344817e-01
      4.79030162e-01 -4.34187800e-02 3.33637297e-01 3.82002980e-01
      -1.10259652e-03 3.20901632e-01 4.17025179e-01 3.83855402e-02
      3.38679969e-01 4.48916793e-01 2.48470753e-02 3.61394137e-01
      4.55487609e-01 1.20537877e-02 3.89944136e-01 4.54346240e-01
      3.95733118e-03 4.16488886e-01 4.47608709e-01 9.10595059e-04
      4.55229402e-01 5.66687226e-01 -4.32186127e-02 3.46124887e-01
      4.04129297e-01 1.48090571e-02 3.36711884e-01 3.98917794e-01
      1.49016306e-02 6.60229445e-01 4.02979136e-01 2.73097605e-02
      6.20652854e-01 4.27659154e-01 5.63286990e-03 6.41726017e-01
      4.26128298e-01 1.25788748e-02 6.69074357e-01 4.12040591e-01
      3.14395726e-02 6.62412465e-01 3.81533056e-01 9.75876302e-03
      6.85923815e-01 4.26708788e-01 4.50963974e-02 6.67500436e-01
      3.96986037e-01 3.40270251e-02 7.09437013e-01 4.09958184e-01
      6.71942383e-02 6.14603937e-01 5.26188195e-01 -6.14573061e-03
      5.35797417e-01 6.31140232e-01 -4.89005782e-02 5.32555223e-01
      6.53558969e-01 -3.60520929e-02 5.62626302e-01 6.35323405e-01
      -3.45441401e-02 5.80107927e-01 6.42056704e-01 -1.74365193e-02
      5.52402377e-01 6.52725339e-01 -2.72063017e-02 5.67474306e-01
      6.52354956e-01 -1.15356147e-02 6.07741892e-01 6.73705220e-01
      2.18597502e-02 6.97758317e-01 3.57272059e-01 1.48431137e-02
      5.70397973e-01 4.67273444e-01 -1.85605958e-02 5.76311827e-01
      5.29644966e-01 -4.92643937e-02 6.81206763e-01 5.20980477e-01
      2.38880217e-02 5.47359228e-01 3.62197340e-01 -4.97113504e-02
      6.23458087e-01 6.51210308e-01 2.53246725e-02 5.98158717e-01
      6.51260972e-01 2.01422870e-02 5.90517342e-01 6.50077820e-01
      1.43091828e-02 5.75642347e-01 5.52533925e-01 -4.11976054e-02
      7.10350454e-01 3.44983786e-01 3.39897871e-02 7.23610103e-01
      3.27643514e-01 7.70141333e-02 5.34815311e-01 6.45130992e-01
      -4.51210253e-02 5.56565583e-01 6.46544456e-01 -3.22241336e-02
      5.73402226e-01 6.47872806e-01 -1.64754465e-02 5.93684971e-01
      6.50946498e-01 1.70199126e-02 5.85836709e-01 6.55472159e-01
      3.97305191e-03 5.89340389e-01 6.49239302e-01 1.34392679e-02
      5.64250588e-01 6.50304914e-01 -7.92257488e-03 5.48194110e-01
      6.52655482e-01 -1.83446854e-02 5.29910803e-01 6.55248761e-01
      -2.67264247e-02 5.40152550e-01 7.15036273e-01 -2.88715959e-03
      5.38229287e-01 6.90848351e-01 -2.75797099e-02 5.36405563e-01
      6.77294850e-01 -3.17153484e-02 5.33705115e-01 6.65782452e-01
      -2.80619413e-02 5.31677544e-01 6.58086658e-01 -2.49196216e-02
      5.67421257e-01 6.53366685e-01 -6.26848638e-03 5.70617139e-01
      6.55937552e-01 -9.25675035e-03 5.75180054e-01 6.62070274e-01
      -1.12360269e-02 5.78799427e-01 6.69804335e-01 -6.55132532e-03
      5.97955585e-01 6.13805175e-01 -1.06019974e-02 5.77783167e-01
      6.51888847e-01 4.80112433e-03 5.81209838e-01 6.52871847e-01
      3.08916718e-03 5.32959044e-01 5.76416016e-01 -4.89614084e-02
      5.65927505e-01 5.66458464e-01 -2.33874321e-02 5.93181968e-01
      4.80207562e-01 -8.69558752e-03 6.29075646e-01 4.95291591e-01
      1.23254955e-03 5.79079032e-01 5.39219856e-01 -3.52876931e-02
      5.90739727e-01 6.90152764e-01 1.16415322e-02 5.54633439e-01
      3.31538230e-01 -6.11697286e-02 6.59608126e-01 4.21271682e-01
      2.26012915e-02 7.08853483e-01 4.42566514e-01 6.07028753e-02
      6.87020600e-01 3.85023803e-01 3.01434100e-02 5.55088818e-01
      4.52827483e-01 -2.93921456e-02 7.32246757e-01 4.57161158e-01
      8.72571766e-02 6.94575310e-01 4.60792184e-01 4.13202494e-02
      6.66738451e-01 4.71390694e-01 2.03221291e-02 6.24773264e-01
      4.68717188e-01 7.30210543e-03 5.93609214e-01 4.59367067e-01
      1.79573894e-04 5.70913613e-01 4.49113816e-01 -8.08385015e-03
      7.30090678e-01 5.07634819e-01 8.56381357e-02 7.05739915e-01
      3.80987227e-01 4.15437371e-02 5.67975760e-01 4.91405606e-01
      -2.53622681e-02 5.78656614e-01 5.39132118e-01 -1.17901340e-02
      6.74272060e-01 3.99033725e-01 3.83184701e-02 6.86963260e-01
      6.95104361e-01 1.12131804e-01 7.34971344e-01 3.64111453e-01
      1.16929501e-01 5.87475479e-01 5.07976055e-01 -1.39034241e-02
      7.27573276e-01 4.12769824e-01 9.03493762e-02 6.38730347e-01
      4.11305398e-01 1.35153383e-02 5.90637565e-01 6.60031557e-01
      8.24970752e-03 7.26646602e-01 5.55597901e-01 9.81311500e-02
      7.20706165e-01 3.74341846e-01 6.44513369e-02 6.56070054e-01
      3.90599936e-01 1.59517974e-02 6.51445985e-01 4.07200366e-01
      2.08998770e-02 5.77629507e-01 6.01193786e-01 -2.37641782e-02
      5.36693633e-01 5.96893311e-01 -4.63935398e-02 5.41002810e-01
      4.61481214e-01 -5.96223846e-02 5.50914407e-01 6.55473948e-01
      -1.67282671e-02 5.54372489e-01 6.60850883e-01 -2.00295076e-02
      5.57975948e-01 6.69940114e-01 -2.25981325e-02 5.60616612e-01
      6.82185173e-01 -1.83786750e-02 5.68747044e-01 7.04454184e-01
      1.47030503e-03 5.81648529e-01 6.51296139e-01 1.86301768e-03
      5.86965084e-01 6.49640441e-01 1.39226019e-03 5.92926681e-01
      6.46251321e-01 1.48926675e-03 6.14565194e-01 6.30955458e-01
      6.46173954e-03 6.99380159e-01 5.71113706e-01 5.35543412e-02
      5.77783585e-01 6.48422718e-01 3.99547815e-03 7.02177942e-01
      6.27377152e-01 9.22143310e-02 5.82351208e-01 7.29710937e-01
      1.73014924e-02 5.56194961e-01 4.98468280e-01 -5.40915877e-02
      5.48620522e-01 7.42762685e-01 3.53242457e-03 6.30610704e-01
      6.84588194e-01 3.83505970e-02 5.97798705e-01 5.58075845e-01
      -4.40543890e-03 6.08875155e-01 7.10731626e-01 2.93074399e-02
      6.50925577e-01 5.53267777e-01 7.32452422e-03 6.20050848e-01
      5.81671178e-01 1.92146748e-03 6.70964837e-01 5.90963602e-01
      2.95193344e-02 5.68471551e-01 5.10566235e-01 -3.59523892e-02
      6.50626957e-01 7.02425241e-01 6.29778802e-02 6.47471189e-01
      6.54384255e-01 3.82076204e-02 7.21521974e-01 5.96537471e-01
      1.10444874e-01 6.76345229e-01 6.56537294e-01 6.37079924e-02
      6.38968885e-01 6.12621188e-01 1.52157992e-02 5.54070473e-01
      4.75991428e-01 -4.16164398e-02 6.77600145e-01 3.70034963e-01
      8.87325406e-03 6.89946771e-01 4.04621422e-01 4.89220470e-02
      6.74225807e-01 4.37688142e-01 3.42194587e-02 6.52166188e-01
      4.45613921e-01 2.00761706e-02 6.23248398e-01 4.46346194e-01
      9.40164924e-03 5.95120370e-01 4.41431373e-01 4.00917232e-03
      5.60538411e-01 5.63666701e-01 -3.68493870e-02 6.62623584e-01
      3.94119769e-01 2.40722150e-02 6.73548996e-01 3.87651414e-01
      2.43952423e-02</_>
    <_>
      5.16287565e-01 6.34778917e-01 -4.83699143e-02 5.16447067e-01
      5.74768543e-01 -5.33280075e-02 3.32663745e-01 4.12813604e-01
      3.51392925e-02 5.05964100e-01 3.64369512e-01 -5.05654365e-02
      5.04845202e-01 3.32363009e-01 -5.89446127e-02 5.16366720e-01
      6.47028089e-01 -4.39843833e-02 5.15957296e-01 6.55638099e-01
      -3.50494683e-02 5.15208602e-01 6.58310473e-01 -2.38277018e-02
      5.17292798e-01 6.70607865e-01 -2.03597993e-02 5.17604411e-01
      6.81972384e-01 -2.33582705e-02 5.17071903e-01 6.96003199e-01
      -2.65588164e-02 5.16944706e-01 7.10631371e-01 -2.07979679e-02
      5.17251432e-01 7.30977297e-01 5.53710759e-03 3.76953453e-01
      4.39151764e-01 1.33440867e-02 3.53772432e-01 4.37434822e-01
      2.02014744e-02 3.22730690e-01 4.21468496e-01 3.98987085e-02
      3.27616513e-01 3.82540166e-01 1.71440989e-02 3.05499017e-01
      4.37209278e-01 5.51243126e-02 3.24624896e-01 4.05228615e-01
      4.27835099e-02 2.80622303e-01 4.18919414e-01 7.80632049e-02
      3.88043791e-01 5.35181761e-01 1.46329403e-05 4.84744787e-01
      6.31869256e-01 -4.54510748e-02 4.86849546e-01 6.56433463e-01
      -3.12013775e-02 4.51158792e-01 6.39142454e-01 -2.93989480e-02
      4.28566843e-01 6.46964431e-01 -8.40973109e-03 4.62123603e-01
      6.57735705e-01 -2.10313648e-02 4.43196267e-01 6.58015013e-01
      -2.15843320e-03 4.00217146e-01 6.83629692e-01 3.77066769e-02
      2.89843142e-01 3.55938673e-01 2.30799317e-02 4.36014384e-01
      4.75183189e-01 -1.15935877e-02 4.34479654e-01 5.34522653e-01
      -4.76996452e-02 3.11975032e-01 5.33466458e-01 3.33210528e-02
      4.55428779e-01 3.57290268e-01 -4.21221256e-02 3.80887985e-01
      6.58244252e-01 3.93671021e-02 4.05015111e-01 6.57670200e-01
      3.57098915e-02 4.14531142e-01 6.56981647e-01 2.99073234e-02
      4.37360853e-01 5.56760311e-01 -3.93005908e-02 2.75711119e-01
      3.44148815e-01 4.24272977e-02 2.61262506e-01 3.30391943e-01
      8.81737918e-02 4.85240817e-01 6.46555841e-01 -4.08757925e-02
      4.57438409e-01 6.50364339e-01 -2.62323618e-02 4.36038882e-01
      6.52817369e-01 -7.01719522e-03 4.10074323e-01 6.57359481e-01
      3.29848155e-02 4.21282560e-01 6.66141927e-01 1.96191221e-02
      4.16745901e-01 6.56088471e-01 2.90845186e-02 4.46567684e-01
      6.55888498e-01 1.56104565e-03 4.66291904e-01 6.57648087e-01
      -1.16580129e-02 4.88701105e-01 6.58525467e-01 -2.13442296e-02
      4.82674599e-01 7.31219947e-01 9.23699141e-03 4.83336031e-01
      7.09307432e-01 -1.82839558e-02 4.85167265e-01 6.94402635e-01
      -2.37277597e-02 4.87705529e-01 6.80070639e-01 -2.06993073e-02
      4.89619851e-01 6.70811713e-01 -1.76021606e-02 4.44806457e-01
      6.65136456e-01 6.01147860e-03 4.40827221e-01 6.68813646e-01
      3.19626182e-03 4.35090214e-01 6.75824761e-01 1.77033246e-03
      4.31302249e-01 6.84387147e-01 7.73748755e-03 4.09805536e-01
      6.19537592e-01 -1.44495070e-03 4.32202727e-01 6.61911488e-01
      1.95104107e-02 4.27081764e-01 6.63228810e-01 1.81136206e-02
      4.87207353e-01 5.76359987e-01 -4.61901426e-02 4.47963059e-01
      5.70167303e-01 -1.95089653e-02 4.10334319e-01 4.88749117e-01
      -1.17085874e-03 3.70312512e-01 5.05007863e-01 9.49967653e-03
      4.31344867e-01 5.44664204e-01 -3.26319486e-02 4.21268463e-01
      7.03129530e-01 2.71466225e-02 4.46887285e-01 3.25152338e-01
      -5.44428080e-02 3.33698928e-01 4.31789458e-01 3.07601467e-02
      2.81028420e-01 4.54447597e-01 7.14149028e-02 3.02653164e-01
      3.89559537e-01 3.94978747e-02 4.53103393e-01 4.59984958e-01
      -2.24683806e-02 2.56263942e-01 4.70103532e-01 9.93471891e-02
      2.96247721e-01 4.72538531e-01 5.04455194e-02 3.27397108e-01
      4.82253343e-01 2.89026871e-02 3.74562800e-01 4.78614539e-01
      1.58897191e-02 4.08855528e-01 4.68566239e-01 8.57534260e-03
      4.34266269e-01 4.57386643e-01 1.61536038e-04 2.58853972e-01
      5.21751881e-01 9.77071673e-02 2.83285558e-01 3.85617167e-01
      5.05328812e-02 4.39571857e-01 4.97871339e-01 -2.04643756e-02
      4.30421054e-01 5.44829011e-01 -7.62877613e-03 3.16154659e-01
      4.06231940e-01 4.77881506e-02 3.22797686e-01 7.09813893e-01
      1.28432781e-01 2.50976026e-01 3.71276855e-01 1.29866481e-01
      4.17891413e-01 5.15445530e-01 -8.52398574e-03 2.60891318e-01
      4.22679871e-01 1.02301583e-01 3.56404632e-01 4.22607690e-01
      2.10051611e-02 4.15733218e-01 6.70469761e-01 2.43553147e-02
      2.63979495e-01 5.70597291e-01 1.11102730e-01 5.04483759e-01
      2.69985825e-01 -5.40216267e-02 2.66698480e-01 3.79381478e-01
      7.42205530e-02 3.37630063e-01 3.97690028e-01 2.32718438e-02
      3.42502445e-01 4.17960912e-01 2.86107212e-02 5.16553819e-01
      5.94411850e-01 -4.57291007e-02 4.34120595e-01 6.05653226e-01
      -1.76436156e-02 4.82525051e-01 5.98221064e-01 -4.27360982e-02
      4.70359862e-01 4.66817409e-01 -5.49777746e-02 4.65679258e-01
      6.68250620e-01 -7.59442896e-03 4.61591303e-01 6.75299644e-01
      -1.05284005e-02 4.57403600e-01 6.85971558e-01 -1.25534385e-02
      4.55058366e-01 6.99500561e-01 -6.53076172e-03 4.47712988e-01
      7.20264137e-01 1.52774379e-02 4.25199926e-01 6.56955302e-01
      1.50223598e-02 4.18436080e-01 6.55026078e-01 1.44980624e-02
      4.11748916e-01 6.51517034e-01 1.43208951e-02 3.89934391e-01
      6.36985004e-01 1.83777660e-02 2.93810517e-01 5.85828662e-01
      6.48596510e-02 4.29984301e-01 6.53828621e-01 1.67687386e-02
      2.96159625e-01 6.42895162e-01 1.06320105e-01 4.36227202e-01
      7.43387282e-01 3.15328464e-02 4.54135150e-01 5.03226936e-01
      -5.08731306e-02 5.16798973e-01 7.56665289e-01 8.59645009e-03
      4.75347996e-01 7.56757557e-01 1.60121992e-02 3.80373448e-01
      6.95018828e-01 5.34759648e-02 4.09445316e-01 5.65096140e-01
      1.46863610e-03 4.05901790e-01 7.22886562e-01 4.47041020e-02
      3.48052561e-01 5.64721406e-01 1.55160427e-02 3.84796649e-01
      5.90022683e-01 1.07563734e-02 3.27939928e-01 6.03532910e-01
      3.93755436e-02 4.40396667e-01 5.15933394e-01 -3.22278440e-02
      3.63073766e-01 7.14770615e-01 7.79283643e-02 3.58527929e-01
      6.64035141e-01 5.11207990e-02 2.72417873e-01 6.12130046e-01
      1.24667227e-01 3.28561783e-01 6.70092225e-01 7.74513185e-02
      3.63869697e-01 6.20686293e-01 2.57749557e-02 4.55368072e-01
      4.81997132e-01 -3.67955267e-02 3.11972380e-01 3.70564580e-01
      1.80395171e-02 3.00822943e-01 4.12704676e-01 5.95090836e-02
      3.17987591e-01 4.48291600e-01 4.33816202e-02 3.43370140e-01
      4.56520438e-01 2.91356519e-02 3.75366360e-01 4.56973314e-01
      1.80334598e-02 4.05883789e-01 4.51464206e-01 1.21358633e-02
      4.54829335e-01 5.66586852e-01 -3.36374044e-02 3.30208153e-01
      4.01803911e-01 3.20659727e-02 3.16124827e-01 3.91893089e-01
      3.26378420e-02 6.69785917e-01 4.11556840e-01 3.68836224e-02
      6.26471639e-01 4.37474251e-01 1.69544369e-02 6.48198783e-01
      4.34521794e-01 2.33964026e-02 6.76719487e-01 4.19332743e-01
      4.25519049e-02 6.69302702e-01 3.85428458e-01 1.92374885e-02
      6.94802284e-01 4.32824552e-01 5.53667769e-02 6.77371264e-01
      4.05236483e-01 4.46428657e-02 7.16667116e-01 4.15124774e-01
      7.90258870e-02 6.25647068e-01 5.28655946e-01 -3.75896692e-03
      5.44751167e-01 6.28759146e-01 -4.49294597e-02 5.41051567e-01
      6.53335094e-01 -3.06197405e-02 5.74033618e-01 6.31280839e-01
      -2.86029279e-02 5.93993783e-01 6.36625707e-01 -7.44871050e-03
      5.62266648e-01 6.50937438e-01 -1.87509507e-02 5.80133677e-01
      6.49449050e-01 -2.40303576e-04 6.21488929e-01 6.71341121e-01
      3.54402252e-02 6.99636519e-01 3.59956264e-01 2.48239413e-02
      5.77469885e-01 4.72741485e-01 -1.04979128e-02 5.83458304e-01
      5.29820800e-01 -4.84254807e-02 6.92942083e-01 5.23443341e-01
      2.92531848e-02 5.53433478e-01 3.61041188e-01 -4.38588113e-02
      6.38325512e-01 6.44895732e-01 3.79525535e-02 6.18799269e-01
      6.45400286e-01 3.70712951e-02 6.05900586e-01 6.46089196e-01
      3.07351425e-02 5.83430588e-01 5.51299632e-01 -4.12139297e-02
      7.12918639e-01 3.47756743e-01 4.48033586e-02 7.28040516e-01
      3.32131982e-01 9.19488370e-02 5.43446124e-01 6.43114507e-01
      -3.99720669e-02 5.67921579e-01 6.43087924e-01 -2.42272466e-02
      5.87162495e-01 6.43326283e-01 -6.07323647e-03 6.12687290e-01
      6.45936251e-01 3.33047509e-02 6.01762414e-01 6.56040132e-01
      1.87817663e-02 6.01431191e-01 6.45611227e-01 3.04293036e-02
      5.74101985e-01 6.48252964e-01 3.77251208e-03 5.57332337e-01
      6.51862979e-01 -8.84070992e-03 5.37771463e-01 6.55485332e-01
      -1.93725824e-02 5.48276663e-01 7.27411330e-01 6.34197146e-03
      5.46647131e-01 7.05541670e-01 -1.82529986e-02 5.45802414e-01
      6.90746903e-01 -2.27243975e-02 5.44521987e-01 6.76619887e-01
      -1.86547711e-02 5.41685104e-01 6.67324603e-01 -1.53901055e-02
      5.79310656e-01 6.57324433e-01 6.98800385e-03 5.82731724e-01
      6.60750866e-01 2.52552330e-03 5.87627649e-01 6.67514086e-01
      -4.14416194e-04 5.92822969e-01 6.75398588e-01 5.41316718e-03
      6.10797763e-01 6.09941781e-01 -3.19705158e-03 5.90548515e-01
      6.52869105e-01 2.21304148e-02 5.95879197e-01 6.53712273e-01
      1.85657963e-02 5.43181658e-01 5.73863268e-01 -4.73572910e-02
      5.77739596e-01 5.64771593e-01 -2.42956877e-02 6.02569580e-01
      4.84727055e-01 -8.16300511e-04 6.40268207e-01 4.98877198e-01
      7.10627437e-03 5.88029385e-01 5.39024115e-01 -3.41845900e-02
      6.02338433e-01 6.92389011e-01 2.51887441e-02 5.59628010e-01
      3.30240250e-01 -5.73075116e-02 6.66593075e-01 4.28775907e-01
      3.35762948e-02 7.18055308e-01 4.47679073e-01 7.05765262e-02
      6.92965984e-01 3.90105367e-01 4.16069403e-02 5.60538113e-01
      4.58687723e-01 -2.02839077e-02 7.41253972e-01 4.61003870e-01
      1.00425109e-01 7.04781592e-01 4.65229303e-01 5.01744151e-02
      6.77091837e-01 4.75504667e-01 2.80778781e-02 6.34933949e-01
      4.73800510e-01 1.64846033e-02 6.02634907e-01 4.65681434e-01
      1.01534426e-02 5.77947080e-01 4.55912560e-01 2.25534290e-03
      7.42910326e-01 5.09323835e-01 9.79418159e-02 7.09171057e-01
      3.85348618e-01 5.37525937e-02 5.77109814e-01 4.94659424e-01
      -1.90666020e-02 5.92068613e-01 5.39051533e-01 -1.08199120e-02
      6.84007049e-01 4.05866832e-01 5.02796471e-02 6.89885318e-01
      6.89015508e-01 1.25671417e-01 7.43459821e-01 3.68837953e-01
      1.35429054e-01 5.97526491e-01 5.10675251e-01 -9.50556993e-03
      7.34541237e-01 4.17287469e-01 1.04849532e-01 6.47702992e-01
      4.21177685e-01 2.35020816e-02 6.07818842e-01 6.59699380e-01
      2.35438496e-02 7.40340412e-01 5.55469513e-01 1.09061852e-01
      7.24561810e-01 3.78516287e-01 7.80254081e-02 6.62079573e-01
      3.98725212e-01 2.49231234e-02 6.61063075e-01 4.16315019e-01
      3.07457000e-02 5.89300215e-01 5.98082542e-01 -1.93338245e-02
      5.46470106e-01 5.94951510e-01 -4.32112068e-02 5.45570552e-01
      4.65827674e-01 -5.40655404e-02 5.62687099e-01 6.62342846e-01
      -5.06803393e-03 5.66145182e-01 6.68932915e-01 -9.18538123e-03
      5.69834709e-01 6.79675460e-01 -1.17553025e-02 5.73061466e-01
      6.92780852e-01 -6.41506910e-03 5.78792155e-01 7.12233663e-01
      1.43356249e-02 5.95547557e-01 6.47001505e-01 1.65421367e-02
      6.03522003e-01 6.44003868e-01 1.64202228e-02 6.09958231e-01
      6.39816403e-01 1.55187920e-02 6.29480064e-01 6.25138044e-01
      1.76222026e-02 7.11017728e-01 5.72040439e-01 5.89568317e-02
      5.88608682e-01 6.44581318e-01 1.94439963e-02 7.12211490e-01
      6.25383139e-01 1.01778455e-01 5.89018822e-01 7.33206093e-01
      2.76574790e-02 5.62620521e-01 5.00710011e-01 -5.12050390e-02
      5.54601610e-01 7.51489878e-01 1.27141103e-02 6.37867689e-01
      6.80827260e-01 4.96106595e-02 6.10491514e-01 5.57688534e-01
      -2.19203532e-03 6.15136564e-01 7.09751248e-01 4.03239131e-02
      6.61943853e-01 5.55380523e-01 7.97511637e-03 6.32211804e-01
      5.80953002e-01 6.10020757e-03 6.80836260e-01 5.90936303e-01
      3.18817645e-02 5.76782823e-01 5.12168765e-01 -3.28921527e-02
      6.54169142e-01 6.97713315e-01 7.38248602e-02 6.57048285e-01
      6.49353206e-01 4.88971174e-02 7.33309627e-01 5.95003486e-01
      1.21114478e-01 6.82263613e-01 6.53019786e-01 7.26350620e-02
      6.49817109e-01 6.09001815e-01 2.18687505e-02 5.60958862e-01
      4.79873359e-01 -3.50212902e-02 6.83008194e-01 3.73810410e-01
      1.89549699e-02 6.97657347e-01 4.10600960e-01 6.06510937e-02
      6.83902681e-01 4.43600327e-01 4.38543037e-02 6.61107898e-01
      4.51802671e-01 2.96057463e-02 6.31403625e-01 4.53702301e-01
      1.96329802e-02 6.02484763e-01 4.49890792e-01 1.46097839e-02
      5.70054591e-01 5.61932564e-01 -3.76759171e-02 6.70373917e-01
      4.02390808e-01 3.36115807e-02 6.81171596e-01 3.93320650e-01
      3.39444280e-02</_>
    <_>
      5.11537433e-01 6.17457747e-01 -4.06762250e-02 5.06295800e-01
      5.75444221e-01 -5.31517416e-02 3.46502721e-01 4.18179423e-01
      3.07691693e-02 5.04442215e-01 3.72535378e-01 -4.98692989e-02
      5.04512906e-01 3.43243241e-01 -5.74435219e-02 5.12964487e-01
      6.27462566e-01 -3.68148051e-02 5.14401972e-01 6.33245289e-01
      -2.95444466e-02 5.14862120e-01 6.33503735e-01 -1.90515928e-02
      5.12878597e-01 6.84885383e-01 -1.71434134e-03 5.13085246e-01
      6.94486380e-01 -5.41305542e-03 5.14142513e-01 7.05677986e-01
      -8.72644782e-03 5.13610125e-01 7.18880236e-01 -2.34095752e-03
      5.10579765e-01 7.38598526e-01 2.19855160e-02 3.93419504e-01
      4.36602354e-01 1.39951408e-02 3.71236503e-01 4.36691850e-01
      1.82957500e-02 3.39659989e-01 4.26823556e-01 3.53031382e-02
      3.43721151e-01 3.96908879e-01 1.36333704e-02 3.22512507e-01
      4.42804188e-01 4.64669466e-02 3.37343931e-01 4.14049655e-01
      3.74252275e-02 2.99106717e-01 4.32472616e-01 6.71579838e-02
      3.92419815e-01 5.27685106e-01 -8.01056623e-03 4.78366494e-01
      6.13401413e-01 -3.96050699e-02 4.84371424e-01 6.31947458e-01
      -2.61833817e-02 4.45645630e-01 6.14745021e-01 -2.40384787e-02
      4.24844503e-01 6.18935883e-01 1.55111402e-03 4.59829628e-01
      6.29935205e-01 -1.30430758e-02 4.40116644e-01 6.29964948e-01
      9.46270674e-03 3.98792922e-01 6.62815511e-01 5.34545407e-02
      3.14057231e-01 3.80981296e-01 1.42788738e-02 4.39347029e-01
      4.72179770e-01 -1.27890110e-02 4.35530722e-01 5.28876543e-01
      -5.30736670e-02 3.24863434e-01 5.23353398e-01 2.00241804e-02
      4.59868729e-01 3.71981770e-01 -4.46298718e-02 3.80854547e-01
      6.32465482e-01 5.22731766e-02 3.96297634e-01 6.32343352e-01
      5.39399385e-02 4.09381688e-01 6.34374380e-01 4.91643175e-02
      4.34800625e-01 5.49262583e-01 -4.67122197e-02 3.00385922e-01
      3.72302979e-01 3.30094546e-02 2.84214318e-01 3.60407889e-01
      7.81506598e-02 4.81081963e-01 6.24946356e-01 -3.50302383e-02
      4.53172147e-01 6.24246538e-01 -1.83992721e-02 4.32390213e-01
      6.24431670e-01 4.16339934e-03 4.02416646e-01 6.33059263e-01
      5.06789088e-02 4.15887713e-01 6.53509855e-01 4.04368415e-02
      4.14412796e-01 6.34923697e-01 4.91010249e-02 4.45261955e-01
      6.27895832e-01 1.35223269e-02 4.63976800e-01 6.29330456e-01
      -3.13272327e-03 4.87260878e-01 6.32194936e-01 -1.50569677e-02
      4.74935472e-01 7.34588146e-01 2.18684822e-02 4.78947341e-01
      7.13865995e-01 -2.66090035e-04 4.80223060e-01 7.00997353e-01
      -4.62930650e-03 4.81239200e-01 6.90007269e-01 -4.89942729e-04
      4.83784497e-01 6.81816697e-01 2.82353908e-03 4.41447079e-01
      6.63937926e-01 2.73352712e-02 4.37661052e-01 6.66327894e-01
      2.38794163e-02 4.32537913e-01 6.71152949e-01 2.19945237e-02
      4.27503884e-01 6.77704275e-01 2.73279101e-02 4.06703234e-01
      6.01534963e-01 3.21833044e-03 4.28209007e-01 6.54054403e-01
      4.30125296e-02 4.21555281e-01 6.53280914e-01 4.01507914e-02
      4.76741374e-01 5.73996603e-01 -4.87102382e-02 4.39244270e-01
      5.62077284e-01 -2.83490829e-02 4.15760219e-01 4.83727872e-01
      -4.15421650e-03 3.78487349e-01 4.97843355e-01 4.13864851e-04
      4.30673838e-01 5.37415922e-01 -3.90476920e-02 4.17381644e-01
      6.91118062e-01 4.42322940e-02 4.52493489e-01 3.43265563e-01
      -5.76552004e-02 3.51436436e-01 4.33675528e-01 2.67974585e-02
      2.99895406e-01 4.59287673e-01 5.95005602e-02 3.21595222e-01
      4.05860871e-01 3.29659432e-02 4.55081761e-01 4.58922625e-01
      -2.20790729e-02 2.76448220e-01 4.75958318e-01 8.73860121e-02
      3.14687371e-01 4.71334100e-01 4.11379263e-02 3.42815280e-01
      4.77179170e-01 2.18067914e-02 3.84559333e-01 4.73547995e-01
      1.20859891e-02 4.16055262e-01 4.65084970e-01 7.99902529e-03
      4.38997746e-01 4.55238909e-01 4.28199768e-04 2.74800003e-01
      5.19001245e-01 8.46883357e-02 3.05495679e-01 4.04795378e-01
      4.25248146e-02 4.40023124e-01 4.94571686e-01 -2.19703838e-02
      4.25331652e-01 5.37680805e-01 -1.43247619e-02 3.30889791e-01
      4.16746646e-01 4.22035009e-02 3.33728164e-01 6.95211470e-01
      1.26305774e-01 2.69155681e-01 3.97567451e-01 1.19670451e-01
      4.20032442e-01 5.09338319e-01 -1.32033825e-02 2.81316578e-01
      4.38188881e-01 9.08236206e-02 3.70986342e-01 4.23202455e-01
      1.93312615e-02 4.10228431e-01 6.55154347e-01 4.41933870e-02
      2.76887476e-01 5.63742638e-01 9.67772454e-02 5.03275633e-01
      2.81582832e-01 -5.21818399e-02 2.89792657e-01 4.01709408e-01
      6.54450655e-02 3.51400673e-01 4.05119926e-01 1.96787864e-02
      3.56368393e-01 4.20886517e-01 2.54245922e-02 5.07660210e-01
      5.89387655e-01 -4.25797217e-02 4.28659856e-01 5.91338754e-01
      -1.73243880e-02 4.74597931e-01 5.89449346e-01 -4.08605933e-02
      4.70559895e-01 4.66763854e-01 -5.59537522e-02 4.60207462e-01
      6.74195230e-01 1.35761499e-02 4.56134379e-01 6.79857135e-01
      1.03739575e-02 4.52594995e-01 6.88338637e-01 9.31406021e-03
      4.49149311e-01 6.99767768e-01 1.41884685e-02 4.41467106e-01
      7.16639638e-01 3.21993083e-02 4.22075391e-01 6.29812419e-01
      3.06357071e-02 4.13910925e-01 6.26649618e-01 3.05860192e-02
      4.07462835e-01 6.22833192e-01 2.90919542e-02 3.88522685e-01
      6.14230275e-01 2.79825032e-02 3.06993186e-01 5.73341846e-01
      5.11385128e-02 4.28353012e-01 6.27970517e-01 3.36296260e-02
      3.07717025e-01 6.29446328e-01 9.69489962e-02 4.33278739e-01
      7.35536337e-01 4.29893881e-02 4.55707908e-01 5.01032889e-01
      -5.45723997e-02 5.10721505e-01 7.60790288e-01 2.57229283e-02
      4.69847083e-01 7.55574048e-01 2.86815614e-02 3.83808285e-01
      6.74424171e-01 6.45899028e-02 4.08521593e-01 5.55715978e-01
      -4.47484851e-03 4.06608820e-01 7.07734406e-01 5.61931878e-02
      3.56343985e-01 5.53982377e-01 3.55651230e-03 3.87545586e-01
      5.77569604e-01 7.26556033e-03 3.38222295e-01 5.88526607e-01
      3.07407081e-02 4.41738725e-01 5.11698246e-01 -3.64534743e-02
      3.67899060e-01 6.97498739e-01 8.40565711e-02 3.64726305e-01
      6.40900612e-01 5.94289750e-02 2.85172760e-01 6.02596104e-01
      1.11302868e-01 3.38781059e-01 6.51405811e-01 7.65163898e-02
      3.70280981e-01 6.00912809e-01 2.64253318e-02 4.55599487e-01
      4.80784267e-01 -3.72045487e-02 3.30758810e-01 3.89813483e-01
      1.11600310e-02 3.18272442e-01 4.24480259e-01 5.09049147e-02
      3.34979624e-01 4.50224906e-01 3.66224945e-02 3.59127581e-01
      4.54991043e-01 2.40020379e-02 3.89201224e-01 4.53979969e-01
      1.63573697e-02 4.16433811e-01 4.48784590e-01 1.37481615e-02
      4.47390318e-01 5.59848011e-01 -4.24899943e-02 3.43709946e-01
      4.10117358e-01 2.72533894e-02 3.33008945e-01 4.05528188e-01
      2.72468477e-02 6.65928662e-01 4.07473207e-01 4.24663574e-02
      6.23134255e-01 4.28367674e-01 1.83298290e-02 6.45893335e-01
      4.27082956e-01 2.55696028e-02 6.77272916e-01 4.15293157e-01
      4.72454578e-02 6.73291445e-01 3.83643031e-01 2.72232518e-02
      6.95190430e-01 4.29239929e-01 6.19291812e-02 6.75199211e-01
      4.02590632e-01 5.06662950e-02 7.20733523e-01 4.16442871e-01
      8.58415961e-02 6.26518786e-01 5.20325482e-01 5.17572463e-03
      5.48754513e-01 6.12310350e-01 -3.51322554e-02 5.48991978e-01
      6.31006896e-01 -2.27881633e-02 5.86998224e-01 6.13321006e-01
      -1.49235725e-02 6.10920608e-01 6.16376579e-01 1.22044533e-02
      5.76438129e-01 6.28667653e-01 -8.24697316e-03 5.96401274e-01
      6.27250910e-01 1.67101994e-02 6.34857655e-01 6.60014689e-01
      6.73176497e-02 7.09833384e-01 3.63259226e-01 3.19091603e-02
      5.73883414e-01 4.67450470e-01 -8.78149271e-03 5.83581686e-01
      5.24584293e-01 -4.41691875e-02 6.99170649e-01 5.11781216e-01
      3.88675854e-02 5.50092459e-01 3.65908444e-01 -3.95601913e-02
      6.54177725e-01 6.27575278e-01 6.70692921e-02 6.38565004e-01
      6.27961159e-01 6.70198798e-02 6.28433764e-01 6.29940689e-01
      6.13165945e-02 5.85007250e-01 5.45420229e-01 -3.57430652e-02
      7.23488212e-01 3.52854759e-01 5.14518172e-02 7.39043057e-01
      3.38305652e-01 9.69053358e-02 5.49810827e-01 6.24182701e-01
      -3.10423113e-02 5.81221461e-01 6.22999251e-01 -1.20676272e-02
      6.03847086e-01 6.22036517e-01 1.28821284e-02 6.33771300e-01
      6.28609061e-01 6.43101633e-02 6.19850814e-01 6.50336504e-01
      5.33516854e-02 6.25017107e-01 6.30524635e-01 6.02534860e-02
      5.93046069e-01 6.24656677e-01 1.98897123e-02 5.71836591e-01
      6.27457082e-01 6.43059611e-04 5.46941042e-01 6.30989492e-01
      -1.35826990e-02 5.50028503e-01 7.34451175e-01 2.80255079e-02
      5.52355528e-01 7.13591993e-01 3.10854614e-03 5.51122308e-01
      7.00935900e-01 -2.60708481e-03 5.47928512e-01 6.90013170e-01
      5.51350415e-04 5.45050621e-01 6.81875110e-01 3.26413661e-03
      5.93237996e-01 6.62011504e-01 3.43981683e-02 5.97848713e-01
      6.64223850e-01 3.29568163e-02 6.03741944e-01 6.69118524e-01
      3.34136337e-02 6.07427120e-01 6.75774813e-01 3.90624925e-02
      6.21070862e-01 5.96793115e-01 1.72387958e-02 6.06931150e-01
      6.50918663e-01 5.05843684e-02 6.13702297e-01 6.49776995e-01
      5.09365723e-02 5.36941707e-01 5.72784126e-01 -4.34419662e-02
      5.76223791e-01 5.58474243e-01 -1.48949511e-02 5.98621428e-01
      4.77205902e-01 1.89644098e-03 6.39461577e-01 4.88820285e-01
      1.22506618e-02 5.88234603e-01 5.32737374e-01 -2.86323726e-02
      6.13794506e-01 6.89603090e-01 5.53295538e-02 5.57727337e-01
      3.35260123e-01 -5.00479639e-02 6.65985465e-01 4.22819823e-01
      3.70699242e-02 7.20657766e-01 4.44250077e-01 7.87389278e-02
      6.97287500e-01 3.91039819e-01 4.86722887e-02 5.57153583e-01
      4.55166966e-01 -2.00713724e-02 7.46392846e-01 4.60040033e-01
      1.07248768e-01 7.05492675e-01 4.57438260e-01 5.77646792e-02
      6.75781071e-01 4.65027809e-01 3.54899615e-02 6.30258083e-01
      4.64673787e-01 2.00667232e-02 5.96264839e-01 4.58516479e-01
      1.24344751e-02 5.72725534e-01 4.50503856e-01 3.32473218e-03
      7.47558415e-01 5.05076647e-01 1.05525419e-01 7.17334509e-01
      3.87861282e-01 5.93608022e-02 5.73336780e-01 4.90028620e-01
      -1.72630213e-02 5.88192463e-01 5.32638431e-01 -2.44131684e-03
      6.83424056e-01 4.04253244e-01 5.55886850e-02 6.95893824e-01
      6.96903050e-01 1.44609436e-01 7.50654817e-01 3.75978708e-01
      1.38020843e-01 5.95700502e-01 5.03367305e-01 -4.44898009e-03
      7.40864217e-01 4.20745790e-01 1.09936282e-01 6.41209543e-01
      4.13919508e-01 2.72256657e-02 6.25260890e-01 6.51884615e-01
      5.75535670e-02 7.47291088e-01 5.52867472e-01 1.19550690e-01
      7.34076500e-01 3.82820874e-01 8.34733248e-02 6.63716793e-01
      3.94184798e-01 3.21427584e-02 6.55548632e-01 4.10848469e-01
      3.50725949e-02 5.94439268e-01 5.87541521e-01 -5.85483015e-03
      5.44717193e-01 5.88238120e-01 -3.61418873e-02 5.42513847e-01
      4.64319974e-01 -5.36837950e-02 5.71173608e-01 6.73682034e-01
      1.69042423e-02 5.75949609e-01 6.79030836e-01 1.51261985e-02
      5.80343425e-01 6.87380314e-01 1.48883909e-02 5.82707465e-01
      6.98827505e-01 2.06389278e-02 5.87201715e-01 7.15874791e-01
      3.95841971e-02 6.17235780e-01 6.26046300e-01 4.03761491e-02
      6.23566389e-01 6.22992933e-01 4.10730913e-02 6.29737437e-01
      6.19077981e-01 4.11507785e-02 6.43795431e-01 6.08621895e-01
      4.26987037e-02 7.21726954e-01 5.63793659e-01 7.31263757e-02
      6.11574411e-01 6.23807311e-01 4.20111567e-02 7.22448826e-01
      6.24172866e-01 1.19034201e-01 5.94346106e-01 7.36270368e-01
      5.34278974e-02 5.60034633e-01 4.97685760e-01 -4.90209982e-02
      5.54642081e-01 7.56262958e-01 3.55764329e-02 6.47159696e-01
      6.72816396e-01 7.92727321e-02 6.09928310e-01 5.49650908e-01
      8.38188082e-03 6.23216927e-01 7.07908690e-01 6.99231625e-02
      6.68753564e-01 5.45489371e-01 2.32661217e-02 6.36941314e-01
      5.71126401e-01 2.30851918e-02 6.90861344e-01 5.80808520e-01
      5.20334914e-02 5.74387670e-01 5.07323384e-01 -2.93153711e-02
      6.60340786e-01 6.98175907e-01 1.00406572e-01 6.68192983e-01
      6.36610270e-01 7.36581981e-02 7.42361903e-01 5.94977379e-01
      1.34622082e-01 6.93847179e-01 6.48433208e-01 9.58968848e-02
      6.62323356e-01 5.94016492e-01 4.29222360e-02 5.57245970e-01
      4.77223516e-01 -3.44204605e-02 6.87910736e-01 3.74585986e-01
      2.72784606e-02 6.99506938e-01 4.10496473e-01 6.69163465e-02
      6.82046771e-01 4.37684804e-01 5.00309393e-02 6.57541454e-01
      4.44077522e-01 3.46515924e-02 6.26427650e-01 4.45317477e-01
      2.27170661e-02 5.96641660e-01 4.42161411e-01 1.72485784e-02
      5.69436014e-01 5.57173133e-01 -3.06602418e-02 6.70502007e-01
      3.98964345e-01 4.03478593e-02 6.83734596e-01 3.92204762e-01
      4.23689112e-02</_>
    <_>
      5.10693550e-01 6.23014867e-01 -6.09274730e-02 5.08507788e-01
      5.70733786e-01 -5.70889786e-02 3.30547690e-01 4.12935436e-01
      2.53182575e-02 5.03636658e-01 3.63961339e-01 -4.98757474e-02
      5.02739251e-01 3.31817389e-01 -5.74271195e-02 5.11104167e-01
      6.33917809e-01 -5.79658002e-02 5.11474431e-01 6.42728209e-01
      -4.90005389e-02 5.11794269e-01 6.46893620e-01 -3.80803570e-02
      5.12449682e-01 6.60728216e-01 -3.09499353e-02 5.12883425e-01
      6.70918465e-01 -3.31410840e-02 5.13527215e-01 6.83929801e-01
      -3.46607789e-02 5.13818979e-01 6.96065843e-01 -2.70207450e-02
      5.13482332e-01 7.12823331e-01 1.61104649e-03 3.76229763e-01
      4.41347539e-01 5.47698140e-03 3.53422821e-01 4.38433528e-01
      1.14239380e-02 3.23228896e-01 4.21491981e-01 2.91389003e-02
      3.29424620e-01 3.82998645e-01 6.85769320e-03 3.03269506e-01
      4.36335087e-01 4.16333005e-02 3.22499633e-01 4.04964924e-01
      3.24526355e-02 2.76188493e-01 4.16224480e-01 6.39819130e-02
      3.93503666e-01 5.34944117e-01 -1.34053528e-02 4.86982822e-01
      6.21090412e-01 -5.73153421e-02 4.92592275e-01 6.43784702e-01
      -4.57236841e-02 4.63306963e-01 6.31251812e-01 -4.39262092e-02
      4.47961748e-01 6.42970920e-01 -2.81533077e-02 4.76352155e-01
      6.47751510e-01 -3.71708795e-02 4.62720633e-01 6.51789069e-01
      -2.28806585e-02 4.19989586e-01 6.80286705e-01 8.79234076e-03
      2.92057812e-01 3.58801067e-01 1.35322586e-02 4.36479151e-01
      4.75703537e-01 -1.83967873e-02 4.44061160e-01 5.35348475e-01
      -5.28766550e-02 3.18953961e-01 5.34907222e-01 1.40528604e-02
      4.52993989e-01 3.60124946e-01 -4.44769412e-02 4.02878404e-01
      6.59594893e-01 1.18078664e-02 4.31501389e-01 6.59410357e-01
      8.37869942e-03 4.43247259e-01 6.57807410e-01 1.38840824e-03
      4.48210537e-01 5.56896806e-01 -4.52444479e-02 2.75421023e-01
      3.45814824e-01 3.35936621e-02 2.54895091e-01 3.27417850e-01
      7.80698583e-02 4.89319742e-01 6.34113133e-01 -5.43162227e-02
      4.70235944e-01 6.41049683e-01 -4.19400930e-02 4.55190659e-01
      6.48001015e-01 -2.79182866e-02 4.37733173e-01 6.59147382e-01
      4.60652262e-03 4.45797503e-01 6.63758814e-01 -8.63430649e-03
      4.45665777e-01 6.55741930e-01 5.39742410e-04 4.67634082e-01
      6.50616586e-01 -1.93719491e-02 4.80951846e-01 6.48463011e-01
      -2.81680748e-02 4.95702744e-01 6.47485375e-01 -3.55529189e-02
      4.86443102e-01 7.12974489e-01 1.60239637e-04 4.89229202e-01
      6.94716275e-01 -2.71553397e-02 4.90210831e-01 6.81853771e-01
      -3.35135534e-02 4.91475701e-01 6.69086754e-01 -3.12124491e-02
      4.93376076e-01 6.60577774e-01 -2.83417776e-02 4.63735282e-01
      6.59166217e-01 -1.46510005e-02 4.60620940e-01 6.62767112e-01
      -1.84511170e-02 4.55745995e-01 6.69397652e-01 -2.13667005e-02
      4.50686455e-01 6.76938653e-01 -1.66531801e-02 4.25254166e-01
      6.17732465e-01 -2.20893845e-02 4.55051005e-01 6.58408105e-01
      -5.48073649e-03 4.51016724e-01 6.60499454e-01 -8.38433951e-03
      4.86771822e-01 5.72639108e-01 -5.11215590e-02 4.55298781e-01
      5.68946898e-01 -2.78504118e-02 4.11915541e-01 4.89840806e-01
      -1.05352625e-02 3.72480750e-01 5.06372631e-01 -3.70017439e-03
      4.41302717e-01 5.45017362e-01 -3.91330197e-02 4.36989129e-01
      6.93808198e-01 2.14958936e-03 4.44776714e-01 3.29207003e-01
      -5.68988919e-02 3.34025979e-01 4.32319999e-01 2.09192857e-02
      2.77883232e-01 4.53041077e-01 5.49511090e-02 3.02630067e-01
      3.89404893e-01 2.82186344e-02 4.52259123e-01 4.60214317e-01
      -2.71902084e-02 2.53096581e-01 4.66252863e-01 8.15155879e-02
      2.94734657e-01 4.73385274e-01 3.46905366e-02 3.27026665e-01
      4.84693766e-01 1.37219653e-02 3.73500824e-01 4.80243921e-01
      4.89611179e-03 4.07327235e-01 4.69901085e-01 -2.57261097e-04
      4.32445824e-01 4.58295166e-01 -6.59060478e-03 2.60382414e-01
      5.18665791e-01 7.75925890e-02 2.82567382e-01 3.85073423e-01
      3.93584445e-02 4.42580104e-01 4.98332202e-01 -2.66026109e-02
      4.37651098e-01 5.45011878e-01 -1.65319964e-02 3.14781904e-01
      4.05844688e-01 3.71572450e-02 3.29693854e-01 6.92670703e-01
      9.64934304e-02 2.40508094e-01 3.65121365e-01 1.18487217e-01
      4.22921121e-01 5.15967965e-01 -1.78800374e-02 2.54863620e-01
      4.18007791e-01 8.76526907e-02 3.53934646e-01 4.24368560e-01
      1.22694448e-02 4.39569712e-01 6.68072283e-01 -4.58592921e-03
      2.70082593e-01 5.64965725e-01 8.61862078e-02 5.00231326e-01
      2.66117811e-01 -5.19856587e-02 2.63531268e-01 3.77450049e-01
      6.28898516e-02 3.37777138e-01 3.96191716e-01 1.35903582e-02
      3.39896262e-01 4.18726385e-01 1.93196610e-02 5.08890808e-01
      5.87010384e-01 -5.18232137e-02 4.44822729e-01 6.02732658e-01
      -3.11923623e-02 4.83034670e-01 5.91716349e-01 -5.00780419e-02
      4.69806910e-01 4.66940165e-01 -5.76742105e-02 4.76913154e-01
      6.59505427e-01 -2.21163109e-02 4.73874032e-01 6.65814102e-01
      -2.58237347e-02 4.70557511e-01 6.75783873e-01 -2.83035412e-02
      4.67619956e-01 6.87494278e-01 -2.32514516e-02 4.59505200e-01
      7.05273390e-01 -2.07655877e-03 4.51482594e-01 6.55382991e-01
      -1.00322440e-02 4.43898499e-01 6.54254436e-01 -1.03654861e-02
      4.36807752e-01 6.51683569e-01 -1.05702952e-02 4.10442054e-01
      6.37492180e-01 -6.35111332e-03 3.05870295e-01 5.82976460e-01
      3.97584513e-02 4.56223190e-01 6.51956618e-01 -8.02787393e-03
      3.08020145e-01 6.33878171e-01 7.72054270e-02 4.43922281e-01
      7.25263655e-01 1.19838715e-02 4.57406163e-01 5.03486753e-01
      -5.53743616e-02 5.14728904e-01 7.38125622e-01 2.06520408e-03
      4.78094697e-01 7.36707270e-01 4.04510647e-03 3.93636286e-01
      6.88161135e-01 2.32983455e-02 4.17602181e-01 5.64295650e-01
      -1.09344497e-02 4.16845560e-01 7.09739029e-01 1.81103870e-02
      3.57947826e-01 5.64209878e-01 -4.31612134e-03 3.95466685e-01
      5.88970125e-01 -8.76525044e-03 3.42238486e-01 6.01602197e-01
      1.43192038e-02 4.46592212e-01 5.16744912e-01 -3.84739786e-02
      3.71949971e-01 7.01297343e-01 4.70469519e-02 3.74512970e-01
      6.61624551e-01 2.35227719e-02 2.80944109e-01 6.03295743e-01
      9.60845128e-02 3.42456341e-01 6.62421942e-01 4.70389351e-02
      3.80930007e-01 6.21488273e-01 2.52634287e-03 4.56180573e-01
      4.82076347e-01 -4.10145000e-02 3.13711643e-01 3.72474611e-01
      6.64459914e-03 2.98160106e-01 4.11292493e-01 4.70771715e-02
      3.16297323e-01 4.48566079e-01 3.01483050e-02 3.41295481e-01
      4.57482934e-01 1.70606151e-02 3.73482168e-01 4.58659351e-01
      8.17301124e-03 4.04147863e-01 4.53333557e-01 3.78566235e-03
      4.62436557e-01 5.65624297e-01 -4.05368209e-02 3.29542756e-01
      4.00890231e-01 2.17582062e-02 3.16842854e-01 3.92257512e-01
      2.12283209e-02 6.77894115e-01 4.04913783e-01 3.51875201e-02
      6.35979652e-01 4.35030699e-01 1.21161491e-02 6.58507824e-01
      4.31282818e-01 1.95943788e-02 6.86813235e-01 4.13253486e-01
      3.94097045e-02 6.79362595e-01 3.74306500e-01 1.64147243e-02
      7.06802368e-01 4.27121103e-01 5.36500439e-02 6.85038686e-01
      3.96473885e-01 4.28128019e-02 7.31939733e-01 4.05779839e-01
      7.76655301e-02 6.23162329e-01 5.29753566e-01 -6.35896623e-03
      5.34623921e-01 6.19943440e-01 -5.68217039e-02 5.31445742e-01
      6.42961204e-01 -4.58084717e-02 5.59981167e-01 6.29625320e-01
      -4.32087854e-02 5.76894581e-01 6.41182244e-01 -2.75553092e-02
      5.48918843e-01 6.46914840e-01 -3.78823578e-02 5.63202620e-01
      6.50468171e-01 -2.34072283e-02 6.08713865e-01 6.77670538e-01
      1.25038251e-02 7.15087533e-01 3.48287642e-01 2.60558054e-02
      5.76652706e-01 4.72287118e-01 -1.50345638e-02 5.73623180e-01
      5.32178760e-01 -5.03185689e-02 6.99042022e-01 5.26504993e-01
      2.55480334e-02 5.53755522e-01 3.56804848e-01 -4.10876721e-02
      6.23521268e-01 6.56067908e-01 1.58581659e-02 5.94244480e-01
      6.57192051e-01 8.67719203e-03 5.84724963e-01 6.55911446e-01
      1.20157748e-03 5.70490301e-01 5.54158568e-01 -4.28934321e-02
      7.29828715e-01 3.34680617e-01 4.70352098e-02 7.47446120e-01
      3.15381169e-01 9.27032009e-02 5.33622205e-01 6.33332610e-01
      -5.42958677e-02 5.53975761e-01 6.39875352e-01 -4.22070175e-02
      5.70174038e-01 6.46248877e-01 -2.77757421e-02 5.88917613e-01
      6.57048702e-01 4.89035994e-03 5.82921743e-01 6.61737084e-01
      -7.53029436e-03 5.82904756e-01 6.54117525e-01 4.89264727e-04
      5.58962643e-01 6.49359167e-01 -2.02358142e-02 5.44366896e-01
      6.47756338e-01 -2.92877331e-02 5.28678179e-01 6.46810234e-01
      -3.61102670e-02 5.41843176e-01 7.12106645e-01 2.14628875e-03
      5.39530694e-01 6.94093645e-01 -2.62686834e-02 5.37873626e-01
      6.81247234e-01 -3.29324976e-02 5.34811437e-01 6.68704689e-01
      -3.12555432e-02 5.32297015e-01 6.60326064e-01 -2.87990943e-02
      5.64193606e-01 6.57874286e-01 -1.44484416e-02 5.68048954e-01
      6.61279917e-01 -1.75374374e-02 5.73994935e-01 6.67652965e-01
      -1.97602287e-02 5.79023242e-01 6.75044358e-01 -1.46407411e-02
      5.97931564e-01 6.14439428e-01 -1.84443519e-02 5.73211789e-01
      6.57087207e-01 -5.91719896e-03 5.77398181e-01 6.58862770e-01
      -8.02623481e-03 5.31020403e-01 5.71779370e-01 -5.03318533e-02
      5.61976790e-01 5.66816688e-01 -2.50035301e-02 6.01915240e-01
      4.85306084e-01 -5.71528822e-03 6.42426193e-01 5.00158727e-01
      4.54907864e-03 5.76125622e-01 5.41765511e-01 -3.64132896e-02
      5.92869997e-01 6.91830158e-01 5.37373126e-03 5.60764849e-01
      3.25332224e-01 -5.25617041e-02 6.77208126e-01 4.24372315e-01
      3.04660723e-02 7.33129680e-01 4.42723572e-01 6.90431967e-02
      7.05428958e-01 3.79939735e-01 3.94569859e-02 5.60473859e-01
      4.57512856e-01 -2.47391313e-02 7.58486092e-01 4.55336392e-01
      9.63597074e-02 7.18093336e-01 4.63764489e-01 4.74111810e-02
      6.87031984e-01 4.76206124e-01 2.45542303e-02 6.39632821e-01
      4.73928571e-01 1.21019259e-02 6.04966581e-01 4.65050876e-01
      4.80217487e-03 5.79305172e-01 4.54537749e-01 -2.96040624e-03
      7.54379034e-01 5.08568347e-01 9.17754546e-02 7.25573182e-01
      3.74687195e-01 5.19779846e-02 5.71537912e-01 4.95342851e-01
      -2.42399424e-02 5.77540994e-01 5.41837037e-01 -1.33668855e-02
      6.93045318e-01 3.97101581e-01 4.75910828e-02 6.97215497e-01
      6.89074993e-01 1.07925914e-01 7.62125969e-01 3.53041470e-01
      1.33642465e-01 5.92162073e-01 5.11954248e-01 -1.35709867e-02
      7.52851248e-01 4.06796396e-01 1.02262624e-01 6.56102717e-01
      4.17191207e-01 2.05029622e-02 5.88798821e-01 6.65986776e-01
      -3.17251682e-03 7.47746944e-01 5.56015372e-01 1.00295149e-01
      7.43327916e-01 3.66252363e-01 7.68184736e-02 6.70975924e-01
      3.88229489e-01 2.28380039e-02 6.69226825e-01 4.10999656e-01
      2.86350623e-02 5.76175570e-01 5.99968374e-01 -2.84768119e-02
      5.36202192e-01 5.90743661e-01 -4.92385477e-02 5.44038951e-01
      4.65188444e-01 -5.59324957e-02 5.49564183e-01 6.58690870e-01
      -2.24975199e-02 5.53776085e-01 6.64815784e-01 -2.55631730e-02
      5.58367372e-01 6.74560010e-01 -2.76593789e-02 5.61964571e-01
      6.86316609e-01 -2.22770944e-02 5.70624173e-01 7.04209864e-01
      5.57750463e-05 5.75728536e-01 6.53732538e-01 -1.02535859e-02
      5.82498670e-01 6.52385354e-01 -1.03766844e-02 5.89115262e-01
      6.49455845e-01 -1.00005046e-02 6.14327013e-01 6.34000897e-01
      -2.97239423e-03 7.15363801e-01 5.74916303e-01 5.24974689e-02
      5.71342587e-01 6.50568247e-01 -8.66297632e-03 7.15165734e-01
      6.27398908e-01 8.95680562e-02 5.86911857e-01 7.24104404e-01
      1.67083219e-02 5.58300674e-01 5.01043618e-01 -5.28889298e-02
      5.52169561e-01 7.36144543e-01 6.85179979e-03 6.35135949e-01
      6.84868932e-01 3.03636864e-02 5.99548995e-01 5.60285091e-01
      -6.01746887e-03 6.13876104e-01 7.07548738e-01 2.42425278e-02
      6.61863506e-01 5.57569623e-01 5.94922155e-03 6.24794364e-01
      5.84300995e-01 -2.00268626e-03 6.80501759e-01 5.94907820e-01
      2.51170620e-02 5.69253683e-01 5.13653755e-01 -3.56186256e-02
      6.56923115e-01 6.97956920e-01 5.60921952e-02 6.51952922e-01
      6.57208741e-01 3.06180939e-02 7.39440858e-01 5.95551372e-01
      1.09981276e-01 6.84443176e-01 6.57276571e-01 5.74183986e-02
      6.42720103e-01 6.16367340e-01 9.70748812e-03 5.57628274e-01
      4.79755700e-01 -3.90573591e-02 6.94441736e-01 3.62967193e-01
      1.76636651e-02 7.10017860e-01 4.01790798e-01 5.88374510e-02
      6.94952250e-01 4.39754188e-01 4.13422957e-02 6.70886219e-01
      4.49690580e-01 2.67359987e-02 6.38700008e-01 4.52195168e-01
      1.53659508e-02 6.07796073e-01 4.48198617e-01 8.78383219e-03
      5.55732250e-01 5.63557029e-01 -3.81165519e-02 6.78674459e-01
      3.92586768e-01 3.18816975e-02 6.91639245e-01 3.83150935e-01
      3.21495309e-02</_>
    <_>
      5.08005619e-01 6.22396111e-01 -3.20668221e-02 5.10960400e-01
      5.82770586e-01 -4.86560762e-02 3.34407896e-01 4.16634917e-01
      3.50235850e-02 5.05237222e-01 3.67539972e-01 -5.51123172e-02
      5.04252017e-01 3.34581465e-01 -6.47952557e-02 5.07526398e-01
      6.32269382e-01 -2.81329453e-02 5.06930530e-01 6.38134003e-01
      -2.09132731e-02 5.06580591e-01 6.38910890e-01 -9.69828665e-03
      5.10681093e-01 6.98472500e-01 4.67477739e-03 5.10614872e-01
      7.08091378e-01 1.06289983e-03 5.10349989e-01 7.18812943e-01
      -2.44350731e-03 5.10968149e-01 7.32792020e-01 4.33364511e-03
      5.11939645e-01 7.54492521e-01 2.90042907e-02 3.84399086e-01
      4.34809715e-01 1.27458423e-02 3.59282374e-01 4.34722483e-01
      1.87906921e-02 3.23854864e-01 4.24063534e-01 3.98034006e-02
      3.25429559e-01 3.90670300e-01 1.92891657e-02 3.04928452e-01
      4.40315574e-01 5.32770976e-02 3.23107690e-01 4.12096798e-01
      4.25040424e-02 2.75980830e-01 4.29633617e-01 7.44528547e-02
      3.81246448e-01 5.30044854e-01 2.60372460e-03 4.69357908e-01
      6.18720055e-01 -2.83668935e-02 4.70510304e-01 6.37363076e-01
      -1.55462176e-02 4.29899842e-01 6.21346354e-01 -9.54726338e-03
      4.05248374e-01 6.26468778e-01 1.85809582e-02 4.41905260e-01
      6.36338472e-01 -1.12096965e-03 4.20675039e-01 6.37625456e-01
      2.41888463e-02 3.81990582e-01 6.77301049e-01 7.51641244e-02
      2.88177043e-01 3.69761109e-01 1.71141028e-02 4.34917033e-01
      4.71855730e-01 -9.62822139e-03 4.29417163e-01 5.30281782e-01
      -4.47409749e-02 3.04390550e-01 5.25681019e-01 3.28318030e-02
      4.54994023e-01 3.66246998e-01 -4.80445921e-02 3.60204726e-01
      6.44695044e-01 7.43808448e-02 3.75228733e-01 6.43762946e-01
      7.56368712e-02 3.87677342e-01 6.45439386e-01 6.97038770e-02
      4.28445101e-01 5.51504135e-01 -3.59842628e-02 2.72217065e-01
      3.59112680e-01 3.59348506e-02 2.53527552e-01 3.43845785e-01
      8.01515132e-02 4.69037712e-01 6.30248547e-01 -2.43161768e-02
      4.36595947e-01 6.30954504e-01 -5.44695556e-03 4.12832886e-01
      6.32142305e-01 2.03110725e-02 3.80903959e-01 6.44225478e-01
      7.24233240e-02 3.97221595e-01 6.67426825e-01 6.06002286e-02
      3.92104745e-01 6.46134019e-01 6.85562268e-02 4.24382180e-01
      6.35243297e-01 2.84850597e-02 4.46401596e-01 6.35927916e-01
      9.03801620e-03 4.72984493e-01 6.37868762e-01 -4.81951237e-03
      4.71880704e-01 7.51659274e-01 3.31824720e-02 4.71452236e-01
      7.28815794e-01 8.91737640e-03 4.72460687e-01 7.15441704e-01
      3.51588428e-03 4.74752069e-01 7.04702377e-01 6.75812364e-03
      4.77360517e-01 6.96611524e-01 9.63315368e-03 4.26583976e-01
      6.78604722e-01 4.00026441e-02 4.21949774e-01 6.81137085e-01
      3.88364792e-02 4.15826857e-01 6.86177850e-01 3.90684158e-02
      4.11777318e-01 6.93605304e-01 4.51998562e-02 3.92447591e-01
      6.09211206e-01 2.08922327e-02 4.11416113e-01 6.67812109e-01
      5.70344925e-02 4.03943449e-01 6.66932225e-01 5.79946488e-02
      4.78158265e-01 5.80068946e-01 -4.01496887e-02 4.35238361e-01
      5.66135228e-01 -1.36972368e-02 4.09626633e-01 4.83087420e-01
      7.61017203e-04 3.66773754e-01 4.97474581e-01 8.60714912e-03
      4.24227536e-01 5.39214432e-01 -2.88040638e-02 4.05496985e-01
      7.08472729e-01 6.21074885e-02 4.45790857e-01 3.32653463e-01
      -6.04974329e-02 3.36943656e-01 4.31499362e-01 2.92440653e-02
      2.78031170e-01 4.58093226e-01 6.89686388e-02 3.01218599e-01
      3.99956435e-01 3.75275016e-02 4.52104926e-01 4.58714366e-01
      -2.07020342e-02 2.51353920e-01 4.77659941e-01 9.82006714e-02
      2.95832366e-01 4.69990164e-01 4.98567671e-02 3.27944994e-01
      4.75553274e-01 2.95335352e-02 3.75906497e-01 4.72431809e-01
      1.70323253e-02 4.11360055e-01 4.64249194e-01 1.09491646e-02
      4.35112834e-01 4.54566777e-01 2.14478374e-03 2.51629621e-01
      5.25373101e-01 9.83302519e-02 2.80352592e-01 3.97120833e-01
      4.62154225e-02 4.36373562e-01 4.95765746e-01 -1.72710121e-02
      4.21725452e-01 5.41339159e-01 -1.67186558e-03 3.15225840e-01
      4.14191127e-01 4.69754338e-02 3.18538696e-01 7.24857330e-01
      1.47039741e-01 2.40956575e-01 3.88311982e-01 1.24237761e-01
      4.13395405e-01 5.10528147e-01 -5.04478812e-03 2.54023373e-01
      4.36188042e-01 9.78865325e-02 3.62809956e-01 4.22250658e-01
      2.05275118e-02 3.91412467e-01 6.68983698e-01 6.49817288e-02
      2.53204703e-01 5.77582955e-01 1.14980794e-01 5.01622975e-01
      2.59591967e-01 -6.07932210e-02 2.61443287e-01 3.92751873e-01
      6.94452673e-02 3.34515989e-01 4.01156127e-01 2.49358863e-02
      3.46679628e-01 4.19846028e-01 2.81186402e-02 5.10267556e-01
      5.96461415e-01 -3.67922783e-02 4.18899804e-01 5.97377360e-01
      -2.63963640e-03 4.71835941e-01 5.95772386e-01 -3.14322859e-02
      4.69431400e-01 4.67024952e-01 -5.53734601e-02 4.49821889e-01
      6.89411163e-01 2.26201266e-02 4.45284992e-01 6.95102215e-01
      2.10377276e-02 4.41070557e-01 7.03842878e-01 2.06378251e-02
      4.38885033e-01 7.16232538e-01 2.63203233e-02 4.33798969e-01
      7.34467983e-01 4.51896936e-02 3.99295747e-01 6.39006615e-01
      4.80571687e-02 3.91938269e-01 6.35983229e-01 4.89857420e-02
      3.85185093e-01 6.31896734e-01 4.85688448e-02 3.69844377e-01
      6.23697519e-01 4.73765209e-02 2.82390326e-01 5.83859324e-01
      6.84548914e-02 4.05655712e-01 6.37306094e-01 5.03944904e-02
      2.84526527e-01 6.50147200e-01 1.17388546e-01 4.28631246e-01
      7.55206585e-01 5.91249391e-02 4.52051669e-01 5.02143383e-01
      -5.02082705e-02 5.13074160e-01 7.77367234e-01 3.61519158e-02
      4.69419122e-01 7.74159551e-01 4.32545766e-02 3.71238291e-01
      6.92605734e-01 8.63599777e-02 4.00198847e-01 5.59792876e-01
      8.58692825e-03 3.97742152e-01 7.27114439e-01 7.63907656e-02
      3.37714016e-01 5.59739232e-01 1.89117342e-02 3.73811871e-01
      5.84578395e-01 2.25322396e-02 3.16622734e-01 5.99101186e-01
      4.86401320e-02 4.36938643e-01 5.13127565e-01 -2.94672698e-02
      3.58614147e-01 7.21176147e-01 1.05778441e-01 3.47009182e-01
      6.55883789e-01 7.94174299e-02 2.60771811e-01 6.22415543e-01
      1.31615251e-01 3.18872780e-01 6.71531200e-01 9.70703587e-02
      3.50445747e-01 6.09527588e-01 4.40906137e-02 4.53415602e-01
      4.81671959e-01 -3.47160399e-02 3.10269386e-01 3.81677061e-01
      1.60524100e-02 2.99064994e-01 4.21400279e-01 5.68838790e-02
      3.19830298e-01 4.48273569e-01 4.24212664e-02 3.46563786e-01
      4.53397423e-01 2.82041281e-02 3.80497783e-01 4.52756971e-01
      1.84992552e-02 4.11386698e-01 4.47819710e-01 1.43157095e-02
      4.43414837e-01 5.63718081e-01 -3.03280652e-02 3.27737838e-01
      4.07149881e-01 3.23812515e-02 3.14903170e-01 4.00871754e-01
      3.34432274e-02 6.72393739e-01 4.05178249e-01 3.84351462e-02
      6.22310877e-01 4.28362042e-01 1.76178366e-02 6.46518588e-01
      4.26958203e-01 2.29741484e-02 6.80235445e-01 4.12589222e-01
      4.37225699e-02 6.77985787e-01 3.78970087e-01 2.19857246e-02
      6.98160648e-01 4.29631382e-01 5.59967905e-02 6.82590783e-01
      3.99456501e-01 4.60145250e-02 7.22941875e-01 4.17579055e-01
      7.67138898e-02 6.30063355e-01 5.24068713e-01 1.82709098e-03
      5.45178831e-01 6.16338611e-01 -2.97072828e-02 5.40922105e-01
      6.35285616e-01 -1.65996701e-02 5.81726909e-01 6.16772413e-01
      -1.17262006e-02 6.04287028e-01 6.21119678e-01 1.66502893e-02
      5.67566216e-01 6.33070588e-01 -2.02554464e-03 5.88563740e-01
      6.33859992e-01 2.26918757e-02 6.31629050e-01 6.70401454e-01
      7.39589706e-02 7.10379601e-01 3.56343985e-01 2.00179666e-02
      5.76688707e-01 4.68847990e-01 -8.50386918e-03 5.85211039e-01
      5.26398182e-01 -4.58702296e-02 7.01036096e-01 5.15719414e-01
      3.29184681e-02 5.53991377e-01 3.64037812e-01 -4.76042330e-02
      6.50584459e-01 6.37165666e-01 7.41138309e-02 6.35412395e-01
      6.38157964e-01 7.44994804e-02 6.22383118e-01 6.40926719e-01
      6.78809360e-02 5.87372720e-01 5.47456861e-01 -3.82470191e-02
      7.23574281e-01 3.45877618e-01 3.85833606e-02 7.37260222e-01
      3.32925737e-01 8.29254240e-02 5.43531477e-01 6.27914786e-01
      -2.54756212e-02 5.74098349e-01 6.27045870e-01 -6.88798726e-03
      5.96528292e-01 6.27455235e-01 1.82123482e-02 6.29433632e-01
      6.39089108e-01 7.07306713e-02 6.15365922e-01 6.62605762e-01
      5.82121536e-02 6.17505014e-01 6.41798496e-01 6.74072951e-02
      5.83603799e-01 6.32034421e-01 2.71565318e-02 5.62997282e-01
      6.33283854e-01 8.40786099e-03 5.37934363e-01 6.36428595e-01
      -5.40514290e-03 5.50826609e-01 7.48990297e-01 3.16660255e-02
      5.48595905e-01 7.26770282e-01 7.83348083e-03 5.46853304e-01
      7.13358641e-01 2.76058912e-03 5.44905663e-01 7.02920794e-01
      6.23878837e-03 5.41772366e-01 6.94842100e-01 9.38372314e-03
      5.87636292e-01 6.74685597e-01 3.86470407e-02 5.92262805e-01
      6.76820517e-01 3.62715572e-02 5.98509371e-01 6.81352377e-01
      3.62123102e-02 6.03726923e-01 6.88327789e-01 4.21613902e-02
      6.21070504e-01 6.03348255e-01 1.84184611e-02 6.01317585e-01
      6.64024472e-01 5.66683859e-02 6.08786762e-01 6.62519097e-01
      5.62718809e-02 5.43019950e-01 5.78653872e-01 -4.14591879e-02
      5.82753658e-01 5.62403917e-01 -1.81405842e-02 6.01194203e-01
      4.79212493e-01 2.57483125e-03 6.42194748e-01 4.91249532e-01
      9.45970416e-03 5.90538204e-01 5.35309553e-01 -3.05295885e-02
      6.12007856e-01 7.01989412e-01 6.10228181e-02 5.61776280e-01
      3.30314189e-01 -6.12169206e-02 6.67953551e-01 4.21749860e-01
      3.35793197e-02 7.22837687e-01 4.46836501e-01 7.07081258e-02
      7.00034261e-01 3.87159377e-01 4.05868590e-02 5.60319722e-01
      4.56440240e-01 -1.89691782e-02 7.47473717e-01 4.65055913e-01
      1.00823022e-01 7.07579970e-01 4.60216701e-01 5.23481667e-02
      6.78198278e-01 4.67676461e-01 3.16771120e-02 6.32893384e-01
      4.66953725e-01 1.98829472e-02 5.98854780e-01 4.60190654e-01
      1.36330128e-02 5.75568795e-01 4.51494187e-01 4.05412912e-03
      7.49959946e-01 5.12215495e-01 1.00711174e-01 7.17324853e-01
      3.84522676e-01 4.92413938e-02 5.77128589e-01 4.92953897e-01
      -1.65474266e-02 5.94487190e-01 5.37265539e-01 -4.23572958e-03
      6.88796639e-01 4.01479304e-01 5.07568344e-02 6.93257749e-01
      7.08084345e-01 1.49928614e-01 7.51248479e-01 3.77100676e-01
